tree
version=v4
num_class=1
num_tree_per_iteration=1
label_index=0
max_feature_idx=10
objective=regression
feature_names=Column_0 Column_1 Column_2 Column_3 Column_4 Column_5 Column_6 Column_7 Column_8 Column_9 Column_10
feature_infos=[0:1] [0:1] [0:1] [0:1] [0:1] [0:1] [0:1] [0:1] [0:1] [0:1] [0:1]
tree_sizes=3034 3104 3092 2784 2802 2896 2780 2896 3063 2920 3087 2802 2979 3008 2998 2891 3014 2785 2995 3123 2805 2768 2933 2799 3035 2875 3025 2885 2815 2930 2906 3126 3139 3117 2882 3062 2904 3002 2890 2947 3058 3120 2958 2988 2994 2701 2762 2924 3171 2699 2916 3015 2973 3100 3089 2821 2930 2924 3153 3033 2731 2996 2820 3131 3110 2626 3003 2732 3100 3118 2889 2720 3096 3150 3010 3163 2695 2819 2948 2896 3039 2924 2989 3076 3129 2900 2950 2998 2804 2888 3145 3077 2860 3109 3154 2337 2542 2820 2994 3127 2983 3072 3108 3124 2909 2968 3081 3076 3012 3032 2524 2612 3056 2534 3137 3017 2657 2658 2940 3123 3086 2618 3113 3081 2928 2801 3106 3005 2913 2931 2226 2427 3028 3118 2909 3169 3158 3159 3134 3138 2934 2726 2817 3139 2619 3023 2794 3079 3124 3074 3108 3087 3125 3131 3165 2911 2552 2644 3111 3051 2796 2439 3119 2108 3153 3159 3162 2783 3132 2711 3029 3135 3044 3190 2952 2959 2557 3104 2714 2624 2584 2310 2908 2313 2401 2683 2596 2241 2593 2260 3118 2768 2834 2774 2762 3185 3188 3192 3165 3154 3171 2741 3103 2928 2833 3035 3099 3080 3022 3075 3107 3006 3095 2829 3008 3187 3032 3079 3161 3113 2690 2634 3129 3133 2345 3051 2517 3113 2551 2805 3148 3160 3094 3128 3186

Tree=0
num_leaves=31
num_cat=0
split_feature=4 3 0 7 7 9 6 3 0 9 6 0 4 1 6 6 0 9 0 6 6 0 7 4 0 0 0 4 4 6
split_gain=2.47173 2.00162 1.62404 0.847284 0.729831 0.462452 0.435095 0.387726 0.370334 0.361717 0.396777 0.229824 0.1874 0.183442 0.158447 0.154503 0.144559 0.107222 0.103122 0.099671 0.0968068 0.0992906 0.0821058 0.0676335 0.0629474 0.0582557 0.0357688 0.0347368 0.0225493 0.0101941
threshold=0.94857415556907665 1.0000000180025095e-35 0.14853191375732425 0.88313028216362011 0.99999997019767772 0.99999991059303295 0.50672176480293285 0.004224226577207447 0.48159490525722509 0.72714242339134227 0.028705309145152572 0.13414409011602405 0.0073649794794619092 0.77961084246635448 0.67095723748207103 0.35287773609161383 0.0030961181037127976 0.71570008993148815 0.54838669300079357 0.63812580704689037 0.0022019189782440667 0.43484885990619665 0.12171404063701631 0.040174217894673354 0.38872785866260534 0.18394894152879718 0.10694247484207155 0.093372162431478514 0.086487982422113432 0.011272917967289688
decision_type=2 2 2 2 2 2 2 2 2 2 2 2 2 2 2 2 2 2 2 2 2 2 2 2 2 2 2 2 2 2
left_child=3 2 4 7 6 11 -2 12 17 10 -4 14 18 -13 -3 -11 -6 23 -1 -14 28 -22 26 -5 -24 -19 -7 29 -9 -10
right_child=1 5 9 8 16 22 -8 20 27 15 -12 13 19 -15 -16 -17 -18 25 -20 -21 21 -23 24 -25 -26 -27 -28 -29 -30 -31
leaf_value=0.0078446434360690091 0.0078923759849967058 0.0079948152159168995 0.0092720885464225231 0.0076414759178124181 0.0086937425322596261 0.0077775920905189698 0.0087920165372332645 0.0078532988498388103 0.0065464728210669317 0.0094451895139159667 0.0083859657589680624 0.0082520264499201627 0.0079080995648246472 0.0079055626112145387 0.0087698235260726693 0.010479556095787266 0.0094931566725058158 0.0075117364990080647 0.0076400646354469106 0.0081943340233592964 0.0079897285804286493 0.0077148451420081072 0.0075612114486835226 0.0078063991622507687 0.0084235483182170303 0.0069231550740234673 0.008338515745534663 0.0073263384015368705 0.0079236916205307553 0.0058613554654227832
leaf_weight=72128 2935 14955 1125 5921 584 197 578 5642 169 806 785 8179 45540 1634 242 169 337 1696 2301 1121 44513 1210 2158 3725 76 176 202 54 15273 52
leaf_count=72128 2935 14955 1125 5921 584 197 578 5642 169 806 785 8179 45540 1634 242 169 337 1696 2301 1121 44513 1210 2158 3725 76 176 202 54 15273 52
internal_value=0.00792507 0.00815777 0.00859899 0.00788431 0.0082376 0.00804083 0.00803956 0.00789983 0.00763763 0.00915335 0.00890951 0.00808072 0.00786783 0.00819403 0.00800736 0.0096278 0.00898965 0.00766394 0.00783828 0.00791504 0.00795792 0.00798239 0.00766309 0.00770485 0.00759191 0.00745475 0.00805408 0.00654727 0.00790456 0.00637084
internal_weight=234483 34962 7319 199521 4434 27643 3513 187728 11793 2885 1910 25010 121090 9813 15197 975 921 11518 74429 46661 66638 45723 2633 9646 2234 1872 399 275 20915 221
internal_count=234483 34962 7319 199521 4434 27643 3513 187728 11793 2885 1910 25010 121090 9813 15197 975 921 11518 74429 46661 66638 45723 2633 9646 2234 1872 399 275 20915 221
is_linear=0
shrinkage=1


Tree=1
num_leaves=31
num_cat=0
split_feature=4 3 10 7 5 9 5 7 6 3 10 6 6 10 4 9 4 10 8 8 10 10 7 8 6 6 7 9 3 9
split_gain=2.32606 1.88371 1.93218 0.797489 0.476474 0.435078 0.396343 0.365413 0.442931 0.314346 0.251719 0.168159 0.166035 0.242084 0.153292 0.152097 0.118571 0.117191 0.110844 0.102032 0.0832169 0.0820021 0.0804726 0.0763694 0.0750702 0.054174 0.0524182 0.0447252 0.0403529 0.0134258
threshold=0.94857415556907665 1.0000000180025095e-35 0.9356917440891267 0.88313028216362011 0.99998664855957042 0.99999991059303295 0.99998664855957042 0.99999997019767772 0.27370637655258184 0.0075117340311408052 0.13748013973236087 0.041765326634049423 0.4862398654222489 0.55600693821907055 0.0073649794794619092 0.58774903416633617 0.0098970169201493281 0.1789655610918999 0.3535140752792359 0.70072606205940258 0.58960452675819408 0.9918673336505891 0.75139215588569652 0.08373852446675302 0.097818203270435347 0.022216390818357471 0.98273491859436046 0.72714242339134227 0.947350174188614 0.30295348167419439
decision_type=2 2 2 2 2 2 2 2 2 2 2 2 2 2 2 2 2 2 2 2 2 2 2 2 2 2 2 2 2 2
left_child=3 2 6 4 9 12 11 8 -4 14 19 -2 18 -14 -1 -12 21 -11 -3 -6 -8 23 25 -5 27 -7 -23 -18 -24 -26
right_child=1 5 7 16 10 22 20 -9 -10 17 15 -13 13 -15 -16 -17 24 -19 -20 -21 -22 26 28 -25 29 -27 -28 -29 -30 -31
leaf_value=-8.7845249360495424e-05 0.00036573220592529137 0.00015886108716408828 0.00072940293482051991 -0.0002136863629046899 -0.00011101932896862428 -0.00020475735513400005 0.00084372448891190327 0.0016288253734012216 0.0018681604097194827 -5.0743294432334367e-05 0.00027543138764543162 -4.7151614801164862e-05 0.00021081835021854098 0.0014422267157223495 -1.8724317414132934e-05 0.00080757591006630481 -9.7416048932745853e-05 4.7252296339488824e-05 -6.0627203460838252e-05 0.0001959673631609252 0.0019490787718199577 -0.00021153541402827919 0.00025272505491704284 -0.0006201749651353277 -0.00032947698791431919 0.00032134432782837658 -0.0005386440896295861 -0.00033862724906503616 -0.00059109754601041956 -0.001008625372977096
leaf_weight=74413 1487 22085 1572 3374 1388 1728 414 1201 389 14525 1149 2177 443 218 47393 867 3873 44796 2264 3197 79 578 50 487 55 192 2453 864 663 109
leaf_count=74413 1487 22085 1572 3374 1388 1728 414 1201 389 14525 1149 2177 443 218 47393 867 3873 44796 2264 3197 79 578 50 487 55 192 2453 864 663 109
internal_value=2.40034e-07 0.000225974 0.00065401 -3.93003e-05 -2.425e-05 0.000112533 0.000227992 0.00121311 0.00095691 -3.33886e-05 0.000226048 0.0001196 0.000151225 0.000621636 -6.09759e-05 0.000505802 -0.000278623 2.3207e-05 0.000138329 0.00010238 0.00102729 -0.000359212 -0.000253848 -0.00026575 -0.000164678 -0.000150571 -0.000477265 -0.000142051 -0.000527689 -0.000799483
internal_weight=234483 34962 7319 199521 187728 27643 4157 3162 1961 181127 6601 3664 25010 661 121806 2016 11793 59321 24349 4585 493 6892 2633 3861 4901 1920 3031 4737 713 164
internal_count=234483 34962 7319 199521 187728 27643 4157 3162 1961 181127 6601 3664 25010 661 121806 2016 11793 59321 24349 4585 493 6892 2633 3861 4901 1920 3031 4737 713 164
is_linear=0
shrinkage=0.03


Tree=2
num_leaves=31
num_cat=0
split_feature=4 3 0 7 7 5 9 5 0 9 1 3 4 0 1 0 0 0 0 9 5 5 0 1 9 4 0 7 4 1
split_gain=2.18892 1.77267 1.4861 0.750683 0.654463 0.448371 0.409324 0.401637 0.347023 0.329872 0.353236 0.295769 0.223849 0.215424 0.172585 0.159475 0.134849 0.118579 0.112942 0.097701 0.0839323 0.0796077 0.077466 0.0735726 0.0735141 0.058621 0.0549527 0.0506048 0.0320033 0.00795517
threshold=0.94857415556907665 1.0000000180025095e-35 0.14853191375732425 0.88313028216362011 0.99999997019767772 0.99998664855957042 0.99999991059303295 0.99998664855957042 0.48159490525722509 0.72714242339134227 0.014885586220771076 0.0075117340311408052 0.36539669334888464 0.13414409011602405 0.77961084246635448 0.54838669300079357 0.0030961181037127976 0.16444502770900729 0.11074137315154077 0.71570008993148815 0.43784058094024664 0.94601887464523327 0.27796187996864324 0.36678114533424383 0.54072889685630809 0.040174217894673354 0.18394894152879718 0.46325096487998968 0.093372162431478514 0.15917166322469714
decision_type=2 2 2 2 2 2 2 2 2 2 2 2 2 2 2 2 2 2 2 2 2 2 2 2 2 2 2 2 2 2
left_child=3 2 4 5 7 11 13 -2 19 10 -4 15 17 21 -15 -1 -6 -7 -13 25 -11 -3 23 -8 -14 -5 -21 -24 29 -10
right_child=1 6 9 8 16 12 22 -9 28 20 -12 18 24 14 -16 -17 -18 -19 -20 26 -22 -23 27 -25 -26 -27 -28 -29 -30 -31
leaf_value=-5.4071793851251931e-05 -2.0720620259567996e-05 6.4049064024659458e-05 0.0014112809730368208 -0.00026480104795877828 0.00071491198914949369 0.0002122704700239205 -0.00034407478112180302 0.00093912356713006604 -0.0017420340415015881 0.0015185336301476867 0.00057805566809190293 -1.2843661601930618e-05 0.00043457158200074531 0.00031264921527239422 -2.3384544423231359e-05 -0.00029298913592059261 0.0014871281890387453 -0.00019848568544467146 7.0895169522696571e-05 -0.0003891711172072714 0.0025261428246035008 0.00049115461746009525 0.00064823619551976645 0.0003265215418443563 0.0011180316452380219 -0.00011113003817518262 -0.0009608537502653478 -0.00018957155122979204 -0.00057418475525760108 -0.0011984736656646784
leaf_weight=119231 3064 14791 807 5921 584 5283 2228 449 115 882 1103 34241 314 8179 1634 2575 337 711 25080 1696 93 406 135 153 293 3725 176 117 54 106
leaf_count=119231 3064 14791 807 5921 584 5283 2228 449 115 882 1103 34241 314 8179 1634 2575 337 711 25080 1696 93 406 135 153 293 3725 176 117 54 106
internal_value=2.32139e-07 0.000219211 0.000634442 -3.81245e-05 0.000288708 -2.3522e-05 0.00010916 0.000101127 -0.000270318 0.00116474 0.00093173 -3.23874e-05 0.000219281 0.000146692 0.00025639 -5.91474e-05 0.00100086 0.000163044 2.25093e-05 -0.000244846 0.00161797 7.56601e-05 -0.000246198 -0.000299711 0.00076955 -0.000205771 -0.00044457 0.000247433 -0.00132581 -0.00149555
internal_weight=234483 34962 7319 199521 4434 187728 27643 3513 11793 2885 1910 181127 6601 25010 9813 121806 921 5994 59321 11518 975 15197 2633 2381 607 9646 1872 252 275 221
internal_count=234483 34962 7319 199521 4434 187728 27643 3513 11793 2885 1910 181127 6601 25010 9813 121806 921 5994 59321 11518 975 15197 2633 2381 607 9646 1872 252 275 221
is_linear=0
shrinkage=0.03


Tree=3
num_leaves=28
num_cat=0
split_feature=2 4 3 0 6 4 0 4 9 10 9 2 3 1 2 4 0 6 6 4 4 2 1 10 9 1 6
split_gain=6.9878 5.03778 0.731585 0.642447 0.346913 0.571943 0.315864 0.294676 0.207549 0.205984 0.138683 0.119288 0.0957308 0.0937033 0.0785993 0.0765231 0.0720404 0.071137 0.0977188 0.0426968 0.0380337 0.0550575 0.0427268 0.0136092 0.0133008 0.0133391 0.00984961
threshold=0.99999994039535534 0.91730245947837841 0.036063190549612052 0.54838669300079357 0.63812580704689037 0.48437875509262091 0.092710942029953017 0.044708091765642173 0.97801363468170177 0.58544805645942699 0.99999991059303295 1.0000000180025095e-35 0.88096737861633312 0.14827518910169604 0.59778055548667919 0.56522482633590709 0.18817151337862018 0.35287773609161383 1.0000000180025095e-35 0.70504555106163036 0.73492297530174266 0.76939690113067638 0.65065675973892223 0.99562227725982677 0.33567890524864202 0.26575648784637457 0.060670031234622009
decision_type=2 2 2 2 2 2 2 2 2 2 2 2 2 2 2 2 2 2 2 2 2 2 2 2 2 2 2
left_child=3 15 17 4 6 11 10 -8 16 -7 -1 -6 -10 14 26 24 -4 18 -3 -16 21 -15 -22 -17 -2 -26 -5
right_child=1 2 8 13 5 9 7 -9 12 -11 -12 -13 -14 20 19 23 -18 -19 -20 -21 22 -23 -24 -25 25 -27 -28
leaf_value=-6.1738041280202236e-05 -0.00064273262578642401 0.0019237060855636626 0.0014538597625291085 -0.0016816676635522522 0.00015357966274678845 0.0005566187497744431 -5.095946308896004e-05 5.4646505214009677e-05 0.0017542337396808261 0.0015322238000136869 -0.00032719605704045453 -7.851047291469626e-05 0.00037519787948158919 -0.00052009999952277704 -0.00012212779956447098 0.0008837945927417123 0.0011038397388617761 0.0027132313065258485 0.0013249769849710642 -0.0011695795799345533 -0.00031332301437970279 -2.1097730287028466e-05 -0.0010988789291771768 0.00021793069388853132 -0.00025358840727501684 -8.4808625370685621e-05 -0.0010827295011954336
leaf_weight=117572 73 1689 984 115 5151 932 43101 53028 53 254 1804 3232 410 835 105 52 1482 101 331 59 116 278 177 97 1729 637 86
leaf_count=117572 73 1689 984 115 5151 932 43101 53028 53 254 1804 3232 410 835 105 52 1482 101 331 59 116 278 177 97 1729 637 86
internal_value=2.25265e-07 0.000892737 0.00144435 -2.98133e-05 -2.53208e-05 0.000151374 -3.31805e-05 7.26514e-06 0.0011344 0.0007682 -6.5775e-05 6.37414e-05 0.00053988 -0.000599024 -0.00103462 -0.000182485 0.00124478 0.00187089 0.00182715 -0.00051772 -0.000483743 -0.00039817 -0.000798322 0.00047087 -0.000223646 -0.000209421 -0.00144099
internal_weight=234483 7638 5050 226845 225074 9569 215505 96129 2929 1186 119376 8383 463 1771 365 2588 2466 2121 2020 164 1406 1113 293 149 2439 2366 201
internal_count=234483 7638 5050 226845 225074 9569 215505 96129 2929 1186 119376 8383 463 1771 365 2588 2466 2121 2020 164 1406 1113 293 149 2439 2366 201
is_linear=0
shrinkage=0.03


Tree=4
num_leaves=28
num_cat=0
split_feature=2 4 3 0 4 0 8 9 3 3 2 3 1 2 4 0 4 0 4 4 2 1 2 10 9 1 10
split_gain=6.57579 4.7409 0.688061 0.605268 0.301721 0.254649 0.222755 0.194962 0.18512 0.144057 0.117959 0.0899817 0.0882457 0.0737347 0.0721837 0.0675422 0.0516454 0.0617732 0.0400776 0.035739 0.0517276 0.0400478 0.0342096 0.0127155 0.0124703 0.0125101 0.0074706
threshold=0.99999994039535534 0.91730245947837841 0.036063190549612052 0.54838669300079357 0.0073649794794619092 0.092710942029953017 0.92443716526031505 0.97801363468170177 0.0035541520919650797 0.8414614498615266 1.0000000180025095e-35 0.88096737861633312 0.14827518910169604 0.59778055548667919 0.56522482633590709 0.18817151337862018 0.99999997019767772 0.05627702176570893 0.70504555106163036 0.73492297530174266 0.76381596922874462 0.65065675973892223 0.01787645369768143 0.99562227725982677 0.33567890524864202 0.26575648784637457 0.95991322398185741
decision_type=2 2 2 2 2 2 2 2 2 2 2 2 2 2 2 2 2 2 2 2 2 2 2 2 2 2 2
left_child=3 14 16 4 8 6 -6 15 22 -7 -10 -9 13 26 24 -4 -3 -18 -15 20 -14 -21 -1 -16 -2 -26 -5
right_child=1 2 7 12 5 9 -8 11 10 -11 -12 -13 19 18 23 -17 17 -19 -20 21 -22 -23 -24 -25 25 -27 -28
leaf_value=-5.2309714686905316e-05 -0.00062347702372426777 0.00083059138669704503 0.0014102483772895143 -0.0009933201425404172 -4.1129678202528708e-05 6.8533792520196634e-05 0.00040203418961768495 0.0017017058194693871 0.00010038416076204596 -0.00010598506262565523 -3.4011916782178273e-05 0.00036394469504194891 -0.00050623880502040754 -0.00011846745587871202 0.00085733164468737241 0.0010707268386853663 0.0022646572470805962 0.001763135930262006 -0.0011345515333040413 -0.00030393142925481519 -2.5609810573695257e-05 -0.0010659311674944142 -9.832148040790097e-05 0.00021139950312414001 -0.00024598119493175996 -8.2264766817561025e-05 -0.0015774495663408866
leaf_weight=20091 73 58 984 67 61041 52083 1037 53 7995 4623 22185 410 829 105 52 1482 314 1749 59 116 284 177 56019 97 1729 637 134
leaf_count=20091 73 58 984 67 61041 52083 1037 53 7995 4623 22185 410 829 105 52 1482 314 1749 59 116 284 177 56019 97 1729 637 134
internal_value=2.17435e-07 0.000866018 0.00140113 -2.89217e-05 -2.45608e-05 8.27402e-06 -3.36778e-05 0.00110046 -6.12834e-05 5.42529e-05 1.49183e-06 0.000523892 -0.000581419 -0.00100436 -0.00017701 0.00120747 0.00181485 0.00184103 -0.00050276 -0.000469427 -0.000386307 -0.000774694 -8.62151e-05 0.00045737 -0.000217012 -0.000203177 -0.00139825
internal_weight=234483 7638 5050 226845 225074 118784 62078 2929 106290 56706 30180 463 1771 365 2588 2466 2121 2063 164 1406 1113 293 76110 149 2439 2366 201
internal_count=234483 7638 5050 226845 225074 118784 62078 2929 106290 56706 30180 463 1771 365 2588 2466 2121 2063 164 1406 1113 293 76110 149 2439 2366 201
is_linear=0
shrinkage=0.03


Tree=5
num_leaves=29
num_cat=0
split_feature=2 4 7 5 3 4 2 9 4 2 7 3 2 9 9 3 4 5 4 2 8 3 3 7 4 7 3 9
split_gain=6.36854 4.41057 0.939786 0.686655 0.52716 0.316899 0.314265 0.379624 0.255742 0.170101 0.144359 0.13397 0.129369 0.127185 0.117106 0.0965223 0.0844478 0.0817753 0.0797917 0.0746023 0.0738696 0.0632742 0.0426391 0.034211 0.0285625 0.0233905 0.0215068 0.0162427
threshold=0.99999994039535534 0.9092833697795869 0.96810409426689159 0.99998664855957042 0.032916685566306121 0.37219746410846716 0.34697230160236364 0.79349467158317577 0.0073649794794619092 0.22095350176095965 0.57048809528350841 0.00020153916557319465 0.95478910207748424 0.97801363468170177 0.7391660511493684 0.88096737861633312 0.99999997019767772 0.1428555026650429 0.56522482633590709 0.84276732802391063 0.0067730650771409282 1.0000000180025095e-35 0.004224226577207447 0.45083747804164892 0.55125764012336742 0.58705297112464916 0.019268712028861049 0.51901572942733776
decision_type=2 2 2 2 2 2 2 2 2 2 2 2 2 2 2 2 2 2 2 2 2 2 2 2 2 2 2 2
left_child=2 18 3 8 16 21 14 12 11 -7 -10 -1 -8 20 22 -15 -3 -18 25 -9 -6 -5 -4 -20 -16 26 -2 -27
right_child=1 4 6 5 13 9 7 19 10 -11 -12 -13 -14 15 24 -17 17 -19 23 -21 -22 -23 -24 -25 -26 27 -28 -29
leaf_value=-8.2910927220180753e-05 -0.00019404028797139592 0.00059189120092830415 -0.00033536080771236492 7.0169085159258238e-05 0.0012303013302494387 0.00053898228010381679 -5.3134572404345029e-05 -0.00067595851406927158 2.1065502576446913e-05 0.0015863163213945528 -8.3363135722260058e-05 -6.4830804452241155e-06 0.00080320746289223692 0.0018821692666122708 -0.00063918797847972199 0.00047119585937439043 0.0017183995187094604 0.002921127627406908 0.00013047316560417448 -0.00020925893668065858 0.00055560208494741031 0.00026750398117960511 -0.0005461193668520049 0.0011354732682854779 -0.0010654872494892374 -0.00096815825868532923 0.00028670971842775355 -0.00023054987520248156
leaf_weight=65717 2230 66 3980 3037 2322 1426 5666 1170 96390 159 13588 30223 163 51 474 419 2022 60 91 447 174 2918 1190 53 260 62 82 72
leaf_count=65717 2230 66 3980 3037 2322 1426 5666 1170 96390 159 13588 30223 163 51 474 419 2022 60 91 447 174 2918 1190 53 260 62 82 72
internal_value=7.56584e-07 0.000849025 -2.80437e-05 -1.27571e-05 0.00135991 0.000268397 -0.000272241 -0.000142029 -2.30667e-05 0.000646032 8.13579e-06 -5.88659e-05 -2.86601e-05 0.00109783 -0.000435948 0.000631051 0.00172034 0.00175464 -0.000158587 -0.000548821 0.00118449 0.000167371 -0.000384462 0.000521719 -0.000794404 -0.000199884 -0.00017568 -0.00059467
internal_weight=234512 7704 226808 213458 5114 7540 13350 7446 205918 1585 109978 95940 5829 2966 5904 470 2148 2082 2590 1617 2496 5955 5170 144 734 2446 2312 134
internal_count=234512 7704 226808 213458 5114 7540 13350 7446 205918 1585 109978 95940 5829 2966 5904 470 2148 2082 2590 1617 2496 5955 5170 144 734 2446 2312 134
is_linear=0
shrinkage=0.03


Tree=6
num_leaves=28
num_cat=0
split_feature=2 4 5 0 10 0 4 1 0 6 8 4 8 1 0 6 1 4 8 6 0 0 6 10 5 8 10
split_gain=5.99322 4.1505 0.678934 0.635114 0.405295 0.323542 0.308869 0.279493 0.265885 0.174605 0.217223 0.158156 0.13804 0.0990076 0.124317 0.0918382 0.0836469 0.0752527 0.0701642 0.0461845 0.0423384 0.0288538 0.0261498 0.0218595 0.0158375 0.00995085 0.00379828
threshold=0.99999994039535534 0.9092833697795869 0.99998664855957042 0.54838669300079357 0.13748013973236087 0.004601407330483199 0.0073649794794619092 0.75732615590095531 0.2661739587783814 0.21687337011098864 0.0067730650771409282 0.36539669334888464 0.7131851613521577 0.18809469044208529 0.78652361035346996 0.7523450255393983 0.82032123208045971 0.56522482633590709 0.55247947573661815 0.39400291442871099 0.17533218860626223 0.23968804627656939 0.087653104215860381 0.99999585747718822 0.048004297539591796 0.030491649173200134 0.9918673336505891
decision_type=2 2 2 2 2 2 2 2 2 2 2 2 2 2 2 2 2 2 2 2 2 2 2 2 2 2 2
left_child=2 17 3 5 8 15 -7 11 12 10 20 -6 -4 14 -5 -1 21 24 -9 -15 -3 -11 -12 -19 26 -26 -2
right_child=1 9 4 13 7 6 -8 18 -10 16 22 -13 -14 19 -16 -17 -18 23 -20 -21 -22 -23 -24 -25 25 -27 -28
leaf_value=-7.392774425566953e-05 -0.00024455776061019257 0.0014584786008083708 -0.00010075584924879086 -0.00080218658710311589 0.00056306252751298839 -5.6006762132275873e-05 3.6918683072277223e-05 0.00022191322061043391 -0.0019282181825221313 0.0016275373544012213 0.00020797882576682248 0.0011763572343359485 0.00023212249125973688 -0.00058807705207664302 -0.0023482316673430733 -0.0003426278499011304 0.00095004083848733271 0.00098249572359105156 -0.0005033236566930944 -0.00014966573521987966 0.0012477714447967786 0.0025601308006378571 0.00093157107834239254 0.00016912747675576224 -0.0002313507166745482 0.00018042925912778774 -0.00013858450732029003
leaf_weight=84813 1648 1605 1621 305 1223 56192 75361 367 57 64 190 574 3564 1028 59 1167 59 56 178 299 2961 168 67 88 77 155 566
leaf_count=84813 1648 1605 1621 305 1223 56192 75361 367 57 64 190 574 3564 1028 59 1167 59 56 178 299 2961 168 67 88 77 155 566
internal_value=7.34774e-07 0.000823628 -2.72036e-05 -3.68697e-05 0.000251806 -3.23529e-05 -2.75102e-06 0.000580185 0.000104514 0.00131923 0.00127446 0.000760686 0.000127475 -0.000616105 -0.0010616 -7.76101e-05 0.00205026 -0.000153794 -9.49844e-06 -0.000491573 0.00132252 0.0023166 0.000408577 0.000506719 -0.000193925 3.07946e-05 -0.000218829
internal_weight=234512 7704 226808 219224 7584 217533 131553 2342 5242 5114 4823 1797 5185 1691 364 85980 291 2590 545 1327 4566 232 257 144 2446 232 2214
internal_count=234512 7704 226808 219224 7584 217533 131553 2342 5242 5114 4823 1797 5185 1691 364 85980 291 2590 545 1327 4566 232 257 144 2446 232 2214
is_linear=0
shrinkage=0.03


Tree=7
num_leaves=29
num_cat=0
split_feature=2 4 7 3 10 6 4 9 2 6 4 2 7 9 2 7 3 4 6 7 9 4 7 3 7 7 3 9
split_gain=5.64005 3.90578 0.881355 0.493284 0.28264 0.338616 0.657512 0.254597 0.341583 0.168904 0.200206 0.155045 0.134534 0.119319 0.112074 0.101271 0.0908848 0.0787109 0.0899581 0.0781394 0.0754144 0.0709761 0.0564411 0.0522107 0.0322767 0.0221259 0.0201908 0.0151377
threshold=0.99999994039535534 0.9092833697795869 0.84492805600166332 0.032916685566306121 0.32490192353725439 0.43851239979267126 0.5988549292087556 0.77852794528007518 0.27366425096988684 0.68393954634666454 0.47563940286636358 0.95478910207748424 0.44339860975742346 0.97801363468170177 0.73871138691902172 0.021907423622906212 0.88096737861633312 0.99999997019767772 0.34557121992111212 0.96810409426689159 0.91993924975395214 0.56522482633590709 0.99999997019767772 0.050447886809706695 0.45083747804164892 0.58705297112464916 0.019268712028861049 0.51901572942733776
decision_type=2 2 2 2 2 2 2 2 2 2 2 2 2 2 2 2 2 2 2 2 2 2 2 2 2 2 2 2
left_child=2 21 4 17 9 12 -7 8 19 15 -11 -10 -6 23 22 -1 -15 -3 -19 -4 -16 25 -9 -5 -23 26 -2 -27
right_child=1 3 7 13 5 6 -8 14 11 10 -12 -13 -14 16 20 -17 -18 18 -20 -21 -22 24 -24 -25 -26 27 -28 -29
leaf_value=-9.8236886983532981e-05 -0.00018240552029696896 0.00053798424835569043 -0.0001494363692870327 0.00018231703351067347 2.0923602590953914e-05 9.6750363108575753e-05 0.00084371048601948465 -0.00035855497116637109 -7.4672913890803697e-05 4.0703419900321131e-05 0.00059718139015239413 0.00077121947066461282 -5.860746243851904e-05 0.0017870752913275926 -5.5507500399143639e-05 -2.9369340016391683e-05 0.00041893788442755976 0.0016132008737842888 0.0025962055980591585 -0.00040449045400695922 -0.00057124688834606606 0.00011158458430025601 -0.00073155494616258864 0.001132111013686169 0.0010876778721556825 -0.00093296165773780015 0.00028342705299390364 -0.00021874160608522151
leaf_weight=38141 2230 66 1448 61 91604 9392 1198 557 8520 4548 670 199 24193 51 737 39061 419 1983 99 4812 403 91 1325 2435 53 62 82 72
leaf_count=38141 2230 66 1448 61 91604 9392 1198 557 8520 4548 670 199 24193 51 737 39061 419 1983 99 4812 403 91 1325 2435 53 62 82 72
internal_value=7.13177e-07 0.000798993 -2.63892e-05 0.00127976 -9.01041e-06 1.9158e-05 0.000181541 -0.00022781 -0.000176814 -5.22417e-05 0.000112741 -5.50138e-05 4.28155e-06 0.00102621 -0.000479573 -6.34317e-05 0.000574126 0.00162841 0.00166151 -0.000345976 -0.000240491 -0.000149145 -0.00062278 0.00111011 0.000492166 -0.000188145 -0.000164575 -0.000572022
internal_weight=234512 7704 226808 5114 208807 126387 10590 18001 14979 82420 5218 8719 115797 2966 3022 77202 470 2148 2082 6260 1140 2590 1882 2496 144 2446 2312 134
internal_count=234512 7704 226808 5114 208807 126387 10590 18001 14979 82420 5218 8719 115797 2966 3022 77202 470 2148 2082 6260 1140 2590 1882 2496 144 2446 2312 134
is_linear=0
shrinkage=0.03


Tree=8
num_leaves=31
num_cat=0
split_feature=4 3 0 7 7 9 5 3 5 0 9 6 0 6 9 0 6 9 0 4 4 3 8 0 7 6 9 7 9 9
split_gain=1.42331 1.42107 1.13888 0.666406 0.501911 0.354697 0.35368 0.283945 0.234289 0.232354 0.189916 0.253335 0.163447 0.148144 0.143272 0.159683 0.126817 0.291335 0.122661 0.099629 0.0977797 0.094598 0.0751715 0.0632399 0.0777538 0.0612409 0.0532539 0.0199879 0.00340855 0.00586985
threshold=0.99236106872558605 1.0000000180025095e-35 0.16047208756208423 0.99999997019767772 0.99999997019767772 0.99999991059303295 0.99998664855957042 0.004224226577207447 0.99998664855957042 0.52582752704620372 0.70191079378128063 0.028705309145152572 0.52582752704620372 0.35287773609161383 0.58496007323265087 0.39845004677772528 0.26093231141567236 0.71007663011550914 0.11074137315154077 0.024110060185194019 0.31508763134479528 0.82192409038543712 0.020150494761765007 0.38872785866260534 0.95289328694343578 0.15817788988351825 0.5326807200908662 0.35434865951538091 0.50543978810310375 0.32447692751884466
decision_type=2 2 2 2 2 2 2 2 2 2 2 2 2 2 2 2 2 2 2 2 2 2 2 2 2 2 2 2 2 2
left_child=3 2 4 6 8 16 7 12 -2 19 11 -4 -1 -12 15 -8 21 -18 -9 26 -16 -3 -6 24 -7 -21 -5 -25 29 -11
right_child=1 5 10 9 22 23 14 18 -10 28 13 -13 -14 -15 20 -17 17 -19 -20 25 -22 -23 -24 27 -26 -27 -28 -29 -30 -31
leaf_value=-4.7284901680077747e-05 -1.292674483068676e-05 0.00014017373774182913 0.0011409818088823913 -0.00026811462294778831 0.00098672539261642281 -0.00020004696967328831 0.00014945677841625202 -9.986694976568692e-06 0.00072503636115177187 -0.0013921469104801378 0.0011960409613553356 0.00034515105751172995 -0.00027750463352554434 0.0021532464375903218 0.00032961230009865465 -0.00094131094088647767 5.5542301687845906e-05 0.0008172440481437962 7.3057029818160326e-05 -0.0001206775046733328 0.00094034317888928723 5.3552079193483487e-06 2.1669511120856216e-05 0 -0.00063981504155013254 -0.0011453051510905629 -0.00047172428040525091 0.00085321522522345853 -0.0016333420587974492 -0.00075230976925171262
leaf_weight=117116 2837 15193 954 3222 793 2035 5051 38104 447 65 914 599 2849 186 1145 123 1170 746 27541 3522 309 6840 87 51 453 54 1928 55 69 54
leaf_count=117116 2837 15193 954 3222 793 2035 5051 38104 447 65 914 599 2849 186 1145 123 1170 746 27541 3522 309 6840 87 51 453 54 1928 55 69 54
internal_value=6.92653e-07 0.000182189 0.000568623 -2.93927e-05 0.000258147 8.28265e-05 -1.76176e-05 -2.53215e-05 8.66263e-05 -0.000282992 0.00105477 0.000835999 -5.27775e-05 0.0013608 0.000197665 0.000122929 0.000119004 0.000353706 2.48082e-05 -0.000260073 0.000461522 9.84566e-05 0.000894738 -0.000250017 -0.000281346 -0.000137021 -0.00034493 0.000456623 -0.0013301 -0.00112787
internal_weight=234512 33360 6817 201152 4164 26543 192238 185610 3284 8914 2653 1553 119965 1100 6628 5174 23949 1916 65645 8726 1454 22033 880 2594 2488 3576 5150 106 188 119
internal_count=234512 33360 6817 201152 4164 26543 192238 185610 3284 8914 2653 1553 119965 1100 6628 5174 23949 1916 65645 8726 1454 22033 880 2594 2488 3576 5150 106 188 119
is_linear=0
shrinkage=0.03


Tree=9
num_leaves=29
num_cat=0
split_feature=5 0 9 0 9 0 7 5 0 3 7 6 9 8 1 0 8 3 6 7 6 3 6 8 6 1 9 0
split_gain=0.501848 0.442146 0.314521 0.466743 0.231973 0.212105 0.195694 0.144845 0.131366 0.131261 0.119007 0.100212 0.0930049 0.081832 0.0731697 0.128761 0.084341 0.0626367 0.0539602 0.0516776 0.0510255 0.0501273 0.0462711 0.0320544 0.0298168 0.0281523 0.0256114 0.0162289
threshold=0.99998664855957042 0.03962060064077378 0.7242305874824525 0.30879919230937963 0.60366034507751476 0.48159490525722509 1.0000000180025095e-35 0.6933770775794984 0.39845004677772528 0.0096847414970397967 0.96810409426689159 1.0000000180025095e-35 0.77852794528007518 0.79992672801017772 0.6352771818637849 0.015260266140103342 0.94256693124771129 0.0029236115515232091 0.31045268476009374 0.19879609346389773 0.6287861466407777 0.0029236115515232091 0.7523450255393983 0.52369311451911937 0.61138913035392772 0.41264209151268011 0.30295348167419439 0.31391520798206335
decision_type=2 2 2 2 2 2 2 2 2 2 2 2 2 2 2 2 2 2 2 2 2 2 2 2 2 2 2 2
left_child=1 6 5 7 8 9 17 -4 19 -3 21 -7 -12 -10 15 20 -17 22 -5 24 -6 -8 -1 27 -2 -19 -21 -16
right_child=4 2 3 18 14 11 10 -9 13 -11 12 -13 -14 -15 23 16 -18 25 -20 26 -22 -23 -24 -25 -26 -27 -28 -29
leaf_value=-0.00015048683495557906 6.5064792770244239e-05 -7.0871296830046219e-06 4.6450909604228802e-05 0.00032083183078089855 2.0108571073966762e-05 5.6195947364232336e-05 -3.8448259346821473e-05 0.0010801888065506075 -0.00017990078446613759 6.80702475035549e-05 -8.2061662327254388e-05 -0.00026137965958349715 -0.00032104804571135435 -0.0017348963133053167 -4.7395398075002014e-05 0.0012287279841641998 -2.8479194640137337e-05 -9.2291897529449485e-05 0.00057767499238478928 -0.00052960654228701809 0.00053933506065292815 1.4544193214734524e-05 -0.0003823083143112716 -0.0005836980424690077 0.00022960341180355525 2.9683078063790973e-05 0.00012442580747342217 0.0005148113160985899
leaf_weight=14788 1386 66483 18576 4883 222 1156 36259 123 91 30475 7459 3742 1845 50 77 363 50 8530 913 138 957 28743 838 57 4055 2085 78 90
leaf_count=14788 1386 66483 18576 4883 222 1156 36259 123 91 30475 7459 3742 1845 50 77 363 50 8530 913 138 957 28743 838 57 4055 2085 78 90
internal_value=6.72467e-07 -7.35401e-06 2.99887e-05 0.000126514 0.000240253 6.74611e-06 -5.43101e-05 5.34169e-05 0.000146862 1.65048e-05 -2.93856e-05 -0.000185815 -0.000129778 -0.000753418 0.000536749 0.000608246 0.00106929 -0.000124774 0.000361817 0.000169845 0.000444122 -1.49696e-05 -0.000163113 1.5177e-05 0.000188243 -6.80509e-05 -0.000279597 0.000237764
internal_weight=234512 226898 126351 24495 7614 101856 100547 18699 5798 96958 74306 4898 9304 141 1816 1592 413 26241 5796 5657 1179 65002 15626 224 5441 10615 216 167
internal_count=234512 226898 126351 24495 7614 101856 100547 18699 5798 96958 74306 4898 9304 141 1816 1592 413 26241 5796 5657 1179 65002 15626 224 5441 10615 216 167
is_linear=0
shrinkage=0.03


Tree=10
num_leaves=31
num_cat=0
split_feature=4 0 7 5 9 6 6 10 7 9 10 0 10 0 0 0 7 0 9 8 4 10 9 7 0 9 7 10 10 0
split_gain=1.24609 0.83848 0.673487 0.346366 0.338459 0.296284 0.262902 0.410384 0.26916 0.237697 0.2287 0.236092 0.212126 0.245472 0.208407 0.19996 0.160988 0.114285 0.0791455 0.0629275 0.0561119 0.055212 0.0378948 0.0374342 0.0350479 0.0254851 0.0251417 0.0195837 0.0158503 0.00329865
threshold=0.99236106872558605 0.24808440357446673 0.99999997019767772 0.99998664855957042 0.99999991059303295 0.2800911962985993 0.51100602746009838 0.5813899338245393 0.99999997019767772 0.63308459520339977 0.21261970698833468 0.50811183452606212 0.1003452315926552 0.24463379383087161 0.52582752704620372 0.03962060064077378 0.046517398208379752 0.67783606052398693 0.71570008993148815 0.39628423750400549 0.040174217894673354 0.99999585747718822 0.84388422966003429 0.96810409426689159 0.18394894152879718 0.51901572942733776 0.040885260328650481 0.95991322398185741 0.20892116427421573 0.042481178417801864
decision_type=2 2 2 2 2 2 2 2 2 2 2 2 2 2 2 2 2 2 2 2 2 2 2 2 2 2 2 2 2 2
left_child=2 4 3 10 6 17 8 -8 -2 25 16 -12 13 -5 18 -14 -1 19 20 -3 -4 -11 -19 26 -20 -7 -6 28 -16 -25
right_child=1 5 14 12 23 9 7 -9 -10 21 11 -13 15 -15 27 -17 -18 22 24 -21 -22 -23 -24 29 -26 -27 -28 -29 -30 -31
leaf_value=-0.00011467925628777176 5.2261419453253726e-05 0.00037643130041781924 -0.00028544484970227565 0.00010653060540884874 0.00012699282393696255 0.0004060103826258745 0.00027609006173639453 0.0017295360569119977 0.00032545606902607387 0.00085672501932345735 5.2913128772691291e-06 -0.00026529957770352069 0.00073291736192263252 -0.0018881823824479539 -0.001311103694280593 0.00013373557073075053 -1.8331597598124236e-05 0.0010789171438109317 -0.00041343060974754716 -0.0001027561794864908 -0.00011174766082817166 0.0015440534937771432 0.00011010039017764393 -0.00059918467202194742 -0.00093446158876665526 -0.00027827273398501007 -0.00023843138534094608 -0.0016193143141217752 -0.00045778750357350768 -0.00032124783803787513
leaf_weight=34900 18634 6024 4568 4451 177 110 845 223 3942 180 119536 2974 1075 56 53 966 28388 276 1308 247 2753 382 50 288 140 84 1696 91 55 110
leaf_count=34900 18634 6024 4568 4451 177 110 845 223 3942 180 119536 2974 1075 56 53 966 28388 276 1308 247 2753 382 50 288 140 84 1696 91 55 110
internal_value=-1.37333e-06 0.000168701 -2.94938e-05 -1.76288e-05 8.83308e-05 0.000451544 0.000122018 0.000582514 0.000100098 0.0010165 -2.52007e-05 -1.25316e-06 0.000196761 8.10391e-05 -0.000283637 0.000450816 -7.15098e-05 0.000386332 -0.000261409 0.000357078 -0.00022054 0.00132944 0.000939605 -0.000261066 -0.000465939 9.42762e-05 -0.000202292 -0.00124743 -0.000905122 -0.000530004
internal_weight=234582 33268 201314 192346 25915 7353 23644 1068 22576 756 185798 122510 6548 4507 8968 2041 63288 6597 8769 6271 7321 562 326 2271 1448 194 1873 199 108 398
internal_count=234582 33268 201314 192346 25915 7353 23644 1068 22576 756 185798 122510 6548 4507 8968 2041 63288 6597 8769 6271 7321 562 326 2271 1448 194 1873 199 108 398
is_linear=0
shrinkage=0.03


Tree=11
num_leaves=28
num_cat=0
split_feature=2 4 5 3 10 1 4 3 2 6 2 10 4 10 8 1 4 6 3 6 8 6 3 10 8 4 5
split_gain=4.77352 3.44759 0.551363 0.499636 0.330609 0.193849 0.172343 0.152672 0.173251 0.147266 0.160027 0.147223 0.135092 0.119014 0.0864328 0.107565 0.0823835 0.0801907 0.076678 0.076986 0.064715 0.0460209 0.0387654 0.0331197 0.0142801 0.00887866 0.00632262
threshold=0.99999994039535534 0.85500407218933117 0.99998664855957042 0.032916685566306121 0.1003452315926552 0.45568099617958074 0.0073649794794619092 0.8414614498615266 0.24758637696504596 1.0000000180025095e-35 0.15782813727855685 0.6941429376602174 0.9092833697795869 0.57245212793350231 0.55622997879982006 0.2899558693170548 0.99999997019767772 0.35534466803073889 0.88096737861633312 0.16456639021635058 0.51213061809539806 0.835384100675583 0.064827024936676039 0.78976881504058849 0.037548856809735305 0.25091414153575903 0.34841653704643255
decision_type=2 2 2 2 2 2 2 2 2 2 2 2 2 2 2 2 2 2 2 2 2 2 2 2 2 2 2
left_child=2 22 6 16 14 13 9 8 -8 10 -1 -11 -9 -6 21 -16 -3 -18 19 -5 -7 -4 25 -24 -20 26 -2
right_child=1 3 4 18 5 20 7 12 -10 11 -12 -13 -14 -15 15 -17 17 -19 24 -21 -22 -23 23 -25 -26 -27 -28
leaf_value=-0.00028899953189965525 -0.00020637691445241576 0.00054440214256693616 -9.9508080537041889e-05 0.001001714330344014 0.00048527376411580875 0.00034885099268660625 -8.7188659185383788e-05 6.010290878279951e-05 1.7614408577153587e-05 -6.9584913803995353e-05 -8.9907162483291705e-05 2.1860156595753252e-05 -0.00017545038488599388 0.0010212570051263872 0.0001978610989099584 -0.00030470602440361668 0.0015285048325616823 0.0024880421855595094 0.0007591320663348773 0.0018876352152104395 -0.00020247750453989495 -0.00081641722431084816 0.00085385543798914337 -1.015254000920412e-05 0.00030289294547926273 7.0440996157270452e-05 8.8091308598296108e-05
leaf_weight=4679 2288 82 804 1746 940 484 16875 2934 89402 58688 16674 21645 8465 660 3790 422 1972 93 1031 102 310 92 59 103 90 99 53
leaf_count=4679 2288 82 804 1746 940 484 16875 2934 89402 58688 16674 21645 8465 660 3790 422 1972 93 1031 102 310 92 59 103 90 99 53
internal_value=-1.33215e-06 0.000732358 -2.63061e-05 0.0011846 0.000226539 0.000517701 -3.4967e-05 -1.0218e-05 9.4515e-07 -6.35782e-05 -0.000133675 -4.49085e-05 -0.000114558 0.000708292 8.94835e-05 0.000146791 0.00153542 0.00157329 0.000929862 0.00105234 0.000129821 -0.00017655 -0.000155696 0.000286343 0.000725209 -0.000186284 -0.000198425
internal_weight=234582 7718 226864 5116 7502 2394 219362 117676 106277 101686 21353 80333 11399 1600 5108 4212 2147 2065 2969 1848 794 896 2602 162 1121 2440 2341
internal_count=234582 7718 226864 5116 7502 2394 219362 117676 106277 101686 21353 80333 11399 1600 5108 4212 2147 2065 2969 1848 794 896 2602 162 1121 2440 2341
is_linear=0
shrinkage=0.03


Tree=12
num_leaves=30
num_cat=0
split_feature=2 4 7 5 0 0 10 10 9 9 2 0 4 2 7 5 8 9 2 0 0 10 4 7 7 9 7 0 9
split_gain=4.49245 3.24419 0.823468 0.481514 0.327018 0.31128 0.314282 0.300971 0.299074 0.272561 0.171445 0.170341 0.14593 0.139957 0.115794 0.0914712 0.116658 0.0657147 0.0528188 0.0449712 0.0377523 0.0353759 0.0293703 0.0450902 0.0363065 0.0153146 0.0144616 0.00690379 0.000118204
threshold=0.99999994039535534 0.85500407218933117 0.84492805600166332 0.99998664855957042 0.4942708164453507 0.54838669300079357 0.26844556629657751 0.042167654260993011 0.90026485919952404 0.71286717057228099 0.30647486448287969 0.24463379383087161 0.36539669334888464 0.73871138691902172 0.99999997019767772 0.28171457350254064 0.0067730650771409282 0.46613052487373358 0.097085867077112212 0.37541693449020391 0.13935308158397677 0.93953725695610057 0.21912062168121341 0.27269712090492254 0.59365060925483715 0.51901572942733776 0.012605755124241115 0.18673889338970187 0.68876513838768016
decision_type=2 2 2 2 2 2 2 2 2 2 2 2 2 2 2 2 2 2 2 2 2 2 2 2 2 2 2 2 2
left_child=2 22 3 5 9 6 -1 11 15 10 -4 -5 -9 -11 19 16 -3 -7 -6 -10 -16 -20 24 28 26 -26 -2 -25 -24
right_child=1 8 4 7 18 17 -8 12 14 13 -12 -13 -14 -15 20 -17 -18 -19 21 -21 -22 -23 23 27 25 -27 -28 -29 -30
leaf_value=-6.5000716363074093e-05 -0.00018592769350119133 0.0012881339725395301 -0.00025448012882382754 0.00010936901903203778 -0.0019365332672722968 -0.00012243368694652546 1.3642157598714522e-05 0.00035846863601707931 0.00076776243399873524 -0.0005230470048694395 -3.6980428031199638e-05 -0.0016457604462403557 0.00088741939519305718 -0.00016435729230671929 0.00057997251669441002 0.0024222473758054443 0.00060157429470946431 -0.00056831338702860185 -0.00047171554958168733 0.0013770613990752682 -1.3497491989731427e-05 -0.0013875090956329251 -0.00031640114762360671 0.00029862178577048205 -0.0010587065722632307 -0.0003105164460099758 9.0464240522762013e-06 0.00092461838550982273 -8.2584301903453498e-05
leaf_weight=70802 1885 3766 5974 4870 83 434 129064 1877 492 3035 7268 50 645 1487 170 66 255 1096 89 166 201 90 54 51 59 69 383 51 50
leaf_count=70802 1885 3766 5974 4870 83 434 129064 1877 492 3035 7268 50 645 1487 170 66 255 1096 89 166 201 90 54 51 59 69 383 51 50
internal_value=-1.28938e-06 0.000710473 -2.55173e-05 -8.71014e-06 -0.000220067 -1.74807e-05 -1.42019e-05 0.000228234 0.00114918 -0.000204344 -0.000135331 9.08895e-05 0.000494967 -0.000405766 0.000685536 0.00126515 0.00124536 -0.000443812 -0.00127421 0.000926221 0.000250442 -0.000949438 -0.000150955 0.000185603 -0.00018115 -0.000679362 -0.000151681 0.000641602 -0.000232995
internal_weight=234582 7718 226864 208838 18026 201396 199866 7442 5116 17764 13242 4920 2522 4522 1029 4087 4021 1530 262 658 371 179 2602 206 2396 128 2268 102 104
internal_count=234582 7718 226864 208838 18026 201396 199866 7442 5116 17764 13242 4920 2522 4522 1029 4087 4021 1530 262 658 371 179 2602 206 2396 128 2268 102 104
is_linear=0
shrinkage=0.03


Tree=13
num_leaves=30
num_cat=0
split_feature=4 3 0 7 7 5 3 3 6 0 0 6 1 0 6 4 0 0 7 8 1 4 6 0 3 6 6 7 1
split_gain=1.04839 1.26874 0.958967 0.593302 0.501952 0.285297 0.223728 0.222353 0.211705 0.185983 0.17273 0.185723 0.121463 0.107794 0.0975333 0.0912356 0.11246 0.0841204 0.0786133 0.0668058 0.0577365 0.054416 0.0594404 0.0537593 0.0521709 0.0434499 0.0357326 0.0125161 0.0121108
threshold=0.99236106872558605 1.0000000180025095e-35 0.14325900375843051 0.99999997019767772 0.99999997019767772 0.99998664855957042 0.8414614498615266 0.004224226577207447 0.50672176480293285 0.52582752704620372 0.064398523420095458 0.22274315357208255 0.061449600383639343 0.54838669300079357 0.45085015892982488 0.36539669334888464 0.40872408449649816 0.11074137315154077 0.54243138432502758 0.94256693124771129 0.6352771818637849 0.024110060185194019 0.058805128559470184 0.19538140296936038 0.0015447546029463413 0.73192080855369579 0.47465904057025915 0.62993931770324718 0.18809469044208529
decision_type=2 2 2 2 2 2 2 2 2 2 2 2 2 2 2 2 2 2 2 2 2 2 2 2 2 2 2 2 2
left_child=3 2 4 5 8 7 10 13 -2 21 19 -12 23 -1 -14 16 -7 -9 26 -3 -6 24 -23 -4 -5 -17 -8 -20 -11
right_child=1 6 12 9 20 15 18 17 -10 28 11 -13 14 -15 -16 25 -18 -19 27 -21 -22 22 -24 -25 -26 -27 -28 -29 -30
leaf_value=-4.2792590723519159e-05 -6.2329963856036548e-05 1.8792721431063115e-05 0.00067142175807432072 -0.00025144223937122531 0.00098068656973689973 0.00016555836110047781 1.5471772212938601e-06 -7.2300646837779095e-06 0.00058655509936699466 -0.0014425292469590011 0.00016975344124957971 0.00062026487650740662 0.00066753807215707173 -0.00023843778002604596 0.0015916109293703997 0.00023717044471099785 -0.0005945643429962061 6.1522708607349445e-05 -0.00030564730881640169 0.00096351096942371567 0.00027732286061572309 -0.00012370673300025111 -0.0007099532086783033 0.001237550788654922 -0.00047696741159399615 0.00076670974038994669 0.00071450069644431191 -0.00014330262740202542 -0.00083926112261462863
leaf_weight=117556 2617 8318 203 3962 714 5761 5671 38086 546 106 7925 927 1278 2598 118 277 179 27558 553 68 138 3375 166 1167 1266 331 64 2961 93
leaf_count=117556 2617 8318 203 3962 714 5761 5671 38086 546 106 7925 927 1278 2598 118 277 179 27558 553 68 138 3375 166 1167 1266 331 64 2961 93
internal_value=-1.25184e-06 0.000154747 0.000520957 -2.70463e-05 0.000223855 -1.5909e-05 6.0878e-05 -2.27824e-05 4.87477e-05 -0.000265581 0.000124799 0.000217277 0.000951108 -4.7048e-05 0.000747905 0.000178661 0.000142138 2.15874e-05 -5.79314e-05 2.68223e-05 0.000870328 -0.00024456 -0.000152056 0.00115591 -0.000306637 0.000530468 1.00388e-05 -0.000169713 -0.00117623
internal_weight=234582 33268 6781 201314 4015 192346 26487 185798 3163 8968 17238 8852 2766 120154 1396 6548 5940 65644 9249 8386 852 8769 3541 1370 5228 608 5735 3514 199
internal_count=234582 33268 6781 201314 4015 192346 26487 185798 3163 8968 17238 8852 2766 120154 1396 6548 5940 65644 9249 8386 852 8769 3541 1370 5228 608 5735 3514 199
is_linear=0
shrinkage=0.03


Tree=14
num_leaves=30
num_cat=0
split_feature=2 4 7 3 9 2 10 7 4 8 9 7 10 4 2 7 8 2 9 8 3 8 10 3 10 9 7 7 7
split_gain=4.15535 2.96955 0.754597 0.423354 0.29875 0.279993 0.211806 0.290566 0.169602 0.15216 0.116935 0.115078 0.0909514 0.073397 0.0729814 0.072573 0.146453 0.069583 0.105741 0.044495 0.0392008 0.0386589 0.0345078 0.0344625 0.0313901 0.00853706 0.0231321 0.0120106 0.00217585
threshold=0.99999994039535534 0.85500407218933117 0.96810409426689159 0.032916685566306121 0.79349467158317577 0.38726861774921423 0.20892116427421573 0.41971664130687719 0.11764863133430482 0.24485066533088687 0.89097335934638988 0.99999997019767772 0.98910871148109447 0.99999997019767772 0.95478910207748424 0.046517398208379752 0.70072606205940258 0.84276732802391063 0.89097335934638988 0.0067730650771409282 0.02956823538988829 0.24852886795997622 0.87829574942588817 0.064827024936676039 0.78976881504058849 0.44237068295478826 0.34453494846820837 0.0086280535906553286 0.23704868555068973
decision_type=2 2 2 2 2 2 2 2 2 2 2 2 2 2 2 2 2 2 2 2 2 2 2 2 2 2 2 2 2
left_child=2 23 6 13 5 12 15 8 -8 -9 19 -12 -4 -3 -7 16 -1 20 -19 -5 -6 -17 -15 25 -25 26 -2 -27 -26
right_child=1 3 4 10 17 14 7 9 -10 -11 11 -13 -14 22 -16 21 -18 18 -20 -21 -22 -23 -24 24 28 27 -28 -29 -30
leaf_value=-0.00011984286325599583 -0.00015014261611923031 0.00048855054730577246 -0.00023101949552777802 0.0010471305484279164 -0.00038116251658389588 -4.7877293993964165e-05 -2.5221591724378604e-06 -5.962039639253738e-05 7.1899275909233175e-05 -0.000546115529393284 0.00084152575456690525 0.0001592589948506799 -0.00047516519701878252 0.0011278986012636903 0.00059175416256380714 8.8434779219691556e-06 0 0.00023163083185656375 -0.00069782362001163955 0.00048048145990146944 -0.00075984434861636773 -6.1484169286365372e-05 0.0015187133238684252 0.00082851722740762037 -0.00017194450937029181 -0.00017778223743553659 -0.00079062324422980691 7.4722003918417174e-06 9.207028127412097e-05
leaf_weight=27045 206 82 3626 1821 355 5318 56815 31908 53386 591 629 363 2297 308 165 18614 13846 213 221 156 1211 11253 1757 59 52 1814 76 344 51
leaf_count=27045 206 82 3626 1821 355 5318 56815 31908 53386 591 629 363 2297 308 165 18614 13846 213 221 156 1211 11253 1757 59 52 1814 76 344 51
internal_value=-1.21231e-06 0.000683325 -2.4514e-05 0.00110305 -0.000242848 -0.000183158 -1.07876e-05 1.02379e-05 3.35035e-05 -6.85614e-05 0.000868332 0.000594931 -0.000326215 0.00142618 -2.80713e-05 -5.32328e-05 -7.92196e-05 -0.000581734 -0.000234804 0.00100396 -0.000675946 -1.75536e-05 0.00146193 -0.000140787 0.000275829 -0.000169687 -0.000333608 -0.000146862 -1.21583e-05
internal_weight=234582 7718 226864 5116 13406 11406 213458 142700 110201 32499 2969 992 5923 2147 5483 70758 40891 2000 434 1977 1566 29867 2065 2602 162 2440 282 2158 103
internal_count=234582 7718 226864 5116 13406 11406 213458 142700 110201 32499 2969 992 5923 2147 5483 70758 40891 2000 434 1977 1566 29867 2065 2602 162 2440 282 2158 103
is_linear=0
shrinkage=0.03


Tree=15
num_leaves=29
num_cat=0
split_feature=2 4 7 5 3 4 2 3 6 3 2 6 3 6 7 3 3 4 6 6 4 7 1 7 3 7 3 7
split_gain=4.05248 2.89998 0.724224 0.453075 0.428399 0.256314 0.175692 0.163505 0.125008 0.116477 0.17438 0.10099 0.100437 0.0841754 0.0839269 0.0934193 0.0724992 0.0691783 0.0648048 0.0702919 0.0393958 0.0475551 0.0331415 0.0262307 0.0249242 0.0219132 0.0163239 0.0105543
threshold=0.99999994039535534 0.9092833697795869 0.85776102542877208 0.99998664855957042 0.032212169840931899 0.3619332909584046 0.35897438228130346 0.0075117340311408052 0.803165763616562 0.78693160414695751 0.95478910207748424 0.60264673829078685 0.88096737861633312 0.0091779339127242583 0.99999997019767772 0.004224226577207447 1.0000000180025095e-35 0.99236106872558605 0.35287773609161383 1.0000000180025095e-35 0.56522482633590709 0.42368838191032415 0.99999585747718822 0.58705297112464916 0.92393952608108532 0.58137157559394848 0.067902352660894408 0.96810409426689159
decision_type=2 2 2 2 2 2 2 2 2 2 2 2 2 2 2 2 2 2 2 2 2 2 2 2 2 2 2 2
left_child=2 20 3 7 18 16 14 8 -1 10 -8 -7 25 -9 22 -16 -5 -11 19 -3 23 -22 -4 26 -14 -6 -2 -25
right_child=1 4 6 5 12 11 9 13 -10 17 -12 -13 24 -15 15 -17 -18 -19 -20 -21 21 -23 -24 27 -26 -27 -28 -29
leaf_value=-3.3821653937622599e-05 -0.00014485121421090115 0.0014633722626180507 -0.00019283647851110731 2.6271278588441283e-05 0.0011281055107399752 7.3030620941459651e-05 -0.00010477007567357281 -1.6888884650416708e-05 -0.00039018729420994255 0.00030006972888356844 0.00071418710240899515 0.00068285870085919972 0 4.5910468819303114e-05 -0.00029875046323141907 -0.00057636403583025478 0.00023805785092264212 -0.00044523264256200859 0.0021755315263188449 0.00095604886881161361 -7.2610519795495801e-05 0.0010070337532655464 0.00018708410418976859 -0.00094455926420451491 0.00065615074766440607 0.00089128311822137094 0.0003012376666183993 -0.0003133524150071308
leaf_weight=122591 2290 1681 1827 2985 812 317 8206 33557 894 118 240 1265 60 44771 4002 1556 2905 1263 112 334 85 59 225 50 1009 1060 72 90
leaf_count=122591 2290 1681 1827 2985 812 317 8206 33557 894 118 240 1265 60 44771 4002 1556 2905 1263 112 334 85 59 225 50 1009 1060 72 90
internal_value=1.09859e-06 0.000677308 -2.18959e-05 -6.40434e-06 0.00109766 0.000222969 -0.000207657 -1.49117e-05 -3.64263e-05 -0.000123354 -8.11354e-05 0.00056257 0.000860453 1.89679e-05 -0.000316123 -0.000377019 0.000131238 -0.000379361 0.00142418 0.00138082 -0.000126686 0.000349317 -0.00014971 -0.000155294 0.000620797 0.000995665 -0.000129971 -0.00056071
internal_weight=234436 7714 226722 209285 5068 7472 17437 201813 123485 9827 8446 1582 2941 78328 7610 5558 5890 1381 2127 2015 2646 144 2052 2502 1069 1872 2362 140
internal_count=234436 7714 226722 209285 5068 7472 17437 201813 123485 9827 8446 1582 2941 78328 7610 5558 5890 1381 2127 2015 2646 144 2052 2502 1069 1872 2362 140
is_linear=0
shrinkage=0.03


Tree=16
num_leaves=30
num_cat=0
split_feature=4 3 10 7 0 3 3 6 8 0 7 0 6 0 0 0 10 6 10 4 10 10 6 6 6 7 7 10 10
split_gain=1.00024 1.15818 0.925866 0.499854 0.342407 0.239131 0.234836 0.218614 0.196144 0.170101 0.137041 0.129834 0.155127 0.122931 0.106302 0.10463 0.103628 0.0853525 0.0716791 0.0620889 0.0652087 0.0600142 0.0569062 0.046673 0.0368817 0.0350437 0.028548 0.0201092 0.00981311
threshold=0.99999997019767772 1.0000000180025095e-35 0.87829574942588817 0.99999997019767772 0.028331323526799682 0.947350174188614 0.004224226577207447 0.42854961752891546 0.92443716526031505 0.52582752704620372 0.99999997019767772 0.004601407330483199 0.26309622824192053 0.48159490525722509 0.50811183452606212 0.14064066857099536 0.77267596125602733 0.052303088828921325 0.66464522480964672 0.0044254898093640813 0.9918673336505891 0.18282014876604083 0.60264673829078685 0.077454537153244032 0.45742370188236242 0.55835470557212841 0.55290052294731151 0.95991322398185741 0.17493199557065967
decision_type=2 2 2 2 2 2 2 2 2 2 2 2 2 2 2 2 2 2 2 2 2 2 2 2 2 2 2 2 2
left_child=3 2 8 6 10 11 14 -6 15 19 -4 21 -13 17 16 -2 -1 -8 -15 20 -5 -3 -10 -21 26 -16 -7 28 -11
right_child=1 5 4 9 7 24 13 -9 22 27 -12 12 -14 18 25 -17 -18 -19 -20 23 -22 -23 -24 -25 -26 -27 -28 -29 -30
leaf_value=-5.1584048715712934e-05 3.9913050062918067e-05 -0.00016902349798492226 -3.5056191796116042e-05 -0.00019208561800278094 0.00097491931660579712 -3.2001006116414247e-05 -6.3506797018896632e-06 0.0020716022139891741 0.00036517883641786777 -0.0011552265877514786 0.00076289867263019918 0.00015759843450158023 0.00059206008871142616 0.00017447766615517009 -0.0001867500700562453 0.00044365214904801552 9.5484092264527079e-06 6.2549799661444904e-05 -0.0004478883686874081 -0.00010661581417015893 -0.00041229810478264959 6.4099871227059569e-05 0.0016816269383610138 -0.00067591970398008492 0.00072655925797977436 -0.00069734333564678652 -0.00014979905937173834 -0.0015274317663529426 -0.00044677253594531304
leaf_weight=85778 2693 1193 417 2740 2190 5005 26519 183 52 50 351 10108 805 207 3099 743 35088 41215 739 3537 2287 5856 97 137 51 131 3023 83 59
leaf_count=85778 2693 1193 417 2740 2190 5005 26519 183 52 50 351 10108 805 207 3099 743 35088 41215 739 3537 2287 5856 97 137 51 131 3023 83 59
internal_value=1.06708e-06 0.000154811 0.000505819 -2.38982e-05 0.000882084 6.40335e-05 -1.37374e-05 0.00106084 0.000175303 -0.000243817 0.00032578 0.000125063 0.000189927 3.07466e-05 -3.83809e-05 0.000128101 -3.38122e-05 3.55298e-05 -0.00030853 -0.000223889 -0.000292873 2.42177e-05 0.00124287 -0.000128679 -7.12825e-05 -0.000208408 -7.67337e-05 -0.00113072 -0.00080001
internal_weight=234436 32767 6726 201669 3141 26041 192776 2373 3585 8893 768 17962 10913 68680 124096 3436 120866 67734 946 8701 5027 7049 149 3674 8079 3230 8028 192 109
internal_count=234436 32767 6726 201669 3141 26041 192776 2373 3585 8893 768 17962 10913 68680 124096 3436 120866 67734 946 8701 5027 7049 149 3674 8079 3230 8028 192 109
is_linear=0
shrinkage=0.03


Tree=17
num_leaves=28
num_cat=0
split_feature=2 4 7 5 3 0 0 4 0 2 3 0 0 2 0 0 2 3 4 5 3 4 7 7 1 3 7
split_gain=3.74685 2.65637 0.660156 0.422874 0.373548 0.341145 0.320783 0.235422 0.201367 0.162435 0.11565 0.0953577 0.0895867 0.0730232 0.0711807 0.0705096 0.0569243 0.0564676 0.0564032 0.0524313 0.04561 0.0366244 0.0451155 0.0235016 0.0164049 0.0150593 0.010481
threshold=0.99999994039535534 0.9092833697795869 0.85776102542877208 0.99998664855957042 0.15107928961515429 0.48159490525722509 0.54838669300079357 0.3619332909584046 0.12759685516357425 0.84276732802391063 0.005352861713618041 0.0061134931165725001 0.16848944872617724 0.92029023170471203 1.0000000180025095e-35 0.2661739587783814 0.20423042774200442 0.88096737861633312 0.99999997019767772 0.1428555026650429 0.86225339770317089 0.56522482633590709 0.42368838191032415 0.58705297112464916 0.25174297392368322 0.067902352660894408 0.96810409426689159
decision_type=2 2 2 2 2 2 2 2 2 2 2 2 2 2 2 2 2 2 2 2 2 2 2 2 2 2 2
left_child=2 21 3 6 18 9 8 12 -1 10 -4 -9 -5 -8 20 -11 -7 -16 -3 -20 -6 23 -23 25 -18 -2 -25
right_child=1 4 5 7 14 16 13 11 -10 15 -12 -13 -14 -15 17 -17 24 -19 19 -21 -22 22 -24 26 -26 -27 -28
leaf_value=-3.5360505056891823e-05 -0.00013609785921025883 0.00038116177732798413 -0.00014883404757934788 0.00017039822293043864 0.0015399584943547701 -0.0018481384403909644 -0.00052412451961740374 0.00042336786646742923 2.6230963031608412e-05 0.00015188407721580818 -0.00032015245846209683 0.0010263441813540791 -0.0001909800137134257 8.1441511690284906e-05 0.00084286647194537238 -0.00038022884204679425 -0.0012332063859760666 0.00050889408174030525 0.0013082388117408698 0.002153618472282974 0.00087317485167087705 -6.9390631108952422e-05 0.00098139126455945515 -0.0009096725454726841 -0.0005628025862050816 0.00029217108983698923 -0.00028475714095591156
leaf_weight=121645 2290 66 9468 5197 180 99 1349 1279 78622 1650 5783 303 693 197 1282 257 83 805 2385 80 270 85 59 50 97 72 90
leaf_count=121645 2290 66 9468 5197 180 99 1349 1279 78622 1650 5783 303 693 197 1282 257 83 805 2385 80 270 85 59 50 97 72 90
internal_value=1.03394e-06 0.000651245 -2.10759e-05 -6.28482e-06 0.00105355 -0.000198431 -1.45042e-05 0.000215311 -1.11656e-05 -0.000181301 -0.000213994 0.00054081 0.000127368 -0.000445019 0.000793245 7.85838e-05 -0.0012407 0.000715514 0.00131326 0.00133698 0.00114684 -0.000118192 0.000340701 -0.000145815 -0.000889104 -0.000121761 -0.000529844
internal_weight=234436 7714 226722 209285 5068 17437 201813 7472 200267 17158 15251 1582 5890 1546 2537 1907 279 2087 2531 2465 450 2646 144 2502 180 2362 140
internal_count=234436 7714 226722 209285 5068 17437 201813 7472 200267 17158 15251 1582 5890 1546 2537 1907 279 2087 2531 2465 450 2646 144 2502 180 2362 140
is_linear=0
shrinkage=0.03


Tree=18
num_leaves=30
num_cat=0
split_feature=4 0 7 9 5 1 6 6 7 4 0 9 0 0 0 0 1 7 9 9 7 4 0 1 0 8 9 1 0
split_gain=0.891246 0.54295 0.446869 0.335379 0.246551 0.225648 0.349115 0.203459 0.240644 0.166864 0.16066 0.160654 0.154876 0.150773 0.145204 0.0694679 0.0684331 0.0678583 0.066638 0.0624372 0.0611655 0.0525683 0.0517574 0.0481391 0.0404321 0.0369999 0.0323507 0.0161941 0.000664468
threshold=0.99999997019767772 0.28598396480083471 0.99999997019767772 0.99999991059303295 0.91182464361190807 0.68237680196762096 0.23045746982097629 0.51100602746009838 0.99999997019767772 0.3619332909584046 0.0016108353156596424 0.696458399295807 0.52582752704620372 0.52582752704620372 0.10694247484207155 0.40872408449649816 0.338202714920044 0.09742107987403871 0.71570008993148815 0.37029840052127844 0.96810409426689159 0.021775864996016029 0.39355547726154333 0.82463353872299205 0.21550434827804568 0.020150494761765007 0.90958192944526683 0.15917166322469714 0.023975185118615631
decision_type=2 2 2 2 2 2 2 2 2 2 2 2 2 2 2 2 2 2 2 2 2 2 2 2 2 2 2 2 2
left_child=2 3 4 7 12 6 16 8 -2 15 -9 -8 14 18 -1 -6 -3 22 21 -11 24 -4 -7 -19 -5 -14 -20 -15 -22
right_child=1 5 13 20 9 17 11 10 -10 19 -12 -13 25 27 -16 -17 -18 23 26 -21 28 -23 -24 -25 -26 -27 -28 -29 -30
leaf_value=-3.9695669500288249e-05 5.9209571733489391e-05 0.00049318232874501493 -0.00023927746216565412 -0.0002210908186828798 0.00012136539615416938 0.00050928086717515523 0.0004494042604935841 0.00036660578553460274 0.00031213618256132377 6.4221359358030916e-05 0.0013980230621149583 0.0017266645849910479 -0.00032836676040696636 -0.0013735594484255158 1.445902217320448e-05 -0.00041370499526953691 0.0001861323101642689 -0.00069804775080970361 -0.00043119459185861667 0.00071444872202964269 -0.00050564400022987046 -7.209494954707544e-05 5.0952571503964103e-05 -1.2963059860940263e-05 0.00023998276162043146 -0.00012609611899176785 0.00018930315718039802 -0.00071181213326066068 -0.00071700072079900552
leaf_weight=102882 19344 3086 4381 1797 6978 364 137 905 4118 184 164 295 1575 98 78503 223 873 132 1388 602 285 2859 611 338 183 1829 73 94 135
leaf_count=102882 19344 3086 4381 1797 6978 364 137 905 4118 184 164 295 1575 98 78503 223 873 132 1388 602 285 2859 611 338 183 1829 73 94 135
internal_value=1.00336e-06 0.000146129 -2.25618e-05 8.91381e-05 -1.29536e-05 0.000408603 0.000515742 0.000122334 0.000103732 0.000150192 0.000527762 0.00132875 -2.00215e-05 -0.0002305 -1.62411e-05 0.000104373 0.000426239 8.09434e-05 -0.000211712 0.000566076 -0.000248909 -0.000173675 0.000225173 -0.000211859 -0.000176951 -0.000220573 -0.000398127 -0.00106574 -0.000580876
internal_weight=234436 32767 201669 26931 192776 5836 4391 24531 23462 7987 1069 432 184789 8893 181385 7201 3959 1445 8701 786 2400 7240 975 470 1980 3404 1461 192 420
internal_count=234436 32767 201669 26931 192776 5836 4391 24531 23462 7987 1069 432 184789 8893 181385 7201 3959 1445 8701 786 2400 7240 975 470 1980 3404 1461 192 420
is_linear=0
shrinkage=0.03


Tree=19
num_leaves=31
num_cat=0
split_feature=4 3 10 7 6 9 5 7 10 1 3 6 10 6 6 6 4 10 3 10 9 1 7 6 1 6 6 9 3 9
split_gain=0.838732 1.01943 0.813792 0.420581 0.259438 0.23934 0.232016 0.18522 0.180349 0.181725 0.173983 0.13964 0.105531 0.266886 0.0992329 0.0895563 0.0762311 0.0626574 0.0941635 0.0608898 0.0547093 0.0487818 0.0477543 0.0446528 0.0504016 0.0348553 0.0320822 0.0292293 0.0280057 0.0139251
threshold=0.99999997019767772 1.0000000180025095e-35 0.87829574942588817 0.99999997019767772 0.42854961752891546 0.99999991059303295 0.91182464361190807 0.99999997019767772 0.10766035318374635 0.74041810631752025 0.0075117340311408052 0.77697068452835094 0.31771554052829748 0.26309622824192053 0.77697068452835094 0.041765326634049423 0.0044254898093640813 0.9918673336505891 0.42949984967708593 0.1789655610918999 0.7581864893436433 0.53215089440345775 0.98273491859436046 0.028705309145152572 0.19500460475683215 0.022216390818357471 0.030814638361334804 0.63560500741004955 0.0088200639002025145 0.73605620861053478
decision_type=2 2 2 2 2 2 2 2 2 2 2 2 2 2 2 2 2 2 2 2 2 2 2 2 2 2 2 2 2 2
left_child=3 2 11 6 7 12 10 -4 20 -10 14 15 26 -14 -1 -2 17 21 -19 -12 -8 -5 25 24 -18 -7 -3 -13 -25 -6
right_child=1 5 4 16 29 22 8 -9 9 -11 19 27 13 -15 -16 -17 23 18 -20 -21 -22 -23 -24 28 -26 -27 -28 -29 -30 -31
leaf_value=-3.6958557358221602e-05 0.0003089708447979544 6.0045988314763834e-05 0.0005497428285676446 -8.9792134649581344e-05 0.0013975610711714176 -0.00018929441733279938 6.3368067871313977e-05 0.0010409729941036278 0.00051407458518331034 -6.1828630354519184e-05 -3.1784183556736542e-05 0.00063286529595862667 8.6821884673991861e-05 0.00059053153562385607 -0.00029619741826872846 -7.1711305976094671e-06 -0.00017261533714984874 -0.00044466547270896015 0.00077056277784903814 3.8873421243934623e-05 -0.00061312866009208744 -0.00034412287305152174 -0.00049258855075966636 -0.00032517630927271594 6.7345773413428814e-05 0.00024678476196462323 -0.00014807673331289649 0.0014697490581734615 -0.0011677759276327554 0.0021192124373269412
leaf_weight=122708 1300 974 1743 1607 72 1995 5399 1197 1814 665 14332 141 19429 998 1347 2077 2290 2295 57 46402 109 1232 466 182 1179 174 2005 67 51 129
leaf_count=122708 1300 974 1743 1607 72 1995 5399 1197 1814 665 14332 141 19429 998 1347 2077 2290 2295 57 46402 109 1232 466 182 1179 174 2005 67 51 129
internal_value=9.73652e-07 0.000141759 0.000471072 -2.18863e-05 0.000823839 5.65864e-05 -1.25646e-05 0.000750793 0.000145697 0.00035838 -1.94213e-05 0.000161143 8.71936e-05 0.000111581 -3.97978e-05 0.000113647 -0.000223616 -0.000298174 -0.000413908 2.21502e-05 4.94251e-05 -0.000201225 -0.000214144 -0.000118254 -9.0196e-05 -0.000152919 -7.90231e-05 0.000917431 -0.0005229 0.00187645
internal_weight=234436 32767 6726 201669 3141 26041 192776 2940 7987 2479 184789 3585 23406 20427 124055 3377 8893 5191 2352 60734 5508 2839 2635 3702 3469 2169 2979 208 233 201
internal_count=234436 32767 6726 201669 3141 26041 192776 2940 7987 2479 184789 3585 23406 20427 124055 3377 8893 5191 2352 60734 5508 2839 2635 3702 3469 2169 2979 208 233 201
is_linear=0
shrinkage=0.03


Tree=20
num_leaves=28
num_cat=0
split_feature=2 8 5 10 1 9 10 6 10 6 3 8 10 1 1 9 6 9 9 1 8 9 5 10 2 9 9
split_gain=3.40411 1.37643 0.33122 0.250588 0.202787 0.17523 0.170142 0.15186 0.147435 0.244449 0.127405 0.10699 0.0882922 0.0759187 0.0709876 0.0642147 0.0619946 0.0823448 0.0606324 0.0520042 0.0497301 0.0470412 0.0414099 0.0376021 0.031787 0.00814052 0.00448897
threshold=0.99999994039535534 0.56697678565979015 0.99998664855957042 0.042167654260993011 0.75319075584411632 0.97801363468170177 0.92366755008697521 0.0091779339127242583 0.20892116427421573 0.0022019189782440667 0.82192409038543712 0.81362301111221325 0.56026571989059459 0.13001167029142383 0.89173758029937755 0.40533840656280523 0.083617538213729872 0.52710115909576427 0.50261572003364574 0.072435144335031523 0.55247947573661815 0.89097335934638988 0.32412546873092657 0.34087549149990087 0.31511421501636511 0.48944038152694708 0.51376178860664379
decision_type=2 2 2 2 2 2 2 2 2 2 2 2 2 2 2 2 2 2 2 2 2 2 2 2 2 2 2
left_child=2 6 5 11 12 8 16 19 14 -10 15 18 -5 -13 -1 -8 23 -18 -4 -7 -6 -12 25 -2 -9 -3 -27
right_child=1 22 3 4 20 7 10 24 9 -11 21 13 -14 -15 -16 -17 17 -19 -20 -21 -22 -23 -24 -25 -26 26 -28
leaf_value=-7.3996411682176943e-05 0.00026130467471997381 0.00011357977952073888 -1.3090477287454163e-05 0.00038103853090642586 0.0001067491034472371 -0.00036969294344435641 0.0014696832632478383 0.00081846140949424996 -4.916759782976584e-05 2.8267258670556463e-05 0.00088892753297643422 0.00023176280755389834 0.00079205121736239392 -0.00022311125292214759 6.1446266481737532e-06 0.00097456743600586636 -0.00060322376313766521 0.000469751580252587 -0.00038258965479970449 2.4563353335781871e-06 -0.00049372081934241196 0.00045747874693552774 0.00071778782528557177 0.00075442769056313847 0.00013418801696251265 -0.00013273337206625026 -0.00029098471582552867
leaf_weight=55230 200 93 1576 1146 376 2557 283 76 65907 82738 406 2491 857 374 12050 3341 91 211 544 371 182 636 51 693 412 1360 233
leaf_count=55230 200 93 1576 1146 376 2557 283 76 65907 82738 406 2491 857 374 12050 3341 91 211 544 371 182 636 51 693 412 1360 233
internal_value=1.50554e-06 0.00062614 -1.93993e-05 0.000175971 0.000417327 -2.61344e-05 0.000846016 -0.000239409 -2.27463e-05 -6.04604e-06 0.000928654 5.1369e-05 0.000558422 0.00017133 -5.95984e-05 0.0010141 0.000520786 0.000136415 -0.000109334 -0.000321516 -8.37811e-05 0.000628534 -0.000114044 0.000647387 0.000247047 -0.000141027 -0.00015778
internal_weight=234485 7598 226887 7546 2561 219341 5861 3416 215925 148645 4666 4985 2003 2865 67280 3624 1195 302 2120 2928 558 1042 1737 893 488 1686 1593
internal_count=234485 7598 226887 7546 2561 219341 5861 3416 215925 148645 4666 4985 2003 2865 67280 3624 1195 302 2120 2928 558 1042 1737 893 488 1686 1593
is_linear=0
shrinkage=0.03


Tree=21
num_leaves=28
num_cat=0
split_feature=2 4 0 5 10 0 0 4 9 0 9 5 8 4 2 6 2 6 0 9 0 4 10 5 0 9 9
split_gain=3.20354 2.11495 0.436754 0.313762 0.238577 0.191926 0.171054 0.158653 0.150146 0.121396 0.112994 0.0913977 0.148171 0.0637374 0.0636585 0.0669203 0.0602282 0.0611955 0.0562426 0.0409744 0.0315424 0.023151 0.0350731 0.0171113 0.0145455 0.0119245 0.00670192
threshold=0.99999994039535534 0.9092833697795869 0.54838669300079357 0.99998664855957042 0.042167654260993011 0.012242349795997145 0.11728569120168687 0.012377231847494842 0.90026485919952404 0.23114289343357089 0.97801363468170177 0.1428555026650429 0.0067730650771409282 0.71052595973014843 0.54388618469238292 0.41960872709751135 0.93258687853813182 0.17269991338253024 0.35295008122920996 0.90958192944526683 0.61545708775520336 0.42903886735439306 0.7977702021598817 0.34841653704643255 0.18673889338970187 0.91993924975395214 0.37908436357975012
decision_type=2 2 2 2 2 2 2 2 2 2 2 2 2 2 2 2 2 2 2 2 2 2 2 2 2 2 2
left_child=2 21 3 5 9 10 -6 -7 11 -5 -1 12 -3 14 15 -4 17 -15 19 -10 -16 23 -23 26 -24 -20 -2
right_child=1 8 13 4 6 7 -8 -9 18 -11 -12 -13 -14 16 20 -17 -18 -19 25 -21 -22 22 24 -25 -26 -27 -28
leaf_value=-5.077836596048641e-05 -0.00032371520379616807 0.0010746067286895389 -0.00076932734643568525 7.1764141254015862e-05 0.00060122672063599191 -3.6481274797476066e-05 7.3978878743761434e-05 3.0679591036088346e-05 -0.00028108720821565236 -0.0013817522392452707 -0.00029262632375294344 0.0020646762333029062 0.00029373665996929005 -0.0013771693734768303 6.1532821197583587e-05 -0.00011664256400242095 -2.1419256990912978e-06 -0.00049079259358892605 0.00051414450592726483 0.00054961127487423262 -0.00035544777231197235 0.0009074524150112876 -0.00030125711123445403 0.00040480505738217952 0.00031788224580468256 0.0011380397417606809 -0.00011152049028719553
leaf_weight=86909 162 3695 514 4923 1604 55731 867 73269 53 52 1780 84 244 184 285 211 71 135 55 677 352 50 75 53 62 205 2183
leaf_count=86909 162 3695 514 4923 1604 55731 867 73269 53 52 1780 84 244 184 285 211 71 135 55 677 352 50 75 53 62 205 2183
internal_value=1.46313e-06 0.000607417 -1.88161e-05 -1.51304e-05 0.000176319 -2.16928e-05 0.000417456 1.64127e-06 0.000966882 5.59411e-05 -5.56664e-05 0.00104947 0.00102701 -0.000490691 -0.000389652 -0.000583553 -0.000835671 -0.00101173 0.000628176 0.000485161 -0.000164197 -8.85304e-05 0.000227576 -0.00011444 0 0.00101784 -0.000127472
internal_weight=234485 7598 226887 225135 7446 217689 2471 129000 5013 4975 88689 4023 3939 1752 1362 725 390 319 990 730 637 2585 187 2398 137 260 2345
internal_count=234485 7598 226887 225135 7446 217689 2471 129000 5013 4975 88689 4023 3939 1752 1362 725 390 319 990 730 637 2585 187 2398 137 260 2345
is_linear=0
shrinkage=0.03


Tree=22
num_leaves=29
num_cat=0
split_feature=10 5 1 9 9 3 6 6 8 5 7 7 8 6 10 9 7 6 1 6 8 7 6 3 10 1 8 7
split_gain=0.276856 0.490602 0.312682 0.175207 0.126281 0.113982 0.110032 0.0981834 0.0969887 0.0863204 0.122619 0.11077 0.0879791 0.0745547 0.0710439 0.0522641 0.0522021 0.0475798 0.0432812 0.0417566 0.0511682 0.035562 0.0326434 0.0307234 0.0295402 0.029214 0.0203233 0.00900956
threshold=0.20892116427421573 0.6933770775794984 0.80737957358360302 0.67247691750526439 0.99999991059303295 0.10000127553939821 0.011272917967289688 0.40526349842548376 0.53374624252319347 0.99998664855957042 0.040885260328650481 0.54243138432502758 0.81362301111221325 0.77697068452835094 0.58960452675819408 0.78216740489006054 0.0024399490794166927 0.68393954634666454 0.0074804266914725312 0.42564094066619879 0.23393719643354419 0.12977627664804461 0.4784324318170548 1.0000000180025095e-35 0.87441882491111766 0.57627141475677501 0.3262265026569367 0.016347417607903484
decision_type=2 2 2 2 2 2 2 2 2 2 2 2 2 2 2 2 2 2 2 2 2 2 2 2 2 2 2 2
left_child=9 4 3 18 5 13 16 -7 22 10 23 12 15 -2 -5 -11 -6 -14 -3 20 -12 -21 -4 26 -10 -25 -1 -8
right_child=1 2 8 14 6 7 27 -9 24 11 19 -13 17 -15 -16 -17 -18 -19 -20 21 -22 -23 -24 25 -26 -27 -28 -29
leaf_value=-0.0001554709747172709 5.9127922755112026e-06 0.00049821580144030506 0.00066199102611186843 0.00042133730692737092 0.00049502976617295366 5.4712338772378518e-05 0.00022898269977504555 0.00033995329521978209 -0.00026394986134530436 -2.3078638964875302e-05 9.9523173350336123e-06 -0.0011308454307532635 2.9909324468718317e-06 -0.00025304617408641622 0.0010011628186489486 -0.00078284281685310345 -0.0002706800055633706 0.00027021747270329036 0.00020810762022782712 5.4331845896776662e-05 -6.9522100957580216e-05 0.00048518431042694125 3.1525072977444523e-05 -7.8982940629170254e-05 -0.00088269562986409975 3.4774758372097701e-05 -9.4607897232571603e-05 0.00063693802167554068
leaf_weight=7733 114227 902 84 289 80 37827 225 1123 203 2266 19851 68 871 1009 708 85 2507 2102 1060 549 11478 265 729 10355 125 2487 15193 84
leaf_count=7733 114227 902 84 289 80 37827 225 1123 203 2266 19851 68 871 1009 708 85 2507 2102 1060 549 11478 265 729 10355 125 2487 15193 84
internal_value=1.41888e-06 2.34146e-05 0.000347409 0.000510218 1.49387e-05 1.86428e-05 -0.00018123 6.30142e-05 -7.21892e-05 -4.69054e-05 -5.61029e-05 6.83779e-05 8.42792e-05 3.61911e-06 0.000836157 -5.18559e-05 -0.000245823 0.00019294 0.000343028 -1.34698e-05 -1.90691e-05 0.000198325 0.000100428 -9.43312e-05 -0.000509093 -5.67188e-05 -0.000115269 0.000349759
internal_weight=234485 161182 4100 2959 157082 154186 2896 38950 1141 73303 67911 5392 5324 115236 997 2351 2587 2973 1962 32143 31329 814 813 35768 328 12842 22926 309
internal_count=234485 161182 4100 2959 157082 154186 2896 38950 1141 73303 67911 5392 5324 115236 997 2351 2587 2973 1962 32143 31329 814 813 35768 328 12842 22926 309
is_linear=0
shrinkage=0.03


Tree=23
num_leaves=28
num_cat=0
split_feature=2 4 5 3 4 9 10 8 4 1 10 2 10 1 3 4 3 1 9 10 3 1 5 8 4 5 9
split_gain=3.01677 1.98204 0.278564 0.247444 0.213702 0.153816 0.150341 0.162953 0.148939 0.0941442 0.0938875 0.0916196 0.0896737 0.0810283 0.0778226 0.0602836 0.0600863 0.045192 0.040606 0.0401246 0.0393996 0.0388802 0.0368728 0.0765532 0.028096 0.017753 0.00507702
threshold=0.99999994039535534 0.9092833697795869 0.99998664855957042 0.032212169840931899 0.3619332909584046 0.97801363468170177 0.22775437682867053 0.87360593676567089 0.012377231847494842 0.068624749779701247 0.073091704398393645 0.23708917200565341 0.90710073709487926 0.63923338055610668 1.0000000180025095e-35 0.31836421787738806 0.82192409038543712 0.47007246315479284 0.89097335934638988 0.56425762176513683 0.018846168182790283 0.087579764425754561 0.1428555026650429 0.030491649173200134 0.97532218694686901 0.34841653704643255 0.31530430912971502
decision_type=2 2 2 2 2 2 2 2 2 2 2 2 2 2 2 2 2 2 2 2 2 2 2 2 2 2 2
left_child=2 20 5 22 10 8 7 -6 14 15 17 -10 -12 -8 -1 -7 19 -4 -18 -5 25 -22 23 -3 -11 26 -2
right_child=1 3 4 16 6 9 13 -9 11 24 12 -13 -14 -15 -16 -17 18 -19 -20 -21 21 -23 -24 -25 -26 -27 -28
leaf_value=-6.5178203709076332e-05 -0.0004388759373991451 0.0012072222574579326 2.826130117604628e-05 0.00034098422243022968 -6.7583479400083155e-05 0.00058264406219828656 0.0010060021442972133 0.00069028900445720865 -6.2622044198568279e-05 0.00035333352845551221 0.00035774873959803192 1.3594452131462611e-05 -0.00017355966874448654 -0.00016384552357998929 -8.7765875959124687e-06 -0.0003257645745035002 0.00079498816468653996 -0.00033815839811998232 0.00041554412302916862 0.00091091872970447104 -8.0687050977192989e-05 0.00074616827767602927 0.0019521551248069229 0.00034152211067045015 -4.69284097630176e-05 0.00040051298560794379 -0.0001232647268455762
leaf_weight=70370 55 1911 3806 138 586 65 484 444 16634 237 1497 96688 345 55 32233 2671 481 329 659 1650 95 98 67 107 443 55 2282
leaf_count=70370 55 1911 3806 138 586 65 484 444 16634 237 1497 96688 345 55 32233 2671 481 329 659 1650 95 98 67 107 443 55 2282
internal_value=1.37864e-06 0.000589404 -1.83002e-05 0.000937392 0.000160863 -2.44777e-05 0.000472834 0.000256234 -2.13024e-05 -0.000224302 7.84607e-05 2.38047e-06 0.000256604 0.000881057 -4.74888e-05 -0.000303066 0.000756651 -1.74746e-07 0.00057833 0.00086863 -8.42871e-05 0.0003238 0.00118972 0.00116283 8.8195e-05 -0.00011848 -0.000131995
internal_weight=234485 7598 226887 5013 7546 219341 1569 1030 215925 3416 5977 113322 1842 539 102603 2736 2928 4135 1140 1788 2585 193 2085 2018 680 2392 2337
internal_count=234485 7598 226887 5013 7546 219341 1569 1030 215925 3416 5977 113322 1842 539 102603 2736 2928 4135 1140 1788 2585 193 2085 2018 680 2392 2337
is_linear=0
shrinkage=0.03


Tree=24
num_leaves=30
num_cat=0
split_feature=4 3 10 7 0 3 6 0 3 6 0 5 10 10 0 4 7 5 0 6 10 6 4 6 10 7 10 10 10
split_gain=0.54163 0.722036 0.594624 0.303372 0.277987 0.188125 0.187277 0.179963 0.164164 0.162942 0.0996147 0.0992514 0.105542 0.0957379 0.0977402 0.0862748 0.0854473 0.072435 0.063393 0.0726245 0.0632978 0.0621589 0.0575585 0.0564165 0.054105 0.0428677 0.0384608 0.0158865 0.0188811
threshold=0.94857415556907665 0.006523573538288475 0.9356917440891267 0.96810409426689159 0.019620257429778579 0.82192409038543712 0.31265667080879217 0.52582752704620372 0.0029236115515232091 0.56725469231605541 0.14582618325948718 0.65306735038757335 1.0000000180025095e-35 0.77267596125602733 0.42043314874172216 0.012377231847494842 0.9378473460674287 0.54582971334457409 0.022418051026761535 0.21687337011098864 0.1789655610918999 0.6994866430759431 1.0000000180025095e-35 0.081451259553432478 0.84652408957481395 0.53689837455749523 1.0000000180025095e-35 0.95991322398185741 0.17493199557065967
decision_type=2 2 2 2 2 2 2 2 2 2 2 2 2 2 2 2 2 2 2 2 2 2 2 2 2 2 2 2 2
left_child=3 2 9 8 16 18 -6 22 13 10 -2 20 -13 15 -15 -1 -4 25 21 -20 -10 -3 24 -24 -5 -7 -11 28 -9
right_child=1 5 4 7 6 17 -8 27 11 26 -12 12 -14 14 -16 -17 -18 -19 19 -21 -22 -23 23 -25 -26 -27 -28 -29 -30
leaf_value=-7.1044151263500158e-05 -1.9265500427654172e-05 1.2159232776658499e-05 -4.9114714057848424e-05 -0.0001277887753246215 0.00072708392818373539 -2.6848617959900683e-05 0.0015309701634605031 -0.001184089069446439 -3.9137284920895093e-05 0.00038555695511992749 0.0003379459879768771 5.0882251280075447e-05 0.00031437833777772379 2.561969724663492e-05 -0.00015775933249582869 -8.535859523964273e-06 0.0005423616082660212 0.00087433955862074473 0.00011521928163679678 0.00037366597714847625 3.2452368209872525e-05 0.0005557404653379729 -4.9958404403896822e-05 -0.00066173923523168564 -0.00031965805210763554 -0.00015916484661954627 0.00093066935408153912 -0.0014109100478705947 -0.00031452933067685111
leaf_weight=53569 2928 7091 502 2655 2192 5911 306 56 14360 295 919 3964 2118 32560 2842 31778 380 72 9274 1110 48828 195 3692 142 2787 3581 230 90 58
leaf_count=53569 2928 7091 502 2655 2192 5911 306 56 14360 295 919 3964 2118 32560 2842 31778 380 72 9274 1110 48828 195 3692 142 2787 3581 230 90 58
internal_value=1.33854e-06 0.000110228 0.000365718 -1.77423e-05 0.000664762 3.73928e-05 0.000826817 -0.000183386 -9.46249e-06 0.00013383 6.52946e-05 2.73301e-05 0.000143139 -3.05941e-05 1.08133e-05 -4.78051e-05 0.000202348 -6.95988e-05 9.54725e-05 0.000143138 1.61355e-05 2.71266e-05 -0.000163614 -7.34161e-05 -0.000226606 -7.70841e-05 0.000630213 -0.00106724 -0.000768638
internal_weight=234485 34986 7752 199499 3380 27234 2498 9480 190019 4372 3847 69270 6082 120749 35402 85347 882 9564 17670 10384 63188 7286 9276 3834 5442 9492 525 204 114
internal_count=234485 34986 7752 199499 3380 27234 2498 9480 190019 4372 3847 69270 6082 120749 35402 85347 882 9564 17670 10384 63188 7286 9276 3834 5442 9492 525 204 114
is_linear=0
shrinkage=0.03


Tree=25
num_leaves=29
num_cat=0
split_feature=2 4 7 0 0 3 2 10 6 9 6 2 10 9 4 9 0 2 4 6 0 0 3 9 7 3 9 9
split_gain=2.96209 1.95004 0.45132 0.332669 0.259221 0.244179 0.203895 0.194053 0.233057 0.172281 0.136466 0.134599 0.11629 0.114929 0.0926686 0.0890115 0.094167 0.0878291 0.076643 0.0754614 0.0549195 0.0498848 0.035855 0.0238022 0.0180939 0.0113794 0.0227636 0.00983939
threshold=0.99999994039535534 0.71052595973014843 0.84492805600166332 0.26238834857940679 0.54838669300079357 0.032212169840931899 0.84276732802391063 0.20892116427421573 0.44162966310977941 0.71286717057228099 0.87678253650665294 0.1517090126872063 0.59784030914306652 0.94443294405937206 0.71052595973014843 0.99999991059303295 0.18673889338970187 0.84276732802391063 0.99999997019767772 0.21687337011098864 0.39355547726154333 0.34289197623729711 0.22620922327041629 0.31285209953784948 0.41971664130687719 0.067902352660894408 0.69393077492713939 0.65957173705101024
decision_type=2 2 2 2 2 2 2 2 2 2 2 2 2 2 2 2 2 2 2 2 2 2 2 2 2 2 2 2
left_child=2 23 4 6 7 18 9 10 -9 -4 -1 21 -13 -8 22 16 -7 -16 24 -20 -17 -5 -6 -2 -3 27 -27 -25
right_child=1 5 3 11 14 15 13 8 -10 -11 -12 12 -14 -15 17 20 -18 -19 19 -21 -22 -23 -24 25 -26 26 -28 -29
leaf_value=-5.2358926329191192e-05 -0.0007602751620872292 0 -0.00010328627164267779 -0.00065966383372419537 -0.00029972249317100776 0.0010294725872017775 0.00027454097858806858 3.6372373015100042e-06 0.00014324336465551906 -0.00034517935765082008 0.00022458785169607046 -1.650181786008842e-05 -0.00064705893076595991 -0.00054832734997684257 -0.0011786242372990746 9.9491066072127871e-05 0.00064961803034285911 -0.0001978468230767508 0.0011414907996283221 0.001805397044200999 0.0011917221265660967 -0.0015120560037853174 0.00038616683836163778 -0.00012845107855532283 0.00077161266614158739 0.00063581843433831154 -0.00019953500272881742 5.2229678512540184e-05
leaf_weight=68105 50 60 11319 122 1182 1009 1492 125859 11774 3488 1636 398 839 168 226 292 1614 142 1856 188 50 173 69 2053 50 56 54 287
leaf_count=68105 50 60 11319 122 1182 1009 1492 125859 11774 3488 1636 398 839 168 226 292 1614 142 1856 188 50 173 69 2053 50 56 54 287
internal_value=-8.93611e-07 0.000580928 -2.04359e-05 -0.000164589 -8.00667e-06 0.000916389 -0.000125016 -5.03978e-06 1.56019e-05 -0.000160472 -4.58189e-05 -0.00058795 -0.000446622 0.000189428 -0.000386152 0.000736959 0.000796916 -0.000808479 0.00116194 0.00120411 0.000268245 -0.00117005 -0.000259466 -0.000104773 0.00035074 -9.01405e-05 0.000198679 -0.000105007
internal_weight=234611 7619 226992 17999 208993 5119 16467 207374 137633 14807 69741 1532 1237 1660 1619 2965 2623 368 2154 2044 342 295 1251 2500 110 2450 110 2340
internal_count=234611 7619 226992 17999 208993 5119 16467 207374 137633 14807 69741 1532 1237 1660 1619 2965 2623 368 2154 2044 342 295 1251 2500 110 2450 110 2340
is_linear=0
shrinkage=0.03


Tree=26
num_leaves=31
num_cat=0
split_feature=2 4 7 0 0 3 2 10 6 10 6 2 10 4 2 3 4 6 1 3 0 0 1 7 7 3 3 1 10 0
split_gain=2.78764 1.83531 0.424789 0.313223 0.243978 0.229563 0.191814 0.182582 0.21928 0.129353 0.12841 0.126623 0.109331 0.0872274 0.0824836 0.0759205 0.0718951 0.0707746 0.0582466 0.0571211 0.0467107 0.0392186 0.0337995 0.0170275 0.0158854 0.0178596 0.023273 0.00718158 0.00636034 0.00260329
threshold=0.99999994039535534 0.71052595973014843 0.84492805600166332 0.26238834857940679 0.54838669300079357 0.032212169840931899 0.84276732802391063 0.20892116427421573 0.44162966310977941 0.99999585747718822 0.87678253650665294 0.1517090126872063 0.59784030914306652 0.71052595973014843 0.84276732802391063 0.82192409038543712 0.99999997019767772 0.21687337011098864 0.34528839588165289 0.074434671550989165 0.34289197623729711 1.0000000180025095e-35 0.89173758029937755 0.41971664130687719 0.58705297112464916 0.018846168182790283 0.43778721988201147 0.58697080612182628 0.93132367730140697 0.32777023315429693
decision_type=2 2 2 2 2 2 2 2 2 2 2 2 2 2 2 2 2 2 2 2 2 2 2 2 2 2 2 2 2 2
left_child=2 24 4 6 7 16 9 10 -9 -4 -1 20 -13 22 -15 19 23 -18 -8 -7 -5 -17 -6 -3 25 27 -27 -2 -26 -30
right_child=1 5 3 11 13 15 18 8 -10 -11 -12 12 -14 14 -16 21 17 -19 -20 -21 -22 -23 -24 -25 28 26 -28 -29 29 -31
leaf_value=-5.0788161632797176e-05 -0.00012884667166697806 0 -6.6345451768231713e-05 -0.00063989012644640722 -0.00037975688048464984 0.00026029645972858173 8.5870546009319073e-05 3.528120373840315e-06 0.00013894610126765356 -0.00024439525264820423 0.00021785063100853715 -1.6006885404619944e-05 -0.00062764947700967588 -0.0011432811505884535 -0.00019191560833028371 0.00084581985420192961 0.0011072479312330846 0.0017512639163416977 0.00051768200476270964 0.0008915830208971752 -0.0014667205211316031 0.00041503358101764376 -5.3748544276174553e-05 0.00074851048315699984 -0.00069306418791158524 0.00072156960612790462 -0.00012829766400342438 0 0 -0.0003731842927459047
leaf_weight=68105 1727 60 7396 122 750 155 1291 125859 11774 7411 1636 398 839 226 142 270 1856 188 369 1653 173 887 501 50 54 56 50 512 51 50
leaf_count=68105 1727 60 7396 122 750 155 1291 125859 11774 7411 1636 398 839 226 142 270 1856 188 369 1653 173 887 501 50 54 56 50 512 51 50
internal_value=-8.66402e-07 0.000563561 -1.98249e-05 -0.000159677 -7.76606e-06 0.000889007 -0.000121272 -4.88728e-06 1.51345e-05 -0.000155664 -4.44431e-05 -0.000570493 -0.000433298 -0.000374625 -0.00078448 0.000714944 0.00112717 0.00116803 0.00018369 0.000839139 -0.00113528 0.00051822 -0.00025161 0.000340228 -0.00010163 -8.05704e-05 0.000292671 -9.95927e-05 -0.000400646 -0.0002141
internal_weight=234611 7619 226992 17999 208993 5119 16467 207374 137633 14807 69741 1532 1237 1619 368 2965 2154 2044 1660 1808 295 1157 1251 110 2500 2345 106 2239 155 101
internal_count=234611 7619 226992 17999 208993 5119 16467 207374 137633 14807 69741 1532 1237 1619 368 2965 2154 2044 1660 1808 295 1157 1251 110 2500 2345 106 2239 155 101
is_linear=0
shrinkage=0.03


Tree=27
num_leaves=29
num_cat=0
split_feature=2 8 7 0 0 2 10 10 6 9 3 6 2 0 9 0 3 9 10 2 6 0 8 9 9 9 9 7
split_gain=2.62313 0.979413 0.399761 0.294934 0.229777 0.180569 0.175354 0.171788 0.206318 0.160745 0.12617 0.12083 0.119119 0.117816 0.107397 0.106129 0.104622 0.0665567 0.0637145 0.0770819 0.0499118 0.0437309 0.0332739 0.0223709 0.0203453 0.0119346 0.00864991 0.00387802
threshold=0.99999994039535534 0.58559176325798046 0.84492805600166332 0.26238834857940679 0.54838669300079357 0.84276732802391063 0.92366755008697521 0.20892116427421573 0.44162966310977941 0.79349467158317577 0.82192409038543712 0.87678253650665294 0.1517090126872063 0.28821583092212683 0.94443294405937206 0.78652361035346996 0.48182259500026708 0.97801363468170177 0.99999585747718822 0.92029023170471203 1.0000000180025095e-35 0.34289197623729711 0.99991413950920116 0.66219064593315136 0.33999809622764593 0.49753844738006597 0.55182787775993358 0.050556488335132606
decision_type=2 2 2 2 2 2 2 2 2 2 2 2 2 2 2 2 2 2 2 2 2 2 2 2 2 2 2 2
left_child=2 6 4 5 7 9 13 11 -9 -4 15 -1 21 20 -7 -8 -14 -12 22 -20 -2 -5 -6 25 -15 27 -27 -3
right_child=1 23 3 12 18 14 10 8 -10 -11 17 -13 16 24 -16 -17 -18 -19 19 -21 -22 -23 -24 -25 -26 26 -28 -29
leaf_value=-4.9264518542663948e-05 0.0008379782196695347 0.00035323759983698358 -0.00011219201817650896 -0.00062070915425431982 -5.9570199211511911e-05 0.00026056912828846404 0.00094094856067381515 3.4222755401757187e-06 0.00013477775377689516 -0.00040547018841703805 0.00070206628060988634 0.00021131549196989744 -0.00028215016621958589 -0.00037138962355462923 -0.00053484723144360936 0.00022657974831012342 -0.00099357657516691749 0.00019133589426732528 -0.00064927059994282976 0.00021221934008178541 0.00025615408278125969 -0.0014227443322447732 -0.00057473931770366123 0.00036155046634851111 0.00015079430988546987 -0.00010613944197730402 -0.00036749966236561057 0
leaf_weight=68105 485 56 12858 122 624 1492 3410 125859 11774 1949 657 1636 1001 76 168 210 236 382 751 101 206 173 143 94 470 1375 138 60
leaf_count=68105 485 56 12858 122 624 1492 3410 125859 11774 1949 657 1636 1001 76 168 210 236 382 751 101 206 173 143 94 470 1375 138 60
internal_value=-8.41217e-07 0.000546678 -1.92322e-05 -0.000154902 -7.53353e-06 -0.000117628 0.0007306 -4.73936e-06 1.46811e-05 -0.000151 0.000815559 -4.31085e-05 -0.00055356 0.00040815 0.000178235 0.000900343 -0.000420373 0.000517214 -0.000363557 -0.000543612 0.000668929 -0.00110154 -0.000159592 -8.09564e-05 7.25612e-05 -0.000108353 -0.000131983 0.000173869
internal_weight=234611 7619 226992 17999 208993 16467 5896 207374 137633 14807 4659 69741 1532 1237 1660 3620 1237 1039 1619 852 691 295 767 1723 546 1629 1513 116
internal_count=234611 7619 226992 17999 208993 16467 5896 207374 137633 14807 4659 69741 1532 1237 1660 3620 1237 1039 1619 852 691 295 767 1723 546 1629 1513 116
is_linear=0
shrinkage=0.03


Tree=28
num_leaves=28
num_cat=0
split_feature=2 4 7 9 2 10 6 4 9 6 6 8 1 6 2 2 10 7 2 4 10 9 1 1 7 6 7
split_gain=2.46868 1.65773 0.376269 0.159815 0.166922 0.142753 0.192873 0.344511 0.140494 0.114783 0.102917 0.140729 0.103853 0.0925753 0.0847662 0.081872 0.0845056 0.0803675 0.0729718 0.0514518 0.0423385 0.0220518 0.0110847 0.0149881 0.0101934 0.00937099 0.00310941
threshold=0.99999994039535534 0.71052595973014843 0.84492805600166332 0.71007663011550914 0.28321856260299688 0.20892116427421573 0.42564094066619879 0.90135464072227489 0.99999991059303295 0.87678253650665294 0.21687337011098864 0.0067730650771409282 0.93468880653381359 1.0000000180025095e-35 0.95478910207748424 0.74152487516403209 0.96822476387023937 0.046517398208379752 1.0000000180025095e-35 0.63925191760063182 0.45664849877357488 0.31285209953784948 0.098892658948898329 0.99999585747718822 0.81215476989746105 0.99990987777709972 0.41971664130687719
decision_type=2 2 2 2 2 2 2 2 2 2 2 2 2 2 2 2 2 2 2 2 2 2 2 2 2 2 2
left_child=2 21 5 4 20 9 13 -8 10 17 11 -3 -12 -7 -6 19 -17 -1 -11 -5 -4 -2 25 -24 26 -23 -10
right_child=1 8 3 15 14 6 7 -9 24 18 12 -13 -14 -15 -16 16 -18 -19 -20 -21 -22 22 23 -25 -26 -27 -28
leaf_value=-7.6316010937577293e-05 -0.00073313527337615623 0.00088336862614084982 -0.00012692230130385317 -0.00027268646084299057 -1.9849380406690922e-05 -3.0801869690954776e-05 7.7159915806210107e-05 0.00068330634256226583 0.00019205600287523775 0.00028754550309621481 0.0016985535351860888 0.00010149367179095996 0.00016786156932555013 2.1185212618204965e-05 0.00067982561085013166 0.00089168949216104692 -0.00016995105884793011 -1.0393593889794619e-05 -0.00028325771876049836 -0.00052350720624584428 -0.00029314889048185288 -0.00016577739071518228 0.00016531317939049171 -0.00010783597248621119 0.00041788204731451283 0 -3.608196049962881e-05
leaf_weight=39193 50 4251 2585 1649 7456 54302 12523 907 94 1408 245 227 53 71299 159 70 1439 29131 230 1457 3184 1354 317 417 162 362 87
leaf_count=39193 50 4251 2585 1649 7456 54302 12523 907 94 1408 245 227 53 71299 159 70 1439 29131 230 1457 3184 1354 317 417 162 362 87
internal_value=-8.15571e-07 0.00053034 -1.86573e-05 -0.000150281 -9.7456e-05 -7.3071e-06 1.02638e-05 0.000118324 0.000839647 -4.22675e-05 0.00088201 0.000844407 0.00143653 -1.26686e-06 -4.83759e-06 -0.000302823 -0.00011866 -4.82529e-05 0.000205552 -0.000391323 -0.000219189 -0.000101805 -8.76672e-05 6.05153e-06 0.000240946 -0.000129501 6.58737e-05
internal_weight=234611 7619 226992 17999 13384 208993 139031 13430 5119 69962 4776 4478 298 125601 7615 4615 1509 68324 1638 3106 5769 2500 2450 734 343 1716 181
internal_count=234611 7619 226992 17999 13384 208993 139031 13430 5119 69962 4776 4478 298 125601 7615 4615 1509 68324 1638 3106 5769 2500 2450 734 343 1716 181
is_linear=0
shrinkage=0.03


Tree=29
num_leaves=29
num_cat=0
split_feature=4 3 10 7 9 6 7 3 6 8 6 9 4 6 10 10 6 10 3 3 8 7 9 8 1 6 4 9
split_gain=0.43139 0.598212 0.54188 0.233152 0.170614 0.168232 0.186699 0.159617 0.132442 0.116546 0.101794 0.0953554 0.0813528 0.0772539 0.18502 0.0657253 0.065657 0.103255 0.0593296 0.0593177 0.0561737 0.0512877 0.0469141 0.0464537 0.0451167 0.0368624 0.0226175 0.00914354
threshold=0.94857415556907665 0.0070201267953962096 0.98910871148109447 0.99999997019767772 0.97801363468170177 0.2780223041772843 0.99999997019767772 0.004224226577207447 0.51100602746009838 0.94962456822395336 0.052303088828921325 0.696458399295807 0.012377231847494842 0.45742370188236242 0.56026571989059459 0.91124916076660167 0.0091779339127242583 0.37979821860790258 0.947350174188614 0.50960665941238414 0.55971026420593273 0.75139215588569652 0.54356274008750927 0.08373852446675302 0.90188446640968334 0.46091499924659735 0.065490532666444792 0.99999991059303295
decision_type=2 2 2 2 2 2 2 2 2 2 2 2 2 2 2 2 2 2 2 2 2 2 2 2 2 2 2 2
left_child=3 2 8 7 13 6 -4 12 10 -10 -2 -7 15 20 -15 -1 26 -18 22 27 -3 -21 23 -5 -24 -14 -9 -6
right_child=1 4 5 18 19 11 -8 16 9 -11 -12 -13 25 14 -16 -17 17 -19 -20 21 -22 -23 24 -25 -26 -27 -28 -29
leaf_value=-6.5385152520552989e-05 0.00022047233719272932 5.8354012380733751e-05 0.00033769678126174894 -9.3302246710817258e-05 0.00074513130989453333 0.00045675644861743585 0.00083185504368298469 -6.7102551461363684e-05 0.00035814264679486565 0.0016150558240447153 -8.662750147541486e-05 0.0015900601725071443 -8.7649928559755837e-06 6.4882674557440367e-06 0.0010238240684223611 1.3841961045859315e-06 -3.3445099949745843e-07 9.0085839221003538e-05 0.00065137626395555365 -0.00012322312751531886 -0.00016855362852779928 -0.00040032045268842848 -0.00024938915383220937 -0.00040155247688027833 -0.0010284518833244651 8.247919035117015e-05 1.7585259829944489e-06 0.00012468578705977185
leaf_weight=59040 1752 22249 1646 4960 63 104 1223 5793 600 77 2164 242 42770 468 250 17002 21703 23714 77 2387 1021 831 3192 492 71 4394 16273 53
leaf_count=59040 1752 22249 1646 4960 63 104 1223 5793 600 77 2164 242 42770 468 250 17002 21703 23714 77 2387 1021 831 3192 492 71 4394 16273 53
internal_value=-7.90774e-07 9.61336e-05 0.000327748 -1.78749e-05 2.98328e-05 0.000626676 0.000549414 -1.08939e-05 0.000117842 0.000505748 5.00036e-05 0.00125831 -3.12182e-05 5.78749e-05 0.000364985 -5.0417e-05 2.61685e-05 4.68116e-05 -0.000168944 -0.000171025 4.82686e-05 -0.000195722 -0.000176543 -0.000121677 -0.000267291 -2.0053e-07 -1.61839e-05 0.000487843
internal_weight=234611 35130 7808 199481 27322 3215 2869 190689 4593 677 3916 346 123206 23988 718 76042 67483 45417 8792 3334 23270 3218 8715 5452 3263 47164 22066 116
internal_count=234611 35130 7808 199481 27322 3215 2869 190689 4593 677 3916 346 123206 23988 718 76042 67483 45417 8792 3334 23270 3218 8715 5452 3263 47164 22066 116
is_linear=0
shrinkage=0.03


Tree=30
num_leaves=29
num_cat=0
split_feature=2 4 7 3 10 2 10 6 4 7 2 4 10 3 2 2 3 1 4 3 7 10 3 3 3 6 6 4
split_gain=2.13456 1.38881 0.40972 0.180783 0.160687 0.143542 0.133998 0.358925 0.524151 0.118325 0.0987315 0.135716 0.120901 0.0769486 0.0979958 0.0647861 0.063461 0.0627565 0.0461174 0.04031 0.0349095 0.0390037 0.0184384 0.0176398 0.0226773 0.00894505 0.0209736 0.00982585
threshold=0.99999994039535534 0.90135464072227489 0.84492805600166332 0.032212169840931899 0.9918673336505891 0.78903013467788707 0.52807775139808666 0.40814228355884558 0.75981545448303234 0.43173326551914221 1.0000000180025095e-35 1.0000000180025095e-35 1.0000000180025095e-35 0.80264618992805492 0.21558368951082232 0.29775418341159826 0.019268712028861049 0.2761844694614411 0.74124008417129528 0.0040007417555898437 0.44699783623218542 0.51544785499572765 0.061934387311339385 0.067902352660894408 0.39086945354938513 0.23045746982097629 0.43526716530323034 0.56522482633590709
decision_type=2 2 2 2 2 2 2 2 2 2 2 2 2 2 2 2 2 2 2 2 2 2 2 2 2 2 2 2
left_child=2 23 6 16 5 15 10 9 -9 -8 12 -12 -1 14 -6 -4 19 -15 -7 -3 21 -5 -22 25 -25 27 -27 -2
right_child=1 3 4 20 13 18 7 8 -10 -11 11 -13 -14 17 -16 -17 -18 -19 -20 -21 22 -23 -24 24 -26 26 -28 -29
leaf_value=-2.4322328336358324e-05 -0.00017524335137603797 0.00098748956559444002 -0.00018132731085279119 0.0001165135146945236 -0.00037952111070833081 -6.1902375267248624e-06 1.9905317138976257e-05 0.00012487345798949654 0.0009014939688079519 -5.9678525415459133e-05 -8.5052459454465831e-05 -6.9156097818735266e-06 0.00011493161347843261 -0.00050619505304434363 -0.0001423203354285357 -4.6323284586821658e-06 0.0020882713519685598 0.00046236235079682504 0.00045330535680586191 0.00018183757279667832 0 0.0008211796686589765 0.00055832094111326182 0.00064237274625095718 -6.2764146057920232e-05 0.0004230948173729232 -7.5771964174682995e-05 0.00021858204235085995
leaf_weight=16767 1242 2008 4197 87 2170 275 73235 7699 873 21822 39995 40210 8418 1225 5942 3429 51 60 593 67 64 991 1830 67 89 81 991 53
leaf_count=16767 1242 2008 4197 87 2170 275 73235 7699 873 21822 39995 40210 8418 1225 5942 3429 51 60 593 67 64 991 1830 67 89 81 991 53
internal_value=-1.01342e-06 0.000492821 -1.76128e-05 0.000777775 -0.000155408 -6.03691e-05 -5.80379e-06 1.84018e-05 0.000204327 1.60385e-06 -2.96334e-05 -4.59168e-05 2.2104e-05 -0.000240993 -0.000206146 -0.000102272 0.000991435 -0.000458604 0.000304288 0.000962931 0.000623897 0.000767108 0.000540766 -8.17791e-05 0.000221082 -0.000103015 -3.52435e-05 -0.000156793
internal_weight=234531 7621 226910 5098 17891 8494 209019 103629 8572 95057 105390 80205 25185 9397 8112 7626 2126 1285 868 2075 2972 1078 1894 2523 156 2367 1072 1295
internal_count=234531 7621 226910 5098 17891 8494 209019 103629 8572 95057 105390 80205 25185 9397 8112 7626 2126 1285 868 2075 2972 1078 1894 2523 156 2367 1072 1295
is_linear=0
shrinkage=0.03


Tree=31
num_leaves=31
num_cat=0
split_feature=4 5 10 0 7 0 4 3 8 9 3 0 9 10 4 5 10 10 7 9 0 8 9 10 9 0 5 0 10 10
split_gain=0.392335 0.264722 0.278012 0.274285 0.21525 0.168345 0.161985 0.59454 0.139715 0.127481 0.0995565 0.0938008 0.0906716 0.0856662 0.0794135 0.0693794 0.0670335 0.0543524 0.0581631 0.0477766 0.0471375 0.0407312 0.0313317 0.030771 0.0278362 0.0614729 0.0275741 0.0217387 0.0134194 0.0206572
threshold=0.051815943792462356 0.83726936578750621 0.56026571989059459 0.11862110719084741 0.98273491859436046 0.42710009217262274 0.94106402993202221 0.0040007417555898437 0.92443716526031505 0.99999991059303295 0.0029236115515232091 0.54838669300079357 0.52437889575958263 0.20163184404373172 0.50920391082763683 0.66114336252212536 0.98476895689964306 0.78976881504058849 0.021907423622906212 0.32447692751884466 0.39845004677772528 0.70902708172798168 0.94443294405937206 1.0000000180025095e-35 0.50543978810310375 0.0091625349596142786 0.73852416872978222 0.079217985272407546 0.9478001892566682 0.10411672294139863
decision_type=2 2 2 2 2 2 2 2 2 2 2 2 2 2 2 2 2 2 2 2 2 2 2 2 2 2 2 2 2 2
left_child=4 3 8 9 10 24 11 -8 19 13 17 -5 21 -2 -10 22 -14 18 -1 -3 -19 -4 -12 -17 26 -26 -6 -11 29 -7
right_child=1 2 12 6 5 28 7 -9 14 27 15 -13 16 -15 -16 23 -18 20 -20 -21 -22 -23 -24 -25 25 -27 -28 -29 -30 -31
leaf_value=-9.4910814381168551e-05 -6.1953776017549802e-05 -0.00039492013946773683 0.00055979081229129922 5.417766098124205e-05 -0.00011485352115628605 -0.001245073385419558 0.00052553625613877117 6.426855438933655e-05 0.00012087717146334487 -0.00020692210738816808 -6.9832090941857108e-06 -0.00036375590244705188 0.00080631881673171144 1.8113644725559863e-05 0.0008770691299967722 6.3494434944166633e-05 0.0015933208383189757 6.0758923185490781e-06 -3.4138477100130145e-05 7.3345097415747124e-05 -0.00014187736360496975 -0.00054885920876090576 0.00061460871437358101 0.00022430846914407845 -0.00017163641182679841 -0.00053486425592938459 -0.00082812657826279376 -0.00055137994687902577 -0.0012970306691356093 -0.00037674242481206238
leaf_weight=28328 16336 233 71 36455 3124 50 3238 11355 226 1914 26757 488 429 45548 311 3371 143 19577 28788 1235 2148 50 73 1628 1637 586 51 195 108 78
leaf_count=28328 16336 233 71 36455 3124 50 3238 11355 226 1914 26757 488 429 45548 311 3371 143 19577 28788 1235 2148 50 73 1628 1637 586 51 195 108 78
internal_value=-9.81465e-07 3.74901e-05 0.000331351 3.06012e-05 -4.0115e-05 -0.000221084 8.21175e-05 0.000166826 0.000150476 -1.084e-05 -3.08749e-05 4.85748e-05 0.000850236 -2.97396e-06 0.000564488 1.38339e-05 0.00100856 -4.89623e-05 -6.43326e-05 0 -8.41508e-06 7.68231e-05 -5.17786e-06 0.00011647 -0.000186103 -0.000268755 -0.000127281 -0.000240218 -0.00100809 -0.000740061
internal_weight=234531 118227 2698 115529 116304 5634 51536 14593 2005 63993 110670 36943 693 61884 537 31829 572 78841 57116 1468 21725 121 26830 4999 5398 2223 3175 2109 236 128
internal_count=234531 118227 2698 115529 116304 5634 51536 14593 2005 63993 110670 36943 693 61884 537 31829 572 78841 57116 1468 21725 121 26830 4999 5398 2223 3175 2109 236 128
is_linear=0
shrinkage=0.03


Tree=32
num_leaves=31
num_cat=0
split_feature=4 5 0 10 7 0 4 3 8 3 0 7 0 8 5 4 9 10 7 0 9 8 0 9 9 0 5 10 10 10
split_gain=0.369218 0.249924 0.259739 0.237759 0.202738 0.158653 0.150582 0.63889 0.129506 0.0936911 0.0889085 0.0767322 0.0765608 0.0774373 0.0662041 0.0660411 0.0531072 0.0511415 0.0547132 0.0443535 0.042167 0.0366205 0.0331481 0.0307476 0.0261596 0.0577885 0.0259235 0.0160761 0.0123782 0.0192959
threshold=0.051815943792462356 0.89479398727417003 0.0075879928190261134 0.56026571989059459 0.98273491859436046 0.42710009217262274 0.94857415556907665 1.0000000180025095e-35 0.92443716526031505 0.0029236115515232091 0.54838669300079357 1.0000000180025095e-35 0.22623416781425479 0.7131851613521577 0.96196109056472789 0.50920391082763683 0.97801363468170177 0.78976881504058849 0.021907423622906212 0.39845004677772528 0.32447692751884466 0.99991413950920116 0.50811183452606212 0.664696365594864 0.50543978810310375 0.0091625349596142786 0.73852416872978222 0.51544785499572765 0.9478001892566682 0.10411672294139863
decision_type=2 2 2 2 2 2 2 2 2 2 2 2 2 2 2 2 2 2 2 2 2 2 2 2 2 2 2 2 2 2
left_child=4 2 11 8 9 24 10 -8 20 17 -4 27 23 -14 22 -10 -13 18 -1 -19 -3 -16 -11 -5 26 -26 -6 -2 29 -7
right_child=1 3 6 12 5 28 7 -9 15 14 -12 16 13 -15 21 -17 -18 19 -20 -21 -22 -23 -24 -25 25 -27 -28 -29 -30 -31
leaf_value=-9.2063499871936273e-05 -0.00013828104149621114 -0.00038782122739518504 4.0734742954704241e-05 0.00070174540047578441 -0.00011140802541818393 -0.0012077957511500283 0.00046596769503800189 4.8302877526081076e-05 0.0001382572929723552 3.324382153778468e-06 -0.00036216245285735222 -6.2975611321084855e-07 0.00070219623864136783 -0.00060314410845448347 0.00020752189555423437 0.00085570617909499277 -0.00016913091989102064 5.8936153028301791e-06 -3.3114326671398809e-05 -0.00013762124106627918 8.0164036342702841e-05 -7.493831595419047e-05 -0.00033056592618902955 0.0013299351583931714 -0.00016648763189642166 -0.00051882105889107218 -0.00080333143245080684 -4.2475255044120123e-05 -0.0012581557243012209 -0.00036545461521860482
leaf_weight=28328 6009 205 53904 135 3124 50 4132 16406 205 28851 496 30794 174 51 2218 302 1783 19577 28788 2148 1110 490 270 247 1637 586 51 2274 108 78
leaf_count=28328 6009 205 53904 135 3124 50 4132 16406 205 28851 496 30794 174 51 2218 302 1783 19577 28788 2148 1110 490 270 247 1637 586 51 2274 108 78
internal_value=-9.52807e-07 3.63678e-05 3.00219e-05 0.000337647 -3.89163e-05 -0.00021455 6.3212e-05 0.00013248 0.000164268 -2.99478e-05 3.70055e-05 -3.07759e-05 0.000853013 0.000392855 1.34218e-05 0.000571614 -9.94472e-06 -4.74946e-05 -6.24042e-05 -8.1585e-06 4.90302e-06 0.000155303 1.24522e-07 0.00111602 -0.000180571 -0.000260734 -0.000123492 -0.000112342 -0.00097865 -0.000718599
internal_weight=234531 118227 115798 2429 116304 5634 74938 20538 1822 110670 54400 40860 607 225 31829 507 32577 78841 57116 21725 1315 2708 29121 382 5398 2223 3175 8283 236 128
internal_count=234531 118227 115798 2429 116304 5634 74938 20538 1822 110670 54400 40860 607 225 31829 507 32577 78841 57116 21725 1315 2708 29121 382 5398 2223 3175 8283 236 128
is_linear=0
shrinkage=0.03


Tree=33
num_leaves=31
num_cat=0
split_feature=4 5 10 1 0 7 0 4 3 8 10 3 4 0 1 10 5 8 10 7 10 0 7 3 10 0 0 10 10 10
split_gain=0.347465 0.237498 0.39236 0.282765 0.233651 0.190957 0.149525 0.122596 0.502895 0.102217 0.0919287 0.0881548 0.0757239 0.0746556 0.068147 0.0717345 0.0625021 0.0519467 0.0481203 0.0514676 0.0445833 0.0417339 0.0350336 0.0294652 0.0288258 0.0256217 0.0242079 0.0139755 0.0114059 0.018019
threshold=0.051815943792462356 0.65306735038757335 0.56026571989059459 0.99403193593025219 0.11074137315154077 0.98273491859436046 0.42710009217262274 0.94106402993202221 1.0000000180025095e-35 0.92443716526031505 0.98476895689964306 0.0029236115515232091 0.51361757516860973 0.54838669300079357 0.99403193593025219 0.20163184404373172 0.66114336252212536 0.38236574828624731 0.78976881504058849 0.021907423622906212 0.1789655610918999 0.39845004677772528 0.39097492396831518 0.70566025376319896 1.0000000180025095e-35 0.17533218860626223 0.14454071223735812 0.93953725695610057 0.9478001892566682 0.10411672294139863
decision_type=2 2 2 2 2 2 2 2 2 2 2 2 2 2 2 2 2 2 2 2 2 2 2 2 2 2 2 2 2 2
left_child=5 4 9 10 14 11 25 13 -9 20 -4 18 -11 -6 15 -2 23 -5 19 -1 -3 -20 -16 -13 -18 26 -7 -27 29 -8
right_child=1 2 3 17 7 6 28 8 -10 12 -12 16 -14 -15 22 -17 24 -19 21 -21 -22 -23 -24 -25 -26 27 -28 -29 -30 -31
