tree
version=v4
num_class=1
num_tree_per_iteration=1
label_index=0
max_feature_idx=10
objective=regression
feature_names=Column_0 Column_1 Column_2 Column_3 Column_4 Column_5 Column_6 Column_7 Column_8 Column_9 Column_10
feature_infos=[0:1] [0:1] [0:1] [0:1] [0:1] [0:1] [0:1] [0:1] [0:1] [0:1] [0:1]
tree_sizes=2917 3097 2865 2590 2593 2792 2496 2792 2810 2956 2821 2712 2740 3001 2672 2759 3000 2597 2996 3022 2816 2690 3118 2809 2921 2416 2427 2562 2869 3115 2738 2921 2921 3002 2899 2861 3087 2548 2768 2773 2491 2803 2478 2629 2408 2670 2993 2703 2729 2984 3120 2806 2895 3162 2787 2690 3143 2795 2881 2583 2801 2529 2714 2951 3140 2695 2958 2862 2844 2525 2705 2769 2589 2649 2784 2977 2690 2712 2697 2629 2778 2887 2872 2135 2917 2784 2900 2594 2479 2976 3084 2708 2917 2520 2877 2731 3108 2926 2329 3140 2873 2787 2497 2626 2326 2433 2667 2645 2621 2210 2997 2345 3027 3068 2934 2693 3041 2431 2738 3122 2522 2469 2598 2502 2548 2407 2218 3170 2841 2618 2636 2309 2632 2912 2594 2816 2826 2360 2554 2721 2791 3094 2634 3113 2725 2561 2435 2643 2443 2451 2311 2699 2424 2396 2330 2696 2598 3066 2751 3095 2561 2691 2286 2352 2349 2242 2363 2240 3015 2400 3140 2339 3154 3127 3028 2894 2455 3107 3013 2558 2191 2922 3153 2774 2994

Tree=0
num_leaves=30
num_cat=0
split_feature=4 3 0 7 0 7 6 0 3 7 9 9 1 0 3 8 1 4 3 0 8 0 0 3 3 1 3 9 9
split_gain=0.904454 0.99463 0.929709 0.487727 0.445858 0.360391 0.269357 0.23822 0.210215 0.173388 0.144667 0.12273 0.10642 0.123585 0.106452 0.100627 0.0972753 0.083734 0.0779653 0.0619408 0.0524263 0.0427494 0.034902 0.0342995 0.0233093 0.0205803 0.0174703 0.00613776 0.00033204
threshold=0.99999985098838817 1.0000000180025095e-35 0.19801162183284762 0.99999997019767772 0.5276104509830476 0.99999997019767772 0.018377595581114296 0.18404888361692431 0.0035708658397197728 0.98231342434883129 0.70966985821723949 0.6899707317352296 0.34271259605884558 0.48028899729251867 0.48334814608097082 0.01400624541565776 0.06554827839136125 0.41223201155662542 0.94475948810577404 0.0072391149587929257 0.086002495139837279 0.11118181049823762 0.99986433982849132 0.10295706242322923 0.014130615163594486 0.51139053702354442 0.16022266447544101 0.33783186972141271 0.46738250553607946
decision_type=2 2 2 2 2 2 2 2 2 2 2 2 2 2 2 2 2 2 2 2 2 2 2 2 2 2 2 2 2
left_child=4 2 3 11 5 8 16 18 20 22 -8 -2 14 -14 -9 -5 -4 23 19 -3 -1 -10 26 -7 -19 -20 -6 -11 -24
right_child=1 7 6 15 9 17 10 12 21 27 -12 -13 13 -15 -16 -17 -18 24 25 -21 -22 -23 28 -25 -26 -27 -28 -29 -30
leaf_value=0.0075150286828659469 0.0074801425511760201 0.0075359374131395906 0.0093954802024480075 0.0087489580527254016 0.0070045643593909003 0.0071838064683563815 0.0076819634330435819 0.0081677317983404364 0.0075552784777752615 0.0055843013528614179 0.0089484282443419109 0.0081587184766555854 0.0077278170336445417 0.0069218735209449229 0.0077669414270685518 0.0074669755026655201 0.0086298100600515869 0.0076171117646163626 0.007462603875129703 0.0077159583940091571 0.0074638565837739567 0.0076172127309466252 0.0074699808364260831 0.0075360848000364756 0.0073414061117379106 0.0072079897077969874 0.0075360848000364756 0.0062995168501681457 0.0072794504401634029
leaf_weight=48068 1458 4134 584 499 1045 3807 219 1090 27240 50 135 286 1347 195 1394 57 233 647 3345 2906 29061 16042 52 283 473 323 70 71 981
leaf_count=48068 1458 4134 584 499 1045 3807 219 1090 27240 50 135 286 1347 195 1394 57 233 647 3345 2906 29061 16042 52 283 473 323 70 71 981
internal_value=0.00753546 0.00773328 0.00819027 0.00783823 0.00750727 0.00751483 0.00887909 0.00762541 0.00752542 0.00709043 0.00817367 0.00758973 0.00782218 0.00762392 0.00794404 0.00861215 0.00918095 0.00727052 0.00755115 0.00760982 0.00749571 0.0075783 0.00715457 0.0072075 0.00750335 0.00743936 0.00703541 0.00597783 0.00728613
internal_weight=146095 18205 3471 2300 127890 125621 1171 14734 120411 2269 354 1744 4026 1542 2484 556 817 5210 10708 7040 77129 43282 2148 4090 1120 3668 1115 121 1033
internal_count=146095 18205 3471 2300 127890 125621 1171 14734 120411 2269 354 1744 4026 1542 2484 556 817 5210 10708 7040 77129 43282 2148 4090 1120 3668 1115 121 1033
is_linear=0
shrinkage=1


Tree=1
num_leaves=31
num_cat=0
split_feature=4 3 10 7 3 3 7 9 7 4 8 8 9 6 10 5 3 5 6 10 7 10 8 9 9 3 3 9 9 10
split_gain=0.851163 0.936114 1.30875 0.408811 0.224954 0.161101 0.137835 0.125306 0.117034 0.0955027 0.0842945 0.0775377 0.0627934 0.0610604 0.0540207 0.0475148 0.0420849 0.0403843 0.112454 0.0567103 0.0367432 0.0687463 0.0362443 0.0361329 0.0320265 0.0279917 0.0290713 0.0275259 0.0151284 0.00842596
threshold=0.99999985098838817 1.0000000180025095e-35 0.98858028650283825 0.99999997019767772 0.0035708658397197728 0.83620119094848644 0.99999997019767772 0.71277126669883739 0.90519434213638317 0.42327922582626348 0.032230999320745475 0.999994456768036 0.35643516480922705 0.20956858992576602 0.77231821417808544 0.52344182133674633 0.08900840207934381 0.91934701800346386 0.44121855497360235 0.30272807180881506 0.42383010685443884 0.98858028650283825 0.11495646089315416 0.71575856208801281 0.91607540845870983 0.014130615163594486 0.29183757305145269 0.79223686456680309 0.40672037005424505 0.1485891938209534
decision_type=2 2 2 2 2 2 2 2 2 2 2 2 2 2 2 2 2 2 2 2 2 2 2 2 2 2 2 2 2 2
left_child=3 2 7 4 11 10 23 8 -2 15 16 14 -13 -9 -1 27 -3 19 -19 -6 21 -7 -12 -4 -22 29 -27 -5 -8 -11
right_child=1 5 6 9 17 20 28 13 -10 25 22 12 -14 -15 -16 -17 -18 18 -20 -21 24 -23 -24 -25 -26 26 -28 -29 -30 -31
leaf_value=-5.7035415471231365e-05 -7.0678925398348069e-05 7.1843261552063668e-05 0.00080630852399769923 -0.0003170443693651036 -1.8784701634055606e-05 -0.00018178225239763791 0.0019957990477348676 0.0015887738251978997 0.00055476164365424576 -0.00021190630648223159 -0.00035023499200482762 6.1535692602209931e-05 -0.00029909860705536044 0.00024157224434477408 -3.3991874151662506e-07 -0.0012077299748297886 0.0002452335825748778 0.0013607671097266001 0.00012429489145991083 5.5894115952452938e-05 -1.644500409327806e-05 0.00013720672153560228 3.3643467179388975e-05 0.001230532198805642 -0.00022832849592125458 -0.00035891276388811674 0.00015467083796962228 -0.00066538790080812767 0.0015176724443309844 0.0001322950003855183
leaf_weight=55738 1461 1676 430 3923 13559 899 126 73 329 66 256 551 1850 62 20905 60 5818 69 2052 27839 1313 1860 1591 431 1321 343 130 234 559 571
leaf_count=55738 1461 1676 430 3923 13559 899 126 73 329 66 256 551 1850 62 20905 60 5818 69 2052 27839 1313 1860 1591 431 1321 343 130 234 559 571
internal_value=-6.11153e-07 0.000191293 0.000634646 -2.79521e-05 -1.67438e-05 8.66415e-05 0.00128483 0.000110874 4.2625e-05 -0.000285263 0.000162084 -4.69181e-05 -0.000215089 0.000992902 -4.16104e-05 -0.000350513 0.000206857 3.79933e-05 0.000165996 3.13623e-05 -4.34742e-05 3.21764e-05 -1.79552e-05 0.00102227 -0.000123852 -3.46578e-05 -0.000211415 -0.00033739 0.00161028 9.18956e-05
internal_weight=146095 18205 3471 127890 122563 14734 1546 1925 1790 5327 9341 79044 2401 135 76643 4217 7494 43519 2121 41398 5393 2759 1847 861 2634 1110 473 4157 685 637
internal_count=146095 18205 3471 127890 122563 14734 1546 1925 1790 5327 9341 79044 2401 135 76643 4217 7494 43519 2121 41398 5393 2759 1847 861 2634 1110 473 4157 685 637
is_linear=0
shrinkage=0.03


Tree=2
num_leaves=29
num_cat=0
split_feature=4 3 0 7 0 7 1 0 3 7 9 9 1 0 8 5 3 4 9 8 8 5 7 3 7 7 3 9
split_gain=0.801065 0.881226 0.847804 0.438597 0.410961 0.317341 0.236062 0.223004 0.185972 0.161995 0.131854 0.104772 0.10081 0.131374 0.0927445 0.0890406 0.07753 0.073824 0.0682316 0.108387 0.0478726 0.0405126 0.0344563 0.0325906 0.0321185 0.0251283 0.0204723 0.00540957
threshold=0.99999985098838817 1.0000000180025095e-35 0.19947104156017306 0.99999997019767772 0.5276104509830476 0.99999997019767772 0.06554827839136125 0.19396513700485232 0.0035708658397197728 0.98231342434883129 0.77991861104965221 0.6899707317352296 0.64758694171905529 0.5276104509830476 0.01400624541565776 0.832239329814911 0.92142021656036388 0.41223201155662542 0.75749933719635021 0.028681801632046703 0.086002495139837279 0.91934701800346386 0.12285878881812097 0.10295706242322923 0.15245634317398074 0.83002236485481273 0.014130615163594486 0.33783186972141271
decision_type=2 2 2 2 2 2 2 2 2 2 2 2 2 2 2 2 2 2 2 2 2 2 2 2 2 2 2 2
left_child=4 2 3 11 5 8 22 18 20 15 -8 -2 16 -14 -5 24 -9 23 19 -3 -1 -10 -4 -7 -6 -20 -19 -11
right_child=1 7 6 14 9 17 10 12 21 27 -12 -13 13 -15 -16 -17 -18 26 25 -21 -22 -23 -24 -25 -26 -27 -28 -29
leaf_value=-1.9402109263508582e-05 -5.573817541974967e-05 0.00017379931156487658 0.00089315184765463855 0.0011453204008333839 -0.00028528265210848102 -0.0003313785642686495 0.00059480058616653126 0.00046808036027122757 3.315338693962931e-05 -0.0018822544726158331 0.0019560114603737674 0.00056930649235691229 0.00011186358719847398 -0.0011875945296530802 -8.4196650906304474e-05 -0.0015818848112054073 0.00012856502384061183 7.6098074687989817e-05 -2.4278507091257856e-05 -0.00011814774710408718 -6.8304703952263955e-05 0.00016831098360770653 0.0017520409296103779 0 -0.00065424178602872677 -0.00017944619263843083 -0.00018221214248413591 -0.0011913320818279364
leaf_weight=48068 1461 3955 62 500 1835 3807 455 2044 41170 50 78 288 760 77 57 54 899 647 4163 1598 29061 2112 570 283 259 1238 473 71
leaf_count=48068 1461 3955 62 500 1835 3807 455 2044 41170 50 78 288 760 77 57 54 899 647 4163 1598 29061 2112 570 283 259 1238 473 71
internal_value=-5.90227e-07 0.00018558 0.000615743 0.000280797 -2.71149e-05 -1.98622e-05 0.00127608 8.4036e-05 -9.91781e-06 -0.000427315 0.000799959 4.54966e-05 0.00028276 -4.22414e-06 0.00101412 -0.000365261 0.000365396 -0.000249112 1.51848e-05 8.92442e-05 -3.78668e-05 3.98183e-05 0.00167268 -0.000308289 -0.00033238 -6.04037e-05 -3.03201e-05 -0.00150293
internal_weight=146095 18205 3471 2306 127890 125621 1165 14734 120411 2269 533 1749 3780 837 557 2148 2943 5210 10954 5553 77129 43282 632 4090 2094 5401 1120 121
internal_count=146095 18205 3471 2306 127890 125621 1165 14734 120411 2269 533 1749 3780 837 557 2148 2943 5210 10954 5553 77129 43282 632 4090 2094 5401 1120 121
is_linear=0
shrinkage=0.03


Tree=3
num_leaves=26
num_cat=0
split_feature=2 4 0 3 2 2 6 10 2 0 3 4 4 10 6 4 3 2 10 3 2 3 9 9 9
split_gain=3.37669 3.64 0.519777 0.380378 0.1673 0.155748 0.133221 0.168618 0.0933608 0.0906047 0.088928 0.0757037 0.0636396 0.0556579 0.0515465 0.0489228 0.0492058 0.0445118 0.03385 0.0193896 0.0174529 0.010054 0.00995844 0.0051503 0.00440551
threshold=0.99999991059303295 0.71421709656715404 0.5276104509830476 0.0037975208833813672 0.71690610051155101 0.39915491640567785 1.0000000180025095e-35 0.29919235408306127 0.28198693692684179 0.59200671315193187 0.85683345794677745 0.99132946133613598 0.65660309791564953 0.080490563064813628 0.079090371727943434 0.024079364724457267 0.87859350442886364 0.83294767141342174 0.87934651970863353 0.079498935490846648 0.75915071368217479 0.32180163264274603 0.68723556399345409 0.3334695845842362 0.77618986368179332
decision_type=2 2 2 2 2 2 2 2 2 2 2 2 2 2 2 2 2 2 2 2 2 2 2 2 2
left_child=2 19 4 11 6 13 8 -8 -1 10 -5 -3 17 -4 -15 20 -17 -7 -13 22 -6 -14 23 -2 -24
right_child=1 3 5 9 15 12 7 -9 -10 -11 -12 18 21 14 -16 16 -18 -19 -20 -21 -22 -23 24 -25 -26
leaf_value=-0.0002028676645692646 -0.00059061891096775631 0.00063129001815697382 -0.0021016572524302215 0.0013797374495568243 2.6955069829180777e-05 -0.00047348953170646787 -5.864760768588317e-05 2.9694549363877666e-05 -6.798338273680208e-05 8.9104785357681129e-05 0.00090187474037877672 0.0014473757173093904 -0.001145801535201678 -0.0017963164296507629 -0.00076821268424725933 6.6208260018998344e-05 -5.0419157325171424e-05 6.853087148744358e-05 0.0019966396005837075 0.00022281339979072969 -7.4770441931786349e-05 -0.00056186917042683909 0.00019172968257064098 -0.00024436478548256675 -0.00016448234486042581
leaf_weight=6288 53 50 60 1048 2282 358 47948 32661 17885 74 603 164 109 65 211 25021 3713 206 970 79 4335 71 65 1718 58
leaf_count=6288 53 50 60 1048 2282 358 47948 32661 17885 74 603 164 109 65 211 25021 3713 206 970 79 4335 71 65 1718 58
internal_value=-5.72999e-07 0.000775087 -2.74108e-05 0.00144983 -2.23356e-05 -0.000683092 -4.1388e-05 -2.28161e-05 -0.000103195 0.00116088 0.00120709 0.00186815 -0.000434603 -0.0012241 -0.00102177 3.40518e-05 5.10332e-05 -0.000270222 0.00191998 -0.000218263 -3.92352e-05 -0.00093257 -0.000238256 -0.000256454 0
internal_weight=146095 4882 141213 2909 140133 1080 104782 80609 24173 1725 1651 1184 744 336 276 35351 28734 564 1134 1973 6617 180 1894 1771 123
internal_count=146095 4882 141213 2909 140133 1080 104782 80609 24173 1725 1651 1184 744 336 276 35351 28734 564 1134 1973 6617 180 1894 1771 123
is_linear=0
shrinkage=0.03


Tree=4
num_leaves=26
num_cat=0
split_feature=2 4 0 3 2 2 4 3 0 3 4 0 4 10 4 3 2 1 10 3 2 9 3 9 9
split_gain=3.17779 3.42571 0.48959 0.357673 0.157409 0.146585 0.120971 0.148212 0.0850338 0.0834379 0.0708733 0.0685615 0.0599278 0.0521003 0.0460205 0.0463077 0.0419343 0.0357937 0.0314735 0.0182907 0.0164291 0.00937357 0.0092791 0.00479742 0.00414556
threshold=0.99999991059303295 0.71421709656715404 0.5276104509830476 0.0037975208833813672 0.71690610051155101 0.39915491640567785 0.97333240509033214 1.0000000180025095e-35 0.59200671315193187 0.85683345794677745 0.99132946133613598 0.44767388701438909 0.65660309791564953 0.080490563064813628 0.024079364724457267 0.87859350442886364 0.83294767141342174 0.16627325117588046 0.87934651970863353 0.079498935490846648 0.75915071368217479 0.68723556399345409 0.32180163264274603 0.3334695845842362 0.77618986368179332
decision_type=2 2 2 2 2 2 2 2 2 2 2 2 2 2 2 2 2 2 2 2 2 2 2 2 2
left_child=2 19 4 10 6 13 7 -1 9 -5 -3 -8 16 -4 20 -16 -7 -15 -12 21 -6 23 -14 -2 -23
right_child=1 3 5 8 14 12 11 -9 -10 -11 18 -13 22 17 15 -17 -18 -19 -20 -21 -22 24 -24 -25 -26
leaf_value=-5.8366147416887742e-05 -0.00057293370326633663 0.00061238910088282138 -0.0020387124654778072 0.0013383492395644134 2.6146454905606291e-05 -0.00045928881403446193 -0.00014814418633863304 1.9201555096520081e-05 8.6435209502567822e-05 0.00087482300363050567 0.0014039808964029883 -0.0010544225494178005 -0.0011114589920917085 -0.0016369774974133104 6.4222016639145326e-05 -4.8906627829604076e-05 6.6475940439877207e-05 -0.0007695031206830374 0.0019367466105722937 0.0002161374551967592 -7.2527382835128702e-05 0.00018598661949527603 -0.00054503681504595948 -0.00023703426579001476 -0.00015955639341862137
leaf_weight=63508 53 50 60 1048 2282 358 7211 33986 74 603 164 77 109 67 25021 3713 206 209 970 79 4335 65 71 1718 58
leaf_count=63508 53 50 60 1048 2282 358 7211 33986 74 603 164 77 109 67 25021 3713 206 209 970 79 4335 65 71 1718 58
internal_value=-5.56452e-07 0.000751912 -2.65925e-05 0.0014065 -2.16662e-05 -0.000662951 -4.01473e-05 -3.12956e-05 0.00112616 0.00117093 0.00181227 -0.000158145 -0.000421695 -0.00118795 3.30277e-05 4.9499e-05 -0.000261958 -0.000991468 0.00186247 -0.000211716 -3.80446e-05 -0.000231157 -0.000905121 -0.000248812 0
internal_weight=146095 4882 141213 2909 140133 1080 104782 97494 1725 1651 1184 7288 744 336 35351 28734 564 276 1134 1973 6617 1894 180 1771 123
internal_count=146095 4882 141213 2909 140133 1080 104782 97494 1725 1651 1184 7288 744 336 35351 28734 564 276 1134 1973 6617 1894 180 1771 123
is_linear=0
shrinkage=0.03


Tree=5
num_leaves=28
num_cat=0
split_feature=2 4 7 3 3 2 9 2 4 8 9 5 7 3 2 9 7 9 9 4 9 3 4 7 7 9 9
split_gain=2.95688 3.18443 0.427793 0.36074 0.170141 0.150269 0.14442 0.0947873 0.0847833 0.075824 0.100766 0.0735058 0.0600513 0.0574072 0.049909 0.0855945 0.0464606 0.0635047 0.0435908 0.0326923 0.0316702 0.0400776 0.0240693 0.0223371 0.0181211 0.00841845 0.00709607
threshold=0.99999991059303295 0.72042924165725719 0.99999997019767772 0.034536607563495643 0.0035708658397197728 0.92677634954452526 0.72495910525321972 0.85875722765922557 0.24530983716249469 0.049968091771006591 0.95773258805274974 0.91934701800346386 0.030256997793912891 0.83620119094848644 0.61257821321487438 0.35225833952426916 0.99999997019767772 0.71575856208801281 0.79650753736495983 0.42327922582626348 0.85478878021240245 0.28075058758258825 0.024079364724457267 0.28414262831211096 0.18562263250350955 0.78400528430938732 0.45738101005554205
decision_type=2 2 2 2 2 2 2 2 2 2 2 2 2 2 2 2 2 2 2 2 2 2 2 2 2 2 2
left_child=2 19 4 16 14 6 8 -8 -4 10 -5 13 -13 -6 15 -1 17 -3 -11 23 21 -7 -16 24 -2 -18 -25
right_child=1 3 5 9 11 20 7 -9 -10 18 -12 12 -14 -15 22 -17 25 -19 -20 -21 -22 -23 -24 26 -26 -27 -28
leaf_value=-1.7480287196612788e-06 -0.0002147036429521729 0.0012124524247776323 -0.00029676083404071819 0.0012365251320481168 3.5876873210556908e-05 0.00022819645602439645 -0.00060976787666964692 0.00011653382015973496 -5.1547469148981111e-05 -0.00017814028476267695 0.00057124355960730953 0.00016276085055148148 0.00088617644071663638 -5.9470898981101188e-05 -3.5786284660681778e-05 -7.9198902469754996e-05 0.0020276600775491981 0.0018674714280353744 0.00096111437853484063 0.00036251953916818986 -9.9574343677240467e-05 0.0010638464702686131 2.7017736953896117e-05 -0.00089348508137295011 0.00032726545220946018 0.0015773424649639268 -0.00031496486065602441
leaf_weight=19738 1711 316 3241 1260 45972 146 1410 175 2140 66 267 2120 111 6464 9533 37190 517 305 51 85 79 92 12953 61 53 119 60
leaf_count=19738 1711 316 3241 1260 45972 146 1410 175 2140 66 267 2120 111 6464 9533 37190 517 305 51 85 79 92 12953 61 53 119 60
internal_value=3.43944e-06 0.000730179 -2.15812e-05 0.0013624 -9.39488e-06 -0.000245518 -0.000274842 -0.000527682 -0.000199801 0.00106506 0.00112221 3.13065e-05 0.000200136 2.40657e-05 -3.74506e-05 -5.2398e-05 0.00174878 0.00153924 0.000293235 -0.000199316 0.000389289 0.000564132 2.58347e-07 -0.00022626 -0.000196702 0.00194838 -0.000631885
internal_weight=146235 4871 141364 2901 134081 7283 6966 1585 5381 1644 1527 54667 2231 52436 79414 56928 1257 621 117 1970 317 238 22486 1885 1764 636 121
internal_count=146235 4871 141364 2901 134081 7283 6966 1585 5381 1644 1527 54667 2231 52436 79414 56928 1257 621 117 1970 317 238 22486 1885 1764 636 121
is_linear=0
shrinkage=0.03


Tree=6
num_leaves=25
num_cat=0
split_feature=2 4 0 0 8 5 2 0 8 4 2 6 4 0 2 0 10 4 1 1 6 0 10 0
split_gain=2.78274 2.99702 0.471471 0.160619 0.144072 0.127707 0.171868 0.136491 0.156072 0.123462 0.117022 0.103934 0.102034 0.0675142 0.0561181 0.0539479 0.0381072 0.0308056 0.0305002 0.0229173 0.0224779 0.00579961 0.014793 0.00575381
threshold=0.99999991059303295 0.72042924165725719 0.5276104509830476 0.77249929308891307 0.028681801632046703 0.93282368779182445 0.53120848536491405 0.25510381162166601 0.94937115907669078 0.66666752099990856 0.0089945169165730494 0.20370430499315265 0.65660309791564953 0.18828806281089785 0.58874547481536876 0.075310356914997115 0.17756455391645434 0.42327922582626348 0.023690915666520599 0.56305754184722911 0.30213956534862524 0.30328828096389776 0.53011783957481395 0.99986433982849132
decision_type=2 2 2 2 2 2 2 2 2 2 2 2 2 2 2 2 2 2 2 2 2 2 2 2
left_child=2 17 5 4 15 6 9 18 -9 -1 16 -6 14 -8 -12 -3 -4 21 -7 -14 -18 22 -2 -23
right_child=1 3 10 -5 11 7 13 8 -10 -11 12 -13 19 -15 -16 -17 20 -19 -20 -21 -22 23 -24 -25
leaf_value=-4.1036653027435679e-05 -0.00021283541715651298 0.0016688128799201396 -0.0021617039813155384 -0.00011057461817933392 0.00011204971876354832 0.00011981187136264072 -7.792905649450464e-06 -0.00013620408061802729 -0.0019462035216404605 -0.00017881886172226117 -0.00063027855933413127 0.001701162614861428 -0.00067037501020306958 5.7266674537696468e-05 -8.9150584808817161e-05 0.0013285934283999135 -0.0015040055179917976 0.00035165673235626113 0.00028930399688042384 -0.0013923775086438547 -0.0004916263146302253 -0.000364096363674228 0.00016619938498160474 -0.00020834864476210681
leaf_weight=64874 377 659 50 65 145 3082 42499 214 55 6454 325 52 92 21632 400 1980 52 85 1463 121 51 379 114 1015
leaf_count=64874 377 659 50 65 145 3082 42499 214 55 6454 325 52 92 21632 400 1980 52 85 1463 121 51 379 114 1015
internal_value=3.3383e-06 0.000708353 -2.09338e-05 0.00132169 0.00135558 -1.60798e-05 -2.14952e-05 0.000135676 -0.000518012 -5.35459e-05 -0.000642208 0.000547382 -0.000511599 1.41056e-05 -0.000335916 0.00141475 -0.00142248 -0.000193338 0.000175035 -0.00109507 -0.00103279 -0.000219522 -0.000118707 -0.000252868
internal_weight=146235 4871 141364 2901 2836 140273 135459 4814 269 71328 1091 197 938 64131 725 2639 153 1970 4545 213 103 1885 491 1394
internal_count=146235 4871 141364 2901 2836 140273 135459 4814 269 71328 1091 197 938 64131 725 2639 153 1970 4545 213 103 1885 491 1394
is_linear=0
shrinkage=0.03


Tree=7
num_leaves=28
num_cat=0
split_feature=2 4 7 3 3 2 9 2 4 9 6 6 7 9 7 7 10 9 7 1 1 4 7 7 9 3 9
split_gain=2.61847 2.8203 0.399006 0.340372 0.159208 0.141651 0.137191 0.0908685 0.0907212 0.0689995 0.066375 0.179389 0.0669134 0.0596098 0.0676175 0.0508656 0.0460995 0.0932258 0.0598369 0.043811 0.0347628 0.0290289 0.0210861 0.0169136 0.0110914 0.0199232 0.00643999
threshold=0.99999991059303295 0.72042924165725719 0.99999997019767772 0.034536607563495643 0.0035708658397197728 0.95322608947753917 0.72495910525321972 0.85875722765922557 0.24530983716249469 0.95773258805274974 0.0070834201760590085 0.21752026677131656 0.044978210702538497 0.97673419117927562 0.40053658187389379 0.55555564165115368 0.50241470336914074 0.35225833952426916 0.4442011713981629 0.97557994723320018 0.71376794576644909 0.42327922582626348 0.28414262831211096 0.18562263250350955 0.81026276946067821 0.26946608722209936 0.45738101005554205
decision_type=2 2 2 2 2 2 2 2 2 2 2 2 2 2 2 2 2 2 2 2 2 2 2 2 2 2 2
left_child=2 21 4 10 16 6 8 -8 -4 19 12 -12 -3 20 -15 -11 17 -1 -18 -5 -6 22 23 -2 25 -7 -24
right_child=1 3 5 9 13 24 7 -9 -10 15 11 -13 -14 14 -16 -17 18 -19 -20 -21 -22 -23 26 -25 -26 -27 -28
leaf_value=-4.8227863799268824e-06 -0.00020167144356329433 0.00073235629809302583 -0.00028603509789452432 0.0011244321203251226 4.7704264557364137e-05 0.00038289751564543178 -0.00058989421427912503 4.0094124864593829e-05 -3.5547315517353777e-05 0.0010084404032055805 0.00043958046801230552 0.0024158997311258283 0.0018185048334825803 4.1076485247414912e-07 -0.00037489584227140917 0.00018337130430366036 1.5445886649641896e-05 -8.9541860639670589e-05 -8.3166869527597761e-05 0.00024272720403910238 -1.6933956502448025e-05 0.00034111942327663431 -0.00085791607548935415 0.00032184828869935317 0.00014485213405283169 0.0012420043535485003 -0.00030098572709658084
leaf_weight=20207 1711 64 3241 1289 43890 75 1410 231 2224 128 131 64 998 1147 678 165 24027 27991 7189 62 8952 85 61 53 51 51 60
leaf_count=20207 1711 64 3241 1289 43890 75 1410 231 2224 128 131 64 998 1147 678 165 24027 27991 7189 62 8952 85 61 53 51 51 60
internal_value=3.23314e-06 0.000687124 -2.0311e-05 0.00128211 -8.5411e-06 -0.000236582 -0.000257761 -0.000499387 -0.00018465 0.00099327 0.00165737 0.0011045 0.00175595 3.08303e-05 -0.000137387 0.000554268 -3.56814e-05 -5.40857e-05 -7.16858e-06 0.00108621 3.66971e-05 -0.000187538 -0.000212985 -0.000184224 0.000596409 0.000755131 -0.000607002
internal_weight=146235 4871 141364 2901 134081 7283 7106 1641 5465 1644 1257 195 1062 54667 1825 293 79414 48198 31216 1351 52842 1970 1885 1764 177 126 121
internal_count=146235 4871 141364 2901 134081 7283 7106 1641 5465 1644 1257 195 1062 54667 1825 293 79414 48198 31216 1351 52842 1970 1885 1764 177 126 121
is_linear=0
shrinkage=0.03


Tree=8
num_leaves=28
num_cat=0
split_feature=4 0 3 0 6 7 3 7 7 9 6 3 4 3 0 7 5 8 7 5 9 9 7 4 7 6 9
split_gain=0.463482 0.534703 0.488483 0.301056 0.244371 0.208609 0.171265 0.152654 0.139383 0.138959 0.137275 0.167657 0.104694 0.0936994 0.145194 0.0772001 0.0632134 0.0612983 0.0603922 0.0559896 0.0397513 0.0323775 0.0318271 0.027434 0.0162753 0.01417 0.00976874
threshold=0.87222689390182506 0.19396513700485232 1.0000000180025095e-35 0.5276104509830476 0.013773669488728048 0.99999997019767772 0.0035708658397197728 0.022857408039271835 0.93317365646362316 0.97673419117927562 0.022983334958553318 1.0000000180025095e-35 0.2664503306150437 0.83620119094848644 0.5276104509830476 0.98231342434883129 0.832239329814911 0.94303026795387279 0.044978210702538497 0.91934701800346386 0.34826737642288214 0.72183921933174144 0.15245634317398074 0.99999985098838817 0.51478847861289989 0.0022101065842434768 0.35225833952426916
decision_type=2 2 2 2 2 2 2 2 2 2 2 2 2 2 2 2 2 2 2 2 2 2 2 2 2 2 2
left_child=3 9 4 5 18 6 20 -6 16 10 11 -2 21 14 -4 24 22 -12 -3 -8 -1 -7 -5 -15 -11 -14 -10
right_child=1 2 13 8 7 12 19 -9 26 15 17 -13 25 23 -16 -17 -18 -19 -20 -21 -22 -23 -24 -25 -26 -27 -28
leaf_value=2.5188492259916986e-06 0.0004140400387372646 0.00024721655662331555 0.00036422111219089413 -0.0002302872853177821 0.00065852676760722452 -0.0002470169711227172 3.633845034193947e-05 -0.00051802099259398043 -0.0017571292935849539 -5.3024770897874594e-05 -9.3045564466254135e-05 7.7068183996880274e-05 5.8976681048862439e-05 -0.00049099692502585534 -0.00053611831847996021 -0.00071038256002815695 -0.0013422128971860778 0.00086830635925835473 0.0012352551144914953 0.00019344735499282772 -4.502693113303168e-05 -0.00051677724279814037 -0.00060042636419174451 4.8119680461352126e-05 -0.00027774723920977683 -0.00038256647017074645 -0.0010038761734560992
leaf_weight=22182 1586 68 2900 1807 342 3221 39082 137 53 909 3897 8463 1178 91 168 249 53 60 834 2166 54235 488 252 1217 460 68 69
leaf_count=22182 1586 68 2900 1807 342 3221 39082 137 53 909 3897 8463 1178 91 168 249 53 60 834 2166 54235 488 252 1217 460 68 69
internal_value=3.13938e-06 0.000132219 0.00037943 -1.89413e-05 0.000872075 -1.26279e-05 -4.57194e-06 0.00031572 -0.000364112 4.09348e-05 7.15061e-05 0.000130553 -0.000203321 0.000223257 0.000313926 -0.000221836 -0.000305284 -7.76889e-05 0.00116413 4.46617e-05 -3.11863e-05 -0.000283332 -0.000277072 8.28426e-06 -0.00013074 3.24433e-05 -0.00135685
internal_weight=146235 21381 5757 124854 1381 122620 117665 479 2234 15624 14006 10049 4955 4376 3068 1618 2112 3957 902 41248 76417 3709 2059 1308 1369 1246 122
internal_count=146235 21381 5757 124854 1381 122620 117665 479 2234 15624 14006 10049 4955 4376 3068 1618 2112 3957 902 41248 76417 3709 2059 1308 1369 1246 122
is_linear=0
shrinkage=0.03


Tree=9
num_leaves=30
num_cat=0
split_feature=0 0 5 9 8 0 9 1 0 7 7 7 9 8 9 6 1 3 7 3 1 1 7 9 5 9 1 1 5
split_gain=0.20332 0.183329 0.17217 0.15975 0.15295 0.147494 0.082493 0.0793258 0.157828 0.154084 0.103211 0.0953005 0.0729579 0.0708255 0.0643961 0.0585222 0.0568545 0.0563107 0.050295 0.0359435 0.0484174 0.028572 0.0254842 0.0158398 0.0155626 0.0067048 0.00379437 0.006433 0.000137434
threshold=0.5276104509830476 0.13768202066421512 0.96406075358390819 0.69559031724929821 1.0000000180025095e-35 0.30328828096389776 0.39814934134483343 0.03900748863816262 0.77249929308891307 0.48326554894447332 0.93317365646362316 0.3594773411750794 0.747328281402588 0.44719010591506964 0.31172692775726324 0.5798570215702058 0.53331086039543163 0.030255509540438656 0.10287834331393243 0.0020032976754009728 0.58209559321403515 0.06554827839136125 0.56067723035812389 0.64701640605926525 0.34093013405799871 0.62290301918983471 0.91964149475097667 0.50062510371208202 0.0089670256711542624
decision_type=2 2 2 2 2 2 2 2 2 2 2 2 2 2 2 2 2 2 2 2 2 2 2 2 2 2 2 2 2
left_child=1 2 4 13 15 18 22 8 11 19 28 25 -7 17 -6 -1 -15 -3 -5 24 -21 -8 -4 -13 -9 -2 27 -11 -10
right_child=7 3 6 5 14 12 21 9 10 26 -12 23 -14 16 -16 -17 -18 -19 -20 20 -22 -23 -24 -25 -26 -27 -28 -29 -30
leaf_value=5.622137685863718e-06 -0.00026966678815155059 2.482961348132765e-05 0.000294260826866347 0.00015892184671247072 -1.3435750020431306e-05 0.00011030773582740588 -9.7141493981050587e-05 -0.00013922532977410273 -0.00017800482880697569 -0.0010591125872868271 -0.0016065429362697068 0.00053032412028808991 0.00042558108399209184 1.7068326565599649e-05 -0.00010808837987694822 -0.00032580692896403427 -0.00014445948674305349 0.00012264531180905037 0 -8.3164329167219054e-05 -0.00083680850026608049 0.00019983181192740398 -0.00034520914523578165 0.0012434222540560291 -0.00049538325601894103 0.00013530235054684824 -0.00087553583710820327 -0.0017748078988758713 -0.00034056247049785876
leaf_weight=61392 71 21784 2496 3811 9431 981 969 847 774 60 50 64 2222 4523 21143 483 3425 7052 3369 134 215 416 53 105 139 67 55 53 51
leaf_count=61392 71 21784 2496 3811 9431 981 969 847 774 60 50 64 2222 4523 21143 483 3425 7052 3369 134 215 416 53 105 139 67 55 53 51
internal_value=3.04203e-06 7.90027e-06 -1.57921e-05 5.63779e-05 -2.4092e-05 0.000160354 0.000178487 -0.000255571 -6.86077e-05 -0.000400594 -0.000276179 0.000513132 0.000329964 2.69467e-05 -7.89896e-05 2.98598e-06 -5.21617e-05 4.88554e-05 8.42694e-05 -0.000289863 -0.000556144 -5.7684e-06 0.000279775 0.000991588 -0.000192522 -5.13723e-05 -0.00126197 -0.00142259 -0.00019173
internal_weight=146235 143550 96383 47167 92449 10383 3934 2685 1182 1503 875 307 3203 36784 30574 61875 7948 28836 7180 1335 349 1385 2549 169 986 138 168 113 825
internal_count=146235 143550 96383 47167 92449 10383 3934 2685 1182 1503 875 307 3203 36784 30574 61875 7948 28836 7180 1335 349 1385 2549 169 986 138 168 113 825
is_linear=0
shrinkage=0.03


Tree=10
num_leaves=28
num_cat=0
split_feature=4 0 7 0 10 9 9 7 0 0 6 10 5 7 4 7 7 5 6 4 0 9 10 10 9 7 9
split_gain=0.545283 0.630087 0.310615 0.214783 0.156714 0.132327 0.131921 0.174547 0.122128 0.119124 0.0961923 0.0929049 0.142726 0.111803 0.078129 0.0773965 0.0718997 0.0630627 0.0615302 0.0542022 0.0459881 0.0303771 0.0244707 0.0224183 0.0223501 0.0137536 0.0137131
threshold=0.96347182989120495 0.19396513700485232 0.99999997019767772 0.44767388701438909 0.95752918720245372 0.91607540845870983 0.91607540845870983 0.99999997019767772 0.48028899729251867 0.025540613569319252 0.043809609487652786 0.79877060651779186 0.7256135642528535 0.43559740483760839 0.2664503306150437 0.098780974745750441 0.99999997019767772 0.70178341865539562 0.022983334958553318 0.72688370943069469 0.50878372788429271 0.51657620072364818 0.84134617447853099 0.18447566032409671 0.3139242976903916 0.16100083291530612 0.99999600648880016
decision_type=2 2 2 2 2 2 2 2 2 2 2 2 2 2 2 2 2 2 2 2 2 2 2 2 2 2 2
left_child=2 6 3 11 20 18 7 10 14 -9 -2 12 -1 -13 22 -7 25 19 -6 -5 24 -19 -4 -16 -3 -8 -18
right_child=1 4 8 17 5 15 16 9 -10 -11 -12 13 -14 -15 23 -17 26 21 -20 -21 -22 -23 -24 -25 -26 -27 -28
leaf_value=-3.5098927322048849e-05 9.9302359422475702e-05 -0.0004102044591692566 -0.00021455377793007656 -0.00018967472214372397 0.00070062232733063604 0.00075331380930972604 -0.00023944041056968168 0.00017491076696033155 -0.0011638041309650561 0.00067056553315621614 -0.00011012923245882833 6.5238384768258732e-05 9.874779837021855e-05 -5.735540971912314e-05 -0.00036237856228344334 -8.3669323084663689e-06 -0.00033032592752847668 -0.0014662232090412474 0.00037091775603032993 -0.00085511621843047602 0.0010690787067898155 -0.00049161535066079753 -0.00037395953377860366 1.3565420628855101e-05 0.00016753564019335529 -4.2570932721510346e-05 -0.00073080620952666021
leaf_weight=74114 6360 60 1888 3278 2297 152 405 1308 129 674 2852 27576 7929 8817 160 535 207 52 713 117 51 99 1858 1220 1440 1828 181
leaf_count=74114 6360 60 1888 3278 2297 152 405 1308 129 674 2852 27576 7929 8817 160 535 207 52 713 117 51 99 1858 1220 1440 1828 181
internal_value=1.32095e-06 0.000150971 -2.10765e-05 -1.13217e-05 0.00043087 0.000537449 4.4424e-05 8.94491e-05 -0.000246935 0.000345002 3.4137e-05 -4.40771e-06 -2.21267e-05 3.54548e-05 -0.000223253 0.000155875 -0.000146725 -0.000241396 0.000623534 -0.000213516 0.000174872 -0.000847845 -0.000294427 -2.78716e-05 0.0001424 -7.96298e-05 -0.000525018
internal_weight=146300 19063 127237 121982 5248 3697 13815 11194 5255 1982 9212 118436 82043 36393 5126 687 2621 3546 3010 3395 1551 151 3746 1380 1500 2233 388
internal_count=146300 19063 127237 121982 5248 3697 13815 11194 5255 1982 9212 118436 82043 36393 5126 687 2621 3546 3010 3395 1551 151 3746 1380 1500 2233 388
is_linear=0
shrinkage=0.03


Tree=11
num_leaves=27
num_cat=0
split_feature=2 4 3 2 4 6 3 2 2 8 8 8 6 6 3 1 1 8 4 4 3 3 6 10 3 10
split_gain=2.56222 2.64779 0.361243 0.15652 0.17164 0.120026 0.117265 0.0736268 0.0699978 0.0830716 0.0685978 0.0605334 0.0519958 0.107687 0.042926 0.0946711 0.0264789 0.0252443 0.0240442 0.0218445 0.0198923 0.0136758 0.0169716 0.0119523 0.0105712 0.00189691
threshold=0.99999991059303295 0.71421709656715404 1.0000000180025095e-35 0.59172528982162487 0.6619364619255067 1.0000000180025095e-35 1.0000000180025095e-35 0.44025890529155737 0.23262328654527667 0.69724258780479442 0.032230999320745475 0.54133760929107677 0.25698040425777441 0.05958224460482598 0.024271690286695961 0.050534021109342582 0.25066870450973516 0.39844192564487463 0.23919512331485751 0.50107562541961681 0.48334814608097082 0.67659893631935131 0.24031651765108111 0.6402912735939027 0.093170557171106352 0.28368139266967779
decision_type=2 2 2 2 2 2 2 2 2 2 2 2 2 2 2 2 2 2 2 2 2 2 2 2 2 2
left_child=3 19 12 4 5 7 -7 -1 9 -6 20 14 13 -3 18 -16 -12 -10 -5 24 -4 22 -13 -23 25 -2
right_child=1 2 10 11 8 6 -8 -9 17 -11 16 21 -14 -15 15 -17 -18 -19 -20 -21 -22 23 -24 -25 -26 -27
leaf_value=-0.000167936361901643 -0.00012381951946903731 0.0016876183513389741 0.0011450353384130903 -2.1576001063541302e-05 -0.00038017991426308719 -4.5041268443321165e-05 4.1358837599123442e-05 -1.8094167586270578e-05 -0.00014503412513443642 2.6963694764009561e-06 0.00063145572066282451 3.4797957173361424e-05 0.0026913903288900138 0.00054789950633507773 -2.3764936253685966e-06 0.00011500583774958119 -0.00024873097502475902 1.7494410868067046e-05 3.6085068454211081e-05 0.00042341143552600285 0.00090032717654274258 -0.0004848829325653199 -0.00015039371294186022 0 0.00018419253777130707 -0.00022033617638382086
leaf_weight=8620 397 1062 758 18496 2305 43363 20947 4560 4131 635 68 568 50 89 13098 11632 50 1046 10037 51 858 166 1723 55 58 1477
leaf_count=8620 397 1062 758 18496 2305 43363 20947 4560 4131 635 68 568 50 89 13098 11632 50 1046 10037 51 858 166 1723 55 58 1477
internal_value=1.27695e-06 0.000674437 0.00124672 -2.21183e-05 -4.7606e-05 -3.38097e-05 -1.68524e-05 -0.000116322 -0.000178942 -0.000296466 0.000965436 1.69481e-05 0.00165022 0.00160215 2.37829e-05 5.27144e-05 0.000233198 -0.000111616 -1.18748e-06 -0.00017109 0.00101703 -0.000126774 -0.000103171 -0.000357734 -0.000188358 -0.000201498
internal_weight=146300 4918 2935 141382 85607 77490 64310 13180 8117 2940 1734 55775 1201 1151 53263 24730 118 5177 28533 1983 1616 2512 2291 221 1932 1874
internal_count=146300 4918 2935 141382 85607 77490 64310 13180 8117 2940 1734 55775 1201 1151 53263 24730 118 5177 28533 1983 1616 2512 2291 221 1932 1874
is_linear=0
shrinkage=0.03


Tree=12
num_leaves=28
num_cat=0
split_feature=2 4 7 0 9 2 0 9 8 2 5 0 0 2 4 4 9 7 7 2 4 7 0 7 7 9 0
split_gain=2.41136 2.49174 0.397021 0.246707 0.197788 0.151577 0.126219 0.114966 0.110798 0.0992989 0.132163 0.095698 0.0797121 0.0778322 0.0697094 0.0639842 0.0628301 0.0533868 0.0387606 0.0360326 0.0205884 0.0185644 0.015071 0.0124302 0.0100974 0.00666175 0.00453649
threshold=0.99999991059303295 0.71421709656715404 0.99999997019767772 0.48028899729251867 0.95773258805274974 0.95322608947753917 0.48028899729251867 0.76468199491500866 0.028681801632046703 0.62152543663978588 0.7256135642528535 0.0057160374708473691 0.090894088149070754 0.53737789392471325 0.65660309791564953 0.23121351003646853 0.66538745164871227 0.5344933569431306 0.55555564165115368 0.12993007898330691 0.50107562541961681 0.37616983056068426 0.13889199495315555 0.19919502735137942 0.30344961583614355 0.51376500725746166 0.23201834410429004
decision_type=2 2 2 2 2 2 2 2 2 2 2 2 2 2 2 2 2 2 2 2 2 2 2 2 2 2 2
left_child=2 20 3 9 8 6 7 -4 11 10 -1 -3 -7 17 -15 -11 -10 -5 24 -8 21 23 -20 -2 -6 -23 -14
right_child=1 4 5 13 18 12 19 -9 16 15 -12 -13 26 14 -16 -17 -18 -19 22 -21 -22 25 -24 -25 -26 -27 -28
leaf_value=-3.7095591761889256e-05 -0.00017379539074487767 0.0017969053749902987 -0.00018367407101784261 -0.00052428788562290446 0.00055521981223634787 0.0014414724850173759 -0.0018490204880382301 -0.0005048105603511373 0 -9.9065739013590338e-06 8.7872448523282779e-05 0.0012577572473399996 0.00029218788051820448 -5.3353677781857361e-05 -0.00060366831275066848 5.997016490880157e-05 0.001165977596050775 -0.0014693879327037939 0.00042994210177531289 -0.00070946733329656274 0.00041073396554081872 -0.00084883890163231013 -0.00011587886509105792 0.00023927976210840081 0.0012439437217941166 -0.00025005955039087823 -7.8454140133174234e-05
leaf_weight=76006 1765 384 5792 607 73 68 52 1234 90 20799 8453 2096 52 798 287 27046 71 64 85 74 51 53 85 62 51 52 50
leaf_count=76006 1765 384 5792 607 73 68 52 1234 90 20799 8453 2096 52 798 287 27046 71 64 85 74 51 53 85 62 51 52 50
internal_value=1.23969e-06 0.000654282 -2.14557e-05 -9.68344e-06 0.00120945 -0.000236584 -0.000257931 -0.00024051 0.00129225 -4.97177e-06 -2.45527e-05 0.00134252 0.000643484 -0.000362951 -0.000201728 2.9531e-05 0.000498997 -0.000619107 0.000455215 -0.00120464 -0.000165912 -0.000182707 0.000139487 -0.000158123 0.000863433 -0.000581365 8.12188e-05
internal_weight=146300 4918 141382 134060 2935 7322 7152 7026 2641 132304 84459 2480 170 1756 1085 47845 161 671 294 126 1983 1932 170 1827 124 105 102
internal_count=146300 4918 141382 134060 2935 7322 7152 7026 2641 132304 84459 2480 170 1756 1085 47845 161 671 294 126 1983 1932 170 1827 124 105 102
is_linear=0
shrinkage=0.03


Tree=13
num_leaves=30
num_cat=0
split_feature=4 3 0 7 7 0 6 7 0 3 1 0 1 0 3 4 5 7 4 7 7 0 5 7 4 0 1 1 1
split_gain=0.446962 0.560189 0.531095 0.271519 0.232198 0.1894 0.163769 0.15832 0.155305 0.155213 0.117244 0.109524 0.0982868 0.0956642 0.089785 0.0724466 0.0583135 0.0569131 0.0504591 0.0449359 0.0629224 0.047504 0.0431793 0.0427768 0.0322391 0.0245896 0.0245476 0.0222474 0.00044971
threshold=0.96347182989120495 1.0000000180025095e-35 0.13768202066421512 0.99999997019767772 0.83002236485481273 0.44767388701438909 1.0000000180025095e-35 0.024699679575860504 0.17294623702764514 0.0025763305602595214 0.0081646665930748003 0.48028899729251867 0.60413685441017162 0.5276104509830476 0.44666245579719549 0.2664503306150437 0.70178341865539562 0.041345572099089629 0.72688370943069469 0.035612015053629882 0.48326554894447332 0.098329193890094771 0.84339296817779552 0.80899271368980419 0.99132946133613598 0.17704757302999499 0.22299465537071231 0.99998188018798839 0.25066870450973516
decision_type=2 2 2 2 2 2 2 2 2 2 2 2 2 2 2 2 2 2 2 2 2 2 2 2 2 2 2 2 2
left_child=3 2 4 5 24 9 17 -8 19 22 -6 15 14 -14 -10 25 18 -4 -7 21 -21 -3 -1 -11 -2 -5 -17 -18 -13
right_child=1 8 6 11 10 16 7 -9 12 23 -12 28 13 -15 -16 26 27 -19 -20 20 -22 -23 -24 -25 -26 -27 -28 -29 -30
leaf_value=-3.4592395640800181e-05 0.00046042336134959083 -0.00026083407107339857 0.00010120242781474091 -0.00024682626912314891 0.00098877419461298349 -0.00017612450503168224 0.00078982601463959345 -0.00035784493957297645 0.00045584470846045654 4.6088180467257691e-05 0.0001624803032821555 -0.0012890161663249332 3.0406199418449341e-05 -0.0010715746393318026 0.00014385370156511538 7.183340225597449e-05 -0.0012882840137077593 0.0011756674200108801 -0.00081819108831070891 0.00010224972988153361 -5.333717944371513e-05 0.00015154687289733901 7.5333634250873018e-05 -0.00015773195977512058 -6.5917857607039609e-05 -0.00049707217395173441 -0.00019180641275384934 -0.00045936736901077053 -0.00082036149548935444
leaf_weight=71610 112 1077 53 3317 378 3278 368 149 1513 42534 278 70 990 76 1927 890 60 954 117 4313 5091 318 3351 941 1466 429 490 91 59
leaf_count=71610 112 1077 53 3317 378 3278 368 149 1513 42534 278 70 990 76 1927 890 60 954 117 4313 5091 318 3351 941 1466 429 490 91 59
internal_value=1.19955e-06 0.000136689 0.000464988 -1.90764e-05 0.000168754 -9.95453e-06 0.000897224 0.000453259 5.588e-05 -3.4604e-06 0.000643258 -0.000230243 0.000203839 -4.54382e-05 0.000281957 -0.000207781 -0.000226006 0.00112211 -0.000199159 -5.58092e-06 1.77017e-05 -0.000164674 -2.96382e-05 4.16072e-05 -2.66325e-05 -0.000276298 -1.96112e-05 -0.000809227 -0.00109871
internal_weight=146300 19063 3758 127237 2234 121982 1524 517 15305 118436 656 5255 4506 1066 3440 5126 3546 1007 3395 10799 9404 1395 74961 43475 1578 3746 1380 151 129
internal_count=146300 19063 3758 127237 2234 121982 1524 517 15305 118436 656 5255 4506 1066 3440 5126 3546 1007 3395 10799 9404 1395 74961 43475 1578 3746 1380 151 129
is_linear=0
shrinkage=0.03


Tree=14
num_leaves=27
num_cat=0
split_feature=2 4 7 3 2 3 9 2 7 9 9 2 8 10 7 2 4 8 4 3 4 7 7 9 9 3
split_gain=2.22602 2.28429 0.361275 0.312722 0.140046 0.117683 0.0986888 0.111215 0.0944695 0.0869521 0.0838027 0.0761678 0.0757357 0.0603563 0.0416632 0.0394767 0.0458569 0.030942 0.021859 0.0200899 0.0191947 0.0169531 0.0116742 0.00968427 0.00632614 0.00368808
threshold=0.99999991059303295 0.71421709656715404 0.99999997019767772 1.0000000180025095e-35 0.95322608947753917 0.0023876283084973697 0.76468199491500866 0.28198693692684179 0.43559740483760839 0.86917194724082958 0.95773258805274974 0.83605530858039867 0.032230999320745475 0.98858028650283825 0.75891953706741344 0.59172528982162487 0.6619364619255067 0.53051507472991954 0.99999985098838817 0.45554530620574957 0.50107562541961681 0.37616983056068426 0.19919502735137942 0.40672037005424505 0.51376500725746166 0.10000259056687356
decision_type=2 2 2 2 2 2 2 2 2 2 2 2 2 2 2 2 2 2 2 2 2 2 2 2 2 2
left_child=2 20 5 18 6 15 7 -4 13 -10 12 -8 -5 -7 -12 16 -1 -17 -3 25 21 22 -2 -20 -23 -6
right_child=1 3 4 10 19 8 11 -9 9 -11 14 -13 -14 -15 -16 17 -18 -19 23 -21 -22 24 -24 -25 -26 -27
leaf_value=-4.1052883282462545e-05 -0.00016455577860633198 0.00079460061332046865 -0.00034059918096775616 0.0010494569281417302 0.00053945776058266154 1.844107146198524e-05 -0.00060020128253678669 -7.6992519808113664e-05 -1.8600332838565863e-05 -0.00025176288292095319 0.00075244020683947952 0 0.00014455672120195875 9.2428482769625007e-05 0 7.1403500459636722e-06 -0.00016817617039527468 -0.0001410037718250014 0.0018785169215271124 0.00011769747027209935 0.00039988359079173164 -0.00081427275084451059 0.000235650100754259 0.0015126746695777861 -0.00023053715859778668 0.0010965548950509843
leaf_weight=51332 1765 51 2617 1357 51 31055 1023 3288 8624 1737 147 224 97 14683 133 22578 2707 1344 159 60 51 53 62 991 52 59
leaf_count=51332 1765 51 2617 1357 51 31055 1023 3288 8624 1737 147 224 97 14683 133 22578 2707 1344 159 60 51 53 62 991 52 59
internal_value=1.16166e-06 0.000628607 -2.06433e-05 0.00116016 -0.00022586 -9.41242e-06 -0.000246391 -0.000194331 2.36916e-05 -5.79811e-05 0.000898161 -0.000490477 0.000991166 4.22586e-05 0.000404306 -3.32718e-05 -4.74767e-05 -1.05792e-06 0.00153583 0.000619908 -0.000156643 -0.000172906 -0.000149321 0.00156602 -0.000554223 0.000866237
internal_weight=146300 4918 141382 2935 7322 134060 7152 5905 56099 10361 1734 1247 1454 45738 280 77961 54039 23922 1201 170 1983 1932 1827 1150 105 110
internal_count=146300 4918 141382 2935 7322 134060 7152 5905 56099 10361 1734 1247 1454 45738 280 77961 54039 23922 1201 170 1983 1932 1827 1150 105 110
is_linear=0
shrinkage=0.03


Tree=15
num_leaves=28
num_cat=0
split_feature=2 4 7 3 2 3 4 3 6 6 2 5 3 3 4 6 2 1 8 1 6 3 2 3 8 6 5
split_gain=1.92878 1.89564 0.289494 0.225618 0.118967 0.0999956 0.0835956 0.0560581 0.049508 0.0485516 0.0437116 0.043555 0.0402212 0.0391391 0.0696829 0.038453 0.0255381 0.0255319 0.0241235 0.0224351 0.0202429 0.0193322 0.0105928 0.00611702 0.00558688 0.0167067 0.00156492
threshold=0.99999991059303295 0.52310177683830272 0.99999997019767772 1.0000000180025095e-35 0.85529834032058727 0.0035708658397197728 0.99132946133613598 0.99994951486587536 0.82481345534324657 0.11284962296485902 0.30489321053028112 0.79774323105812084 0.85683345794677745 0.94475948810577404 0.91243502497673046 0.0094553236849606054 0.95322608947753917 0.726434886455536 1.0000000180025095e-35 0.050534021109342582 0.20569352060556415 0.45554530620574957 0.76770293712615978 0.059259954839944846 0.1831086948513985 0.0094553236849606054 0.094173777848482146
decision_type=2 2 2 2 2 2 2 2 2 2 2 2 2 2 2 2 2 2 2 2 2 2 2 2 2 2 2
left_child=2 23 5 6 7 8 -3 10 11 12 -4 -1 -5 17 -15 -8 19 -7 -10 -6 -11 -18 -9 24 25 -2 -26
right_child=1 3 4 9 16 13 15 22 18 20 -12 -13 -14 14 -16 -17 21 -19 -20 -21 -22 -23 -24 -25 26 -27 -28
leaf_value=-3.3160596352267746e-05 -8.2514417847583875e-05 0.00034336207875687829 -0.00030750432214826824 0.0010003918968409641 -7.4222957426561557e-05 4.0101121215230867e-05 0.0015154210903180676 -0.00048728860800503017 -0.00049587810119899119 -0.00011318747064529692 -0.00014482280758629283 7.4618801079451237e-05 0.00067334591228072167 0.00010684361731105664 -0.00012426731522313219 0.00095223952788979016 0.00071174606742712451 -1.75139805014856e-05 -0.00014747292255602861 0.0003211887022134318 0.00064392198979205516 0 -0.00091882863665964298 9.6043184782178723e-05 -0.00013462332136578641 -0.0005108556053416562 0
leaf_weight=74714 218 74 2879 1037 370 40830 985 300 261 63 3296 3518 621 1676 3854 159 112 8256 710 193 55 52 92 75 1407 155 82
leaf_count=74714 218 74 2879 1037 370 40830 985 300 261 63 3296 3518 621 1676 3854 159 112 8256 710 193 55 52 92 75 1407 155 82
internal_value=8.93255e-07 0.000584133 -1.94664e-05 0.00105736 -0.000203534 -9.41095e-06 0.00137574 -0.000244026 -3.09614e-05 0.000837261 -0.00022116 -2.82754e-05 0.000879755 2.17862e-05 -5.36804e-05 0.00143986 0.000158092 3.03494e-05 -0.000244253 5.6032e-05 0.000214547 0.000489929 -0.000596428 -0.0001458 -0.000157157 -0.000268641 -0.000127199
internal_weight=146044 4931 141113 2994 7294 133819 1218 6567 79203 1776 6175 78232 1658 54616 5530 1144 727 49086 971 563 118 164 392 1937 1862 373 1489
internal_count=146044 4931 141113 2994 7294 133819 1218 6567 79203 1776 6175 78232 1658 54616 5530 1144 727 49086 971 563 118 164 392 1937 1862 373 1489
is_linear=0
shrinkage=0.03


Tree=16
num_leaves=30
num_cat=0
split_feature=4 3 10 7 7 0 3 0 0 0 1 0 6 4 10 6 1 0 8 3 4 6 8 0 1 1 0 1 6
split_gain=0.301695 0.415158 0.569214 0.188768 0.14874 0.134735 0.124451 0.122755 0.117201 0.0927447 0.0959971 0.129288 0.0827858 0.0775964 0.0555348 0.0552475 0.0500593 0.0498003 0.0451777 0.0405725 0.0348975 0.0341922 0.03146 0.0292349 0.0229799 0.0215555 0.0210342 0.020312 0.00735209
threshold=0.96347182989120495 1.0000000180025095e-35 0.86598008871078502 0.99999997019767772 0.99999997019767772 0.44767388701438909 0.01786771230399609 0.20359845459461215 0.45794457197189337 0.19396513700485232 0.58952170610427868 0.46787211298942571 0.47792172431945806 0.56431353092193615 0.50241470336914074 0.24665272980928424 0.26762291789054876 0.067671954631805434 0.72415110468864452 0.94475948810577404 0.72688370943069469 0.09615135565400125 0.0037349055055528884 0.46787211298942571 0.27112224698066717 0.42055551707744604 0.0779063254594803 0.90924471616745006 0.15527273714542392
decision_type=2 2 2 2 2 2 2 2 2 2 2 2 2 2 2 2 2 2 2 2 2 2 2 2 2 2 2 2 2
left_child=3 2 12 5 7 6 14 -4 13 19 15 -12 16 22 -1 -11 -2 -8 -14 21 27 -3 -5 -6 -10 -15 -21 -7 -22
right_child=1 9 4 8 23 20 17 -9 24 10 11 -13 18 25 -16 -17 -18 -19 -20 26 28 -23 -24 -25 -26 -27 -28 -29 -30
leaf_value=-4.089513086544437e-05 -0.00015991434725979391 6.7819391510221983e-05 0.00019420440548157601 -0.0001920945361900538 0.0011968818089077428 -0.00011735047191861067 1.3590532535082433e-05 0.00085210443938028933 -0.0013749943941755679 0.00022597367745645508 6.7433746236174636e-05 -0.00083980164017956793 0.00013159841063991901 0.00021790330497954786 8.1550077737350238e-06 0.00086354059054756667 0.00015229646258384775 8.9246828181979232e-05 0.0014211886795618364 -3.9113951930643296e-05 -0.0004043833726815793 -0.00010261609753813961 -0.00051858632056860619 0.00059779298864391173 -0.00052701359214302808 -0.0001380196063216497 -0.00020487564665296585 -0.00027727390350072332 -0.0009792895782608441
leaf_weight=52041 946 6294 493 4068 628 2318 17332 563 84 2780 840 169 52 533 34430 132 902 14452 58 2794 74 1262 298 108 67 204 946 1119 57
leaf_count=52041 946 6294 493 4068 628 2318 17332 563 84 2780 840 169 52 533 34430 132 902 14452 58 2794 74 1262 298 108 67 204 946 1119 57
internal_value=8.64797e-07 0.000112493 0.000395319 -1.57728e-05 0.000781745 -8.15365e-06 -2.64761e-06 0.000547848 -0.000191861 4.2595e-05 0.000168306 -8.16167e-05 4.00996e-05 -0.000166772 -2.13302e-05 0.000255933 -5.90245e-06 4.80856e-05 0.000839485 -7.76453e-07 -0.000189796 3.89553e-05 -0.000215078 0.00111314 -0.00101919 0.000115309 -8.18484e-05 -0.000170297 -0.000677973
internal_weight=146044 18967 3750 127077 1792 121823 118255 1056 5254 15217 3921 1009 1958 5103 86471 2912 1848 31784 110 11296 3568 7556 4366 736 151 737 3740 3437 131
internal_count=146044 18967 3750 127077 1792 121823 118255 1056 5254 15217 3921 1009 1958 5103 86471 2912 1848 31784 110 11296 3568 7556 4366 736 151 737 3740 3437 131
is_linear=0
shrinkage=0.03


Tree=17
num_leaves=26
num_cat=0
split_feature=2 4 7 3 0 0 2 3 0 4 4 5 0 3 0 0 2 1 8 2 7 7 5 0 4
split_gain=1.78315 1.74013 0.265016 0.198604 0.186386 0.129869 0.110482 0.0910998 0.0821713 0.0720244 0.0619373 0.0756797 0.0558475 0.0553871 0.0543504 0.0472557 0.0454186 0.0366461 0.0345119 0.0180274 0.00634508 0.011688 0.00446179 0.00387005 0.00383561
threshold=0.99999991059303295 0.50107562541961681 0.99999997019767772 1.0000000180025095e-35 0.5276104509830476 0.45794457197189337 0.85529834032058727 0.0035708658397197728 0.59200671315193187 0.99132946133613598 0.71421709656715404 0.832239329814911 0.073968112468719496 0.54568785429000866 0.10732303559780122 0.02812091447412968 0.15484934300184253 0.050534021109342582 0.042947391048073776 0.65939095616340648 0.28414262831211096 0.18562263250350955 0.22587165981531146 0.5276104509830476 0.41562381386756903
decision_type=2 2 2 2 2 2 2 2 2 2 2 2 2 2 2 2 2 2 2 2 2 2 2 2 2
left_child=2 20 4 9 7 6 13 15 12 -3 11 -6 -5 -4 -9 -1 -7 -8 -11 -12 21 22 -2 -22 -18
right_child=1 3 5 8 10 16 17 14 -10 18 19 -13 -14 -15 -16 -17 24 -19 -20 -21 23 -23 -24 -25 -26
leaf_value=-5.183135905249848e-05 -0.00014646083898572478 0.00036856399287364596 -0.00018334956436352469 0.0011340142249833241 -0.00022030899441952473 -0.0017451891924131165 2.1546402230966701e-05 3.4889350224918819e-07 -0.00013078967988560506 0.0014127166052358578 -0.0014361362181414656 -0.0014424173125696038 0.00073449369077452148 -0.00047256244080514845 6.2390270028697269e-05 -5.082857176814117e-06 -0.00032191534428228485 0.00049121950458200355 0.00055966485062558611 -0.000685757977489074 -0.00013198572016856532 0.00030223995263933161 0.00010949761882803574 -0.00054189067101469276 -0.00085100690117607741
leaf_weight=36386 1694 77 5752 485 716 58 469 33874 75 1087 56 50 1222 684 20433 42178 51 230 57 126 68 52 50 64 50
leaf_count=36386 1694 77 5752 485 716 58 469 33874 75 1087 56 50 1222 684 20433 42178 51 230 57 126 68 52 50 64 50
internal_value=8.38242e-07 0.000561627 -1.87369e-05 0.0010133 -9.11492e-06 -0.000194852 -0.000175441 -6.10126e-06 0.000806864 0.00131204 -0.000428298 -0.000304175 0.000849824 -0.000214559 2.37473e-05 -2.67721e-05 -0.00104639 0.000180428 0.00137289 -0.00093378 -0.000140351 -0.000122981 -0.000137397 -0.000353697 -0.000614098
internal_weight=146044 4931 141113 3003 133819 7294 7135 132871 1782 1221 948 766 1707 6436 54307 78564 159 699 1144 182 1928 1796 1744 132 101
internal_count=146044 4931 141113 3003 133819 7294 7135 132871 1782 1221 948 766 1707 6436 54307 78564 159 699 1144 182 1928 1796 1744 132 101
is_linear=0
shrinkage=0.03


Tree=18
num_leaves=30
num_cat=0
split_feature=4 0 1 0 7 5 8 9 9 7 9 7 0 4 0 1 0 4 5 6 9 9 4 8 1 0 1 7 0
split_gain=0.262763 0.324202 0.175901 0.167293 0.129479 0.116092 0.128813 0.105722 0.0986591 0.135616 0.100064 0.0959635 0.0913648 0.0721806 0.0651588 0.064643 0.0628423 0.11798 0.116129 0.0566077 0.0524999 0.0447099 0.0355876 0.0295214 0.0259122 0.0229507 0.0205044 0.0177068 0.0144152
threshold=0.96347182989120495 0.19396513700485232 0.34271259605884558 0.44767388701438909 0.99999997019767772 0.87937277555465709 0.63274440169334423 0.90534809231758129 0.91607540845870983 0.99999997019767772 0.76468199491500866 0.98231342434883129 0.48028899729251867 0.56431353092193615 0.2780264019966126 0.15167891979217532 0.11118181049823762 0.013457193505018951 0.99996668100357067 0.46367146074771887 0.76468199491500866 0.77618986368179332 0.72688370943069469 0.0037349055055528884 0.27112224698066717 0.14276062697172168 0.42055551707744604 0.98231342434883129 0.15578033030033114
decision_type=2 2 2 2 2 2 2 2 2 2 2 2 2 2 2 2 2 2 2 2 2 2 2 2 2 2 2 2 2
left_child=3 8 7 4 16 11 -7 14 9 19 -11 22 21 23 -3 -9 18 -18 -1 -2 -14 -4 -5 -6 -13 27 -15 -10 -27
right_child=1 2 12 5 13 6 -8 15 25 10 -12 24 20 26 -16 -17 17 -19 -20 -21 -22 -23 -24 -25 -26 28 -28 -29 -30
leaf_value=-2.7518745358116817e-05 7.4484644347695975e-06 0.00035032380136014376 7.6649736025657215e-05 -0.00012885810368721512 -0.00018107108003474949 -0.00019261658683254607 -0.0023066017382030938 -6.3436806943235272e-06 -6.7040107899330863e-05 0.00042309821196959054 -5.6467475730407833e-05 -0.0012743005394448277 -0.00071083358033306775 0.00021533419533038364 0.00066664097076138732 0.00095466587938283299 -2.2296223462107757e-05 7.564891007216035e-05 0.00015160215083094347 0.0005096663561932255 8.7211495383973604e-05 0.0004280054969589683 -0.00064354054542581384 -0.00049740529772750554 -0.00039611875085473439 -0.00082667695667052994 -0.00013147069551873726 -0.00029335527015959774 -0.00025897113201272203
leaf_weight=70628 9000 1072 1259 3330 4064 61 50 565 1967 1443 523 88 184 533 1461 70 22397 21819 3411 207 114 455 129 298 65 63 204 387 197
leaf_count=70628 9000 1072 1259 3330 4064 61 50 565 1967 1443 523 88 184 533 1461 70 22397 21819 3411 207 114 455 129 298 65 63 204 387 197
internal_value=8.09948e-07 0.000104988 0.000307394 -1.47157e-05 -8.71031e-06 -0.00021288 -0.00117308 0.000446939 2.87214e-05 6.77183e-05 0.000294001 -0.00018251 8.61694e-05 -0.000156735 0.000533975 9.50044e-05 -2.30219e-06 2.59684e-05 -1.92259e-05 1.9071e-05 -0.000395551 0.000171691 -0.000148938 -0.000203381 -0.000921314 -0.000136812 0.000115265 -0.000105532 -0.00040833
internal_weight=146044 18967 5180 127077 123354 3723 111 3168 13787 11173 1966 3612 2012 5099 2533 635 118255 44216 74039 9207 298 1714 3459 4362 153 2614 737 2354 260
internal_count=146044 18967 5180 127077 123354 3723 111 3168 13787 11173 1966 3612 2012 5099 2533 635 118255 44216 74039 9207 298 1714 3459 4362 153 2614 737 2354 260
is_linear=0
shrinkage=0.03


Tree=19
num_leaves=30
num_cat=0
split_feature=4 3 10 7 7 3 5 9 4 6 9 7 7 5 1 9 5 9 7 10 10 10 5 6 3 1 9 6 9
split_gain=0.247277 0.362987 0.498447 0.157341 0.131642 0.119324 0.102543 0.0870133 0.0665901 0.0547279 0.0545449 0.0475308 0.047302 0.0518057 0.0516869 0.0426634 0.0388642 0.0374125 0.0356027 0.0308075 0.0304304 0.0232627 0.0738606 0.0399249 0.0223861 0.0177702 0.0152782 0.0127539 0.0116894
threshold=0.96347182989120495 1.0000000180025095e-35 0.86598008871078502 0.99999997019767772 0.77842658758163463 0.0033630261896178131 0.90465056896209728 0.91607540845870983 0.56431353092193615 0.083204794675111785 0.71575856208801281 0.31227079033851629 1.0000000180025095e-35 0.49203254282474523 0.023690915666520599 0.40672037005424505 0.54288747906684887 0.747328281402588 0.54509493708610546 0.56231361627578746 0.86598008871078502 0.29143793880939489 0.91934701800346386 1.0000000180025095e-35 0.29815253615379339 0.42055551707744604 0.51376500725746166 0.21561268717050555 0.40672037005424505
decision_type=2 2 2 2 2 2 2 2 2 2 2 2 2 2 2 2 2 2 2 2 2 2 2 2 2 2 2 2 2
left_child=3 2 6 5 17 12 10 9 16 19 -2 -11 14 -14 -1 -6 20 -4 27 -3 -5 22 -7 -23 -20 26 -10 -9 -27
right_child=1 7 4 8 15 21 -8 18 25 11 -12 -13 13 -15 -16 -17 -18 -19 24 -21 -22 23 -24 -25 -26 28 -28 -29 -30
leaf_value=-0.00010209864188603126 -3.9118053135148707e-05 -1.1461685651638641e-05 0.00031334777826076899 -0.00012816079163010808 0.0014791738536211302 -2.1506401120853852e-05 0.0013735892371592405 -3.3194440144921508e-05 0.00037566210516988059 -1.968700160392434e-05 0.00068027471041690176 -0.00056330096502646085 -1.6290397963901746e-05 0.00015344589516765467 -2.4352013902795842e-05 0.00088630223226756548 -0.0010175475157687768 0.00072788296698622244 0.00028071098369725591 0.00012905755052333416 -0.00028870353784588184 7.993510002417862e-06 0.0001824356808095351 8.0482655855292513e-05 -0.00025180096265345716 2.695612982782921e-05 3.8317089130236902e-05 0.00038873447977698941 -0.00040794886048498675
leaf_weight=13551 1808 1653 577 2249 153 13404 50 1889 213 2057 100 157 45239 1676 18121 726 56 336 70 8080 2196 12249 1814 15769 1245 118 333 66 89
leaf_count=13551 1808 1653 577 2249 153 13404 50 1889 213 2057 100 157 45239 1676 18121 726 56 336 70 8080 2196 12249 1814 15769 1245 118 333 66 89
internal_value=7.81252e-07 0.000101843 0.0003663 -1.42793e-05 0.000727906 -7.32104e-06 3.37996e-05 3.64725e-05 -0.000175044 7.41484e-05 0 -5.96146e-05 -2.93637e-05 -1.01624e-05 -5.77112e-05 0.000993067 -0.000218914 0.000469253 -0.000100257 0.000104884 -0.000208155 3.26749e-05 2.60759e-06 4.88988e-05 -0.000221154 8.31925e-05 0.000175457 -1.73967e-05 -0.000145653
internal_weight=146044 18967 3750 127077 1792 121823 1958 15217 5254 11947 1908 2214 78587 46915 31672 879 4501 913 3270 9733 4445 43236 15218 28018 1315 753 546 1955 207
internal_count=146044 18967 3750 127077 1792 121823 1958 15217 5254 11947 1908 2214 78587 46915 31672 879 4501 913 3270 9733 4445 43236 15218 28018 1315 753 546 1955 207
is_linear=0
shrinkage=0.03


Tree=20
num_leaves=28
num_cat=0
split_feature=2 8 6 9 9 5 2 9 3 6 10 6 8 9 1 6 8 1 9 10 10 10 1 10 6 3 8
split_gain=1.52896 1.06476 0.154791 0.137815 0.110652 0.0872276 0.122292 0.106132 0.0847286 0.0764787 0.134203 0.0636706 0.0608077 0.0574538 0.0545272 0.0525048 0.0518411 0.0517067 0.0484604 0.0471408 0.043166 0.11217 0.0307457 0.0305309 0.00870918 0.00511609 0.00224414
threshold=0.99999991059303295 0.028681801632046703 0.11081525683403017 0.53476554155349743 0.6759314537048341 0.79774323105812084 0.59172528982162487 0.4198573529720307 0.44666245579719549 1.0000000180025095e-35 0.32182304561138159 0.087435759603977217 0.94303026795387279 0.78400528430938732 0.084523502737283721 0.82481345534324657 0.54133760929107677 0.48309642076492315 0.95773258805274974 0.39938740432262426 0.62346088886260997 0.32182304561138159 0.75194257497787487 0.010397139005362989 0.11081525683403017 0.0037975208833813672 0.40516678988933569
decision_type=2 2 2 2 2 2 2 2 2 2 2 2 2 2 2 2 2 2 2 2 2 2 2 2 2 2 2
left_child=5 2 8 -4 25 6 9 20 19 13 -11 -6 23 -1 -5 -14 17 -8 -10 -2 21 -7 -22 -9 -18 26 -3
right_child=1 4 3 14 11 7 16 12 18 10 -12 -13 15 -15 -16 -17 24 -19 -20 -21 22 -23 -24 -25 -26 -27 -28
leaf_value=-7.776431944485205e-05 0.00019524174172034969 3.9651957852679818e-06 -0.00087228868060198399 -0.00022936141801737302 2.7677393920227955e-05 0.0001611177907530668 -1.2272778477996534e-06 -0.00011315304136620876 0.00081021621810409565 -6.5389109305572399e-05 2.5606552107990194e-05 0.0014586267052983171 -0.00015935243448604242 -0.00022703184371187553 0.00086218035651337941 -0.00098574791148239556 -0.00028943332545849069 6.3076379544778273e-05 0.00029453653485770302 0.0010624472014957526 0.00015425073550772911 0.00092837123318769712 -0.00059289053121146902 0.00010974778905673224 -9.9726245999234126e-05 -0.00044818122301734176 -0.00014656296463760564
leaf_weight=13899 67 54 79 50 59 4119 36769 1210 632 38265 23515 62 214 2826 161 111 266 16163 250 1893 81 181 110 1014 2246 60 1432
leaf_count=13899 67 54 79 50 59 4119 36769 1210 632 38265 23515 62 214 2826 161 111 266 16163 250 1893 81 181 110 1014 2246 60 1432
internal_value=1.24776e-06 0.000527856 0.000853941 0.000180656 -8.30169e-05 -1.66561e-05 -2.20836e-05 8.61857e-05 0.000921579 -4.61811e-05 -3.07054e-05 0.000786263 -6.75788e-05 -0.000103166 0.000589324 -0.000451043 1.19827e-05 1.83515e-05 0.000667499 0.00103434 0.000174127 0.000194132 -0.000260427 -1.01755e-05 -0.00012102 -0.000153039 -0.000139074
internal_weight=145788 4799 3132 290 1667 140989 133949 7040 2842 78505 61780 121 2549 16725 211 325 55444 52932 882 1960 4491 4300 191 2224 2512 1546 1486
internal_count=145788 4799 3132 290 1667 140989 133949 7040 2842 78505 61780 121 2549 16725 211 325 55444 52932 882 1960 4491 4300 191 2224 2512 1546 1486
is_linear=0
shrinkage=0.03


Tree=21
num_leaves=27
num_cat=0
split_feature=2 4 0 9 8 0 5 2 4 9 0 9 4 2 8 10 0 0 0 2 4 0 0 8 0 9
split_gain=1.43893 1.52237 0.261136 0.098753 0.116421 0.108295 0.0935805 0.113743 0.107969 0.0999252 0.075701 0.0572661 0.0569748 0.0888948 0.0463898 0.0456445 0.0402549 0.0319156 0.0560694 0.0263138 0.0177293 0.0169957 0.0146912 0.00841299 0.0117598 0.00995462
threshold=0.99999991059303295 0.73969316482543956 0.5276104509830476 0.95773258805274974 0.028681801632046703 0.05498104356229306 0.79774323105812084 0.59172528982162487 0.67285686731338512 0.4198573529720307 0.20977230370044711 0.71877494454383861 0.42730963230133062 1.0000000180025095e-35 0.94303026795387279 0.50241470336914074 0.26591040194034582 0.12362522631883623 0.30328828096389776 0.65939095616340648 0.42327922582626348 0.59200671315193187 0.59200671315193187 0.18696586787700656 0.30582523345947271 0.66053089499473583
decision_type=2 2 2 2 2 2 2 2 2 2 2 2 2 2 2 2 2 2 2 2 2 2 2 2 2 2
left_child=2 20 6 4 5 -3 7 8 -1 16 -9 -6 13 15 -11 -4 -8 -5 -19 -14 23 -21 -15 24 -2 -25
right_child=1 3 12 17 11 -7 9 10 -10 14 -12 -13 19 22 -16 -17 -18 18 -20 21 -22 -23 -24 25 -26 -27
leaf_value=-2.9761937053142778e-05 -3.1790730253144161e-05 0.0014889895442851497 -0.0017060410475476849 0.00076490247022441835 -0.00017867185830268886 0.00096374501950219327 0.0001946930183605311 -8.094473375968599e-06 -0.00014834117135186778 -5.8944250094940415e-06 6.8795283818272955e-05 0.0010228157505185671 -0.0013076620566558567 -3.6970376171298009e-05 -0.0003962816043498144 -0.00050425474537604375 -0.00036520151455007123 -0.00035361966090166939 0.00074066891886929358 -0.00032658622472978542 0.00028536882627546676 -0.00097794402644715535 -0.00033189140574120264 -0.00013476370977864575 -0.00039610114672936021 0.00022442491969368498
leaf_weight=70366 140 469 59 142 105 1918 4356 38469 7685 2185 16422 52 92 307 316 74 115 91 76 105 82 78 360 1387 270 67
leaf_count=70366 140 469 59 142 105 1918 4356 38469 7685 2185 16422 52 92 307 316 74 115 91 76 105 82 78 360 1387 270 67
internal_value=1.20975e-06 0.000512078 -1.61583e-05 0.000953488 0.0010159 0.00106826 -1.25573e-05 -1.81949e-05 -4.1476e-05 9.45085e-05 1.48544e-05 0.000200575 -0.000481999 -0.000347532 -5.6433e-05 -0.0010608 0.000179613 0.000429773 0.000126572 -0.000862004 -0.000133541 -0.000620981 -0.000200671 -0.000153593 -0.000279056 -0.000116135
internal_weight=145788 4799 140989 2853 2544 2387 139914 132942 78051 6972 54891 157 1075 800 2501 133 4471 309 167 275 1946 183 667 1864 410 1454
internal_count=145788 4799 140989 2853 2544 2387 139914 132942 78051 6972 54891 157 1075 800 2501 133 4471 309 167 275 1946 183 667 1864 410 1454
is_linear=0
shrinkage=0.03


Tree=22
num_leaves=31
num_cat=0
split_feature=10 5 9 7 8 7 10 9 9 6 1 5 3 8 10 6 10 8 3 1 1 7 8 3 6 9 9 3 9 9
split_gain=0.144904 0.0964439 0.10909 0.0670924 0.0638141 0.0609395 0.112806 0.0798708 0.0534682 0.0515853 0.0499143 0.058411 0.0483187 0.0470291 0.0450606 0.0435563 0.0421418 0.0409613 0.0379368 0.0346081 0.028515 0.0303486 0.0283901 0.02323 0.0213489 0.0203324 0.0162849 0.0156228 0.0149313 0.0139439
threshold=0.31435588002204901 0.51385653018951427 0.40890596807003027 0.93317365646362316 0.50250044465065014 0.43559740483760839 0.9957776963710786 0.86176350712776195 0.35015143454074865 0.06821859255433084 0.96962743997573864 0.40254792571067816 0.0073266569525003442 0.30397222936153417 0.59897929430007946 0.35293401777744299 0.12828137725591662 0.78085938096046459 0.072537276893854155 0.92501372098922741 0.91964149475097667 0.99999997019767772 0.93615955114364635 0.2212798744440079 0.46043311059474951 0.36051127314567571 0.5484047830104829 0.028959509916603569 0.88520085811615001 0.90534809231758129
decision_type=2 2 2 2 2 2 2 2 2 2 2 2 2 2 2 2 2 2 2 2 2 2 2 2 2 2 2 2 2 2
left_child=1 4 3 15 20 6 8 9 13 23 18 -12 -10 -2 -11 -3 22 -18 -8 25 24 -22 -4 -7 -1 -6 -21 29 -29 -9
right_child=5 2 16 -5 19 7 10 27 12 14 11 -13 -14 -15 -16 -17 17 -19 -20 26 21 -23 -24 -25 -26 -27 -28 28 -30 -31
leaf_value=-4.3105033780993453e-05 5.6496806962115296e-05 0.00053252290887400926 -8.6795754748189807e-05 -0.00082594514016450188 -5.0299856803861225e-05 2.2607938734838059e-06 6.9746706078148944e-05 -7.7983605759742824e-05 -3.4862947712756287e-05 0 7.7410711817597655e-06 -0.00051755450450718921 4.1411877336750423e-05 0.0003023693645752885 -0.00033901949925168196 9.6481810099915738e-05 3.7631551293970482e-05 0.00074015333316841008 0.00014792274077083515 -0.00028532433840047316 3.4514234404717237e-05 -0.00021358500544059337 -0.00033823903964454302 8.1936261036032345e-05 -0.00017018853038289525 -0.00013545208909258343 4.5230731300736106e-05 -0.00034750624940150512 -0.00014762531463460493 0.00037952931592785596
leaf_weight=24733 4092 215 3452 69 4850 17094 15051 197 19905 724 832 243 11953 859 705 8175 456 92 9134 1336 6721 473 472 4105 1270 5620 132 431 2314 83
leaf_count=24733 4092 215 3452 69 4850 17094 15051 197 19905 724 832 243 11953 859 705 8175 456 92 9134 1336 6721 473 472 4105 1270 5620 132 431 2314 83
internal_value=1.16725e-06 -3.55727e-05 3.65199e-05 0.000100037 -5.62935e-05 2.55208e-05 4.16074e-05 -1.32848e-05 8.01448e-06 5.94243e-06 9.04402e-05 -0.000108247 -6.15072e-06 9.97669e-05 -0.000168314 0.000108019 -8.2954e-05 0.00016116 9.93961e-05 -0.000115886 -3.47726e-05 1.77821e-05 -0.000117813 1.78311e-05 -4.94279e-05 -9.62946e-05 -0.000253557 -0.000158098 -0.000180114 4.70129e-05
internal_weight=145788 58066 12931 8459 45135 87722 62069 25653 36809 22628 25260 1075 31858 4951 1429 8390 4472 548 24185 11938 33197 7194 3924 21199 26003 10470 1468 3025 2745 280
internal_count=145788 58066 12931 8459 45135 87722 62069 25653 36809 22628 25260 1075 31858 4951 1429 8390 4472 548 24185 11938 33197 7194 3924 21199 26003 10470 1468 3025 2745 280
is_linear=0
shrinkage=0.03


Tree=23
num_leaves=28
num_cat=0
split_feature=2 4 3 5 2 4 9 10 3 8 1 9 9 10 10 9 4 9 1 10 1 3 8 9 3 9 5
split_gain=1.35472 1.42988 0.250569 0.0759746 0.10414 0.122594 0.0899175 0.0709682 0.0631281 0.0525842 0.0461345 0.0452271 0.0409158 0.0393081 0.105059 0.0355537 0.032479 0.0289613 0.028295 0.0282235 0.0217521 0.0207296 0.0163588 0.0243271 0.00895104 0.00750001 0.00340707
threshold=0.99999991059303295 0.92131164669990551 0.0037975208833813672 0.79774323105812084 0.61257821321487438 0.67285686731338512 0.4198573529720307 0.64834377169609081 0.0014240462915040555 0.94303026795387279 0.49343876540660864 0.95773258805274974 0.97673419117927562 0.62346088886260997 0.36882044374942785 0.5190672278404237 0.42327922582626348 0.25603476166725164 0.75194257497787487 0.010397139005362989 0.37452277541160589 0.31549428403377539 0.028681801632046703 0.40672037005424505 0.013095965608954431 0.38133393228054052 0.22587165981531146
decision_type=2 2 2 2 2 2 2 2 2 2 2 2 2 2 2 2 2 2 2 2 2 2 2 2 2 2 2
left_child=3 16 22 4 5 8 13 21 -1 19 12 -9 -6 14 -5 -7 25 -12 -15 -8 -11 -4 23 -3 -18 -2 -27
right_child=1 2 7 6 10 15 9 11 -10 20 17 -13 -14 18 -16 -17 24 -19 -20 -21 -22 -23 -24 -25 -26 26 -28
leaf_value=-4.7757110915946353e-05 -0.0004031419037519224 0.0017031358414653904 -0.00043440363537100985 0.00015097082575348038 3.9698825617289571e-08 -8.2407403940332584e-05 -0.00010681618498645586 0.00083529564160324135 1.2865833780103306e-05 -0.00029204339458943277 -0.00014305902648450305 0.00039396369141655145 -0.00016756763283723509 0.00014309250495177505 0.00095578457222984413 -0.00020903010473151859 2.7372989006862377e-05 6.3852898693774683e-05 -0.00057237473179774009 0.0001075373581678086 -0.00099162430739608643 0.00032107824532613243 0.00068884445493815874 0.0012363796002105533 0.0005660353189821855 -0.000138433484069158 7.594264415867349e-05
leaf_weight=51456 109 161 51 4147 35212 3780 1210 1221 22000 271 626 287 1360 81 153 4491 67 15024 110 1014 54 88 62 928 70 1704 51
leaf_count=51456 109 161 51 4147 35212 3780 1210 1221 22000 271 626 287 1360 81 153 4491 67 15024 110 1014 54 88 62 928 70 1704 51
internal_value=1.13129e-06 0.000496827 0.000934853 -1.57203e-05 -2.07868e-05 -4.19399e-05 8.02522e-05 0.000693446 -2.95598e-05 -6.12077e-05 1.22602e-05 0.000753323 -6.11151e-06 0.00016121 0.000180326 -0.000151526 -0.000114183 5.53839e-05 -0.000253342 -7.73555e-06 -0.000417779 2.22068e-05 0.00127759 0.00130829 0.000324696 -0.000148064 -0.00013049
internal_weight=145788 4799 2798 140989 133949 81727 7040 1647 73456 2549 52222 1508 36572 4491 4300 8271 2001 15650 191 2224 325 139 1151 1089 137 1864 1755
internal_count=145788 4799 2798 140989 133949 81727 7040 1647 73456 2549 52222 1508 36572 4491 4300 8271 2001 15650 191 2224 325 139 1151 1089 137 1864 1755
is_linear=0
shrinkage=0.03


Tree=24
num_leaves=29
num_cat=0
split_feature=4 0 7 6 7 3 4 0 5 0 5 10 0 0 1 3 0 6 7 10 0 1 6 5 4 3 10 1
split_gain=0.151843 0.217523 0.20033 0.130154 0.0992553 0.133243 0.224678 0.089385 0.07073 0.13799 0.121129 0.0602159 0.0530432 0.0503343 0.085841 0.0481309 0.0412993 0.0383418 0.0274125 0.0272619 0.0641358 0.0322838 0.0267982 0.0218019 0.0215831 0.0239608 0.0208132 0.0152004
threshold=0.31818233430385595 0.029469557106494907 0.99999997019767772 0.091949872672557845 0.99999997019767772 0.052917435765266425 0.98191881179809581 0.5551418960094453 0.7256135642528535 0.25510381162166601 0.96406075358390819 0.69523778557777416 0.48028899729251867 0.20977230370044711 0.68893086910247814 0.85683345794677745 0.13633313030004504 0.33368702232837683 0.62599641084671032 0.86598008871078502 0.099637560546398177 0.35385975241661077 0.14940186589956286 0.50061225891113292 0.5462690293788911 0.00069574796361848723 0.1485891938209534 0.058243256062269218
decision_type=2 2 2 2 2 2 2 2 2 2 2 2 2 2 2 2 2 2 2 2 2 2 2 2 2 2 2 2
left_child=2 3 8 24 13 6 -6 19 11 17 -11 16 -13 26 -15 -7 -1 -10 23 21 -21 -4 -20 -5 27 -26 -3 -2
right_child=1 4 7 18 5 15 -8 -9 9 10 -12 12 -14 14 -16 -17 -18 -19 22 20 -22 -23 -24 -25 25 -27 -28 -29
leaf_value=-5.594832032416811e-05 0.00013647360181769696 -3.0147619932216413e-05 1.220068134732977e-05 -0.00017879003217919357 -5.171077815933494e-05 0.00019225765106296023 0.00084920904346951062 -0.0011827229625026396 0.00081641896104227144 5.9268968311768505e-05 -0.00084728645646875423 2.3211068946029152e-05 -0.00017644267702557163 0.00019652424454044023 3.4080121863209486e-06 -0.00023912286549111606 -2.4483809927212424e-06 9.9914120526502684e-05 -0.00015384110758633084 -0.00020632711252176224 -0.00067528911228775898 -0.000230391240919558 0.00065573692891995406 -7.1243023731218497e-06 8.6302147921479049e-05 -2.0228395851155234e-05 6.554146979636048e-05 -1.2083019748609663e-05
leaf_weight=36989 2124 2446 823 5019 375 794 708 88 69 254 265 29352 1246 6831 3019 325 20197 7460 63 1497 330 1155 75 810 2419 8829 11401 825
leaf_count=36989 2124 2446 823 5019 375 794 708 88 69 254 265 29352 1246 6831 3019 325 20197 7460 63 1497 330 1155 75 810 2419 8829 11401 825
internal_value=1.09928e-06 4.61675e-05 -1.96877e-05 -2.7599e-05 0.000103715 0.000296926 0.00053451 -0.000230687 -1.10847e-05 7.39589e-05 -0.000397911 -1.89157e-05 1.49823e-05 8.56335e-05 0.00013764 6.42775e-05 -3.71057e-05 0.00010689 -0.000145229 -0.000207849 -0.000292707 -0.000127942 0.00026458 -0.00015545 2.16304e-05 2.41596e-06 4.84217e-05 9.38978e-05
internal_weight=145788 46063 99725 20164 25899 2202 1083 3893 95832 8048 519 87784 30598 23697 9850 1119 57186 7529 5967 3805 1827 1978 138 5829 14197 11248 13847 2949
internal_count=145788 46063 99725 20164 25899 2202 1083 3893 95832 8048 519 87784 30598 23697 9850 1119 57186 7529 5967 3805 1827 1978 138 5829 14197 11248 13847 2949
is_linear=0
shrinkage=0.03


Tree=25
num_leaves=24
num_cat=0
split_feature=2 4 0 0 3 7 2 9 10 6 9 0 9 2 2 4 7 10 2 3 3 7 9
split_gain=1.17561 1.28262 0.267836 0.182237 0.189752 0.15985 0.216248 0.117725 0.10205 0.0968857 0.0905686 0.0822651 0.0775976 0.0655858 0.0597418 0.0619084 0.04051 0.0276603 0.0181851 0.0150034 0.0127171 0.00914655 0.00445418
threshold=0.99999991059303295 0.74611228704452526 0.5276104509830476 0.77249929308891307 0.51309779286384594 0.69806149601936351 0.93917012214660656 0.72495910525321972 0.77694842219352733 0.21752026677131656 0.34627203643321997 0.090894088149070754 0.95773258805274974 0.2627608478069306 0.42528741061687475 0.6619364619255067 0.66077926754951488 0.95752918720245372 0.80229535698890697 0.067745454609394087 0.34617450833320623 0.48326554894447332 0.68443113565444957
decision_type=2 2 2 2 2 2 2 2 2 2 2 2 2 2 2 2 2 2 2 2 2 2 2
left_child=2 19 5 4 9 8 7 -7 10 -3 -1 -8 -6 -10 16 18 17 -4 -16 21 -17 22 -2
right_child=1 3 14 -5 12 6 11 -9 13 -11 -12 -13 -14 -15 15 20 -18 -19 -20 -21 -22 -23 -24
leaf_value=2.4426322993742662e-05 -0.0001455855189119713 0.0010230871802191207 -0.00022185168324440687 -0.00070430193375353289 0.00072161214207011354 -7.7903681446765298e-05 0.00094111824721892525 -0.00028025990214524738 -5.2624591735327861e-05 0.0020970259181395628 -4.2339935959354544e-05 0.00013717617765935565 0.00010598492171741639 5.2731575913633061e-05 -0.00028997791844992757 -0.00099996384171499413 -0.001349443448717053 -0.0008630562257074683 6.1091884270114788e-05 0.00024654627847402188 -0.0003835265169089491 -0.00046732496913159038 4.303897234496634e-05
leaf_weight=27219 1683 1811 123 63 634 11592 226 3361 6217 85 55459 253 277 35826 309 117 97 158 212 84 67 86 95
leaf_count=27219 1683 1811 123 63 634 11592 226 3361 6217 85 55459 253 277 35826 309 117 97 158 212 84 67 86 95
internal_value=-1.55343e-07 0.000460644 -1.58962e-05 0.000864037 0.000900329 -1.22425e-05 -0.000103326 -0.00012359 -9.48339e-07 0.00107292 -2.03231e-05 0.000522868 0.000537749 3.70809e-05 -0.000485915 -0.000315565 -0.000795531 -0.000593238 -0.000141383 -0.000132151 -0.000792126 -0.000150839 -0.000133818
internal_weight=146054 4818 141236 2870 2807 140153 15432 14953 124721 1896 82678 479 911 42043 1083 705 378 281 521 1948 184 1864 1778
internal_count=146054 4818 141236 2870 2807 140153 15432 14953 124721 1896 82678 479 911 42043 1083 705 378 281 521 1948 184 1864 1778
is_linear=0
shrinkage=0.03


Tree=26
num_leaves=24
num_cat=0
split_feature=2 4 0 0 3 7 2 10 6 0 10 7 2 2 4 7 0 3 2 3 3 7 10
split_gain=1.10633 1.20696 0.252381 0.171663 0.178328 0.151375 0.164814 0.107812 0.0909652 0.0897681 0.0838193 0.0924901 0.0662494 0.0562069 0.0583187 0.0379256 0.0279955 0.0272098 0.0171382 0.014143 0.0118121 0.00858098 0.00216578
threshold=0.99999991059303295 0.74611228704452526 0.5276104509830476 0.77249929308891307 0.51309779286384594 0.78831860423088085 0.93917012214660656 0.89173704385757457 0.21752026677131656 0.090894088149070754 0.89173704385757457 0.43559740483760839 1.0000000180025095e-35 0.42528741061687475 0.6619364619255067 0.66077926754951488 0.25510381162166601 0.0073266569525003442 0.80229535698890697 0.067745454609394087 0.34617450833320623 0.48326554894447332 0.80300900340080272
decision_type=2 2 2 2 2 2 2 2 2 2 2 2 2 2 2 2 2 2 2 2 2 2 2
left_child=2 19 5 4 8 10 7 -7 -3 -8 12 -12 -1 15 18 17 -6 -4 -15 21 -16 22 -2
right_child=1 3 13 -5 16 6 9 -9 -10 -11 11 -13 -14 14 20 -17 -18 -19 -20 -21 -22 -23 -24
leaf_value=3.0661696083447166e-05 -0.00015967498967372562 0.00099239625512608908 -0.0003918797862561409 -0.00068320634944597628 0.00064753023436842604 -3.5550699512598843e-05 0.00098818616875466069 -0.00021783853925605719 0.0020341890691694745 5.5356519069361064e-05 6.2045342850382002e-05 -4.8550647834899408e-05 -3.1405713843648372e-05 -0.00028128139881441029 -0.00096999053925871396 -0.0013090018368873797 0.00027754383725940709 -0.0011392379518274287 5.925998906959996e-05 0.00023915869539650866 -0.00037203787048742864 -0.00045332150648816328 -7.9600871569788614e-05
leaf_weight=19760 1076 1811 216 63 593 5526 179 6301 85 208 28440 8916 70823 309 117 97 318 65 212 84 67 86 702
leaf_count=19760 1076 1811 216 63 593 5526 179 6301 85 208 28440 8916 70823 309 117 97 318 65 212 84 67 86 702
internal_value=-1.51307e-07 0.000446864 -1.54219e-05 0.000838182 0.000873419 -1.18745e-05 -0.000112786 -0.000132922 0.00104079 0.000494714 -2.21729e-06 3.55683e-05 -1.7833e-05 -0.000471682 -0.000306233 -0.00077216 0.000521718 -0.000575772 -0.00013697 -0.000128141 -0.000768874 -0.000146315 -0.000129753
internal_weight=146054 4818 141236 2870 2807 140153 12214 11827 1896 387 127939 37356 90583 1083 705 378 911 281 521 1948 184 1864 1778
internal_count=146054 4818 141236 2870 2807 140153 12214 11827 1896 387 127939 37356 90583 1083 705 378 911 281 521 1948 184 1864 1778
is_linear=0
shrinkage=0.03


Tree=27
num_leaves=26
num_cat=0
split_feature=2 8 0 0 7 2 9 10 0 0 9 10 9 7 7 2 7 3 9 9 2 8 7 8 10
split_gain=1.04097 0.728146 0.284263 0.237831 0.142408 0.155221 0.133028 0.101415 0.0976851 0.0843698 0.0817179 0.0794213 0.0847926 0.0793825 0.0542826 0.0528819 0.0354988 0.02884 0.02629 0.0235127 0.0193136 0.00820699 0.00797358 0.00254203 0.00165859
threshold=0.99999991059303295 0.13670666515827182 0.77249929308891307 0.5276104509830476 0.78831860423088085 0.93917012214660656 0.95773258805274974 0.89173704385757457 0.086956705898046507 0.090894088149070754 0.66538745164871227 0.77694842219352733 0.34627203643321997 0.43559740483760839 0.48326554894447332 0.42528741061687475 0.66077926754951488 0.81506657600402843 0.67881867289543163 0.46996617317199713 0.84567788243293773 0.5916050672531129 0.048904558643698699 0.98873808979988109 0.91368004679679882
decision_type=2 2 2 2 2 2 2 2 2 2 2 2 2 2 2 2 2 2 2 2 2 2 2 2 2
left_child=3 2 6 4 11 7 8 -6 -2 -7 22 12 -1 -13 24 16 18 -8 -5 21 -21 -17 23 -3 -4
right_child=1 10 14 15 5 9 17 -9 -10 -11 -12 13 -14 -15 -16 19 -18 -19 -20 20 -22 -23 -24 -25 -26
leaf_value=2.3486345151194001e-05 0.0011586487934582808 4.1644589416030296e-05 0 -0.00040366050079912235 -3.4484196141699661e-05 0.00095855714113522131 0.00077994796742111611 -0.00021130348976901127 0.00072482252652404807 5.3696621384537441e-05 0.00075251096691537531 5.2219182424747816e-05 -4.0460288788593424e-05 -4.46784143150503e-05 -0.0013356619476480828 6.7554472553094702e-05 -0.0012697722138712293 0 -0.0012136282745614914 -0.00056898133868228012 -0.00013328626091291544 -0.00029128227796581076 -0.00044538031627882913 -0.00012755483143156481 -0.00023165936593819351
leaf_weight=27868 647 57 58 231 5526 179 53 6301 2086 208 98 34069 56237 9765 50 159 97 243 50 301 161 84 79 1390 57
leaf_count=27868 647 57 58 231 5526 179 53 6301 2086 208 98 34069 56237 9765 50 159 97 243 50 301 161 84 79 1390 57
internal_value=-1.48633e-07 0.000433459 0.000696533 -1.49619e-05 -1.15176e-05 -0.000109395 0.000762986 -0.000128942 0.000828661 0.000480113 -8.21035e-05 -2.15007e-06 -1.9236e-05 3.05646e-05 -0.000504944 -0.000457876 -0.000749494 0.000146394 -0.000558836 -0.00029718 -0.000423702 -4.42161e-05 -0.000137714 -0.000118814 -0.000116851
internal_weight=146054 4818 3194 141236 140153 12214 3029 11827 2733 387 1624 127939 84105 43834 165 1083 378 296 281 705 462 243 1526 1447 115
internal_count=146054 4818 3194 141236 140153 12214 3029 11827 2733 387 1624 127939 84105 43834 165 1083 378 296 281 705 462 243 1526 1447 115
is_linear=0
shrinkage=0.03


Tree=28
num_leaves=29
num_cat=0
split_feature=2 4 7 9 10 2 8 2 9 8 2 4 9 6 10 1 6 6 9 2 10 7 7 9 9 4 9 1
split_gain=0.979511 1.08945 0.156574 0.151207 0.114978 0.111819 0.0755445 0.0682976 0.0814166 0.0598297 0.0579755 0.0926851 0.0643939 0.0627679 0.0606063 0.059086 0.0478114 0.0471184 0.028923 0.0272755 0.0143649 0.0106065 0.0290561 0.0134188 0.00941577 0.0112511 0.0153356 0.00560173
threshold=0.99999991059303295 0.74611228704452526 0.99999997019767772 0.95773258805274974 0.89173704385757457 0.89268049597740184 0.0037349055055528884 0.82052606344223034 0.78400528430938732 0.032230999320745475 0.53737789392471325 0.6619364619255067 0.34627203643321997 0.46043311059474951 0.90936231613159191 0.035487864166498191 0.19201848655939105 0.0046567101962864408 0.40672037005424505 0.95322608947753917 0.49555057287216192 0.55555564165115368 0.33955793082714086 0.99999600648880016 0.38961032032966619 0.44311873614788061 0.77204373478889476 0.59298220276832592
decision_type=2 2 2 2 2 2 2 2 2 2 2 2 2 2 2 2 2 2 2 2 2 2 2 2 2 2 2 2
left_child=2 24 10 9 5 6 -4 8 -6 18 11 12 -1 -13 15 -12 -11 -16 -3 -9 -7 22 -5 -23 27 26 -26 -2
right_child=1 3 4 21 7 20 -8 19 -10 16 14 13 -14 -15 17 -17 -18 -19 -20 -21 -22 23 -24 -25 25 -27 -28 -29
leaf_value=2.6131031821697632e-05 -0.00059069400877531891 0.0012855180135176586 1.1397233238175758e-05 0 -0.0002278949566947143 0.00043536774222989997 -0.00040141259019392512 -8.2476282498483185e-05 -0.00057771818698133044 -7.7266336563671113e-05 -7.5586518716940391e-05 -0.00016615304713381171 -3.5995812097178103e-05 0.00018465798399526888 2.0884360654709282e-05 1.2316092109952646e-05 0.0010306496717437299 0.0001071849161043475 0.00087077501010893535 0.0003883095054387188 0.0012501853610589145 0.00035427040359535105 0.00090400214137228855 -0.0001804602908939773 -0.00010348805929878868 0.00027244004828297488 -0.00060783757266782339 -8.5464681390720303e-05
leaf_weight=22645 66 200 2622 82 2475 50 468 592 817 103 9443 5597 44359 492 17756 25255 50 8467 2199 136 62 66 54 116 1709 63 59 51
leaf_count=22645 66 200 2622 82 2475 50 468 592 817 103 9443 5597 44359 492 17756 25255 50 8467 2199 136 62 66 54 116 1709 63 59 51
internal_value=-1.45707e-07 0.000420467 -1.45156e-05 0.000792261 -0.000150603 -1.54799e-05 -5.01655e-05 -0.000257482 -0.000315639 0.000869411 -7.15942e-06 -2.51885e-05 -1.49543e-05 -0.000137312 1.44226e-05 -1.15201e-05 0.000265639 4.88642e-05 0.000906654 1.39365e-06 0.000913902 0.000163613 0.000364287 0 -0.000125772 -0.000106823 -0.000122049 -0.000396346
internal_weight=146054 4818 141236 2870 7222 3202 3090 4020 3292 2552 134014 73093 67004 6089 60921 34698 153 26223 2399 728 112 318 136 182 1948 1831 1768 117
internal_count=146054 4818 141236 2870 7222 3202 3090 4020 3292 2552 134014 73093 67004 6089 60921 34698 153 26223 2399 728 112 318 136 182 1948 1831 1768 117
is_linear=0
shrinkage=0.03


Tree=29
num_leaves=31
num_cat=0
split_feature=4 3 7 3 7 10 4 10 10 3 1 7 1 6 9 8 8 9 1 6 7 9 7 1 6 4 1 6 7 7
split_gain=0.148061 0.214071 0.121224 0.178954 0.10757 0.100516 0.098434 0.0935288 0.0827497 0.0754774 0.0737278 0.0487716 0.0562645 0.047944 0.0401448 0.0384981 0.0359359 0.032477 0.0343452 0.0404013 0.0401594 0.0308897 0.0365877 0.0312788 0.0293222 0.0276153 0.0212267 0.0195977 0.00818764 0.00383373
threshold=0.91243502497673046 0.85683345794677745 0.99999997019767772 0.040268849581480033 0.78831860423088085 0.74618756771087658 0.0088938721455633658 0.28368139266967779 0.76751056313514721 0.0037975208833813672 0.99998188018798839 0.0022972691804170613 0.023690915666520599 0.56259977817535411 0.77618986368179332 0.078136365860700621 0.078136365860700621 0.464820146560669 0.33922758698463445 0.065972737967968001 0.51478847861289989 0.94180077314376842 0.13143071532249453 0.82938531041145336 0.057388495653867728 0.048864649608731277 0.64758694171905529 1.0000000180025095e-35 0.98231342434883129 0.69077694416046154
decision_type=2 2 2 2 2 2 2 2 2 2 2 2 2 2 2 2 2 2 2 2 2 2 2 2 2 2 2 2 2 2
left_child=4 2 5 7 9 13 14 -4 -5 11 -7 12 -1 -2 16 -13 -6 27 20 -20 -19 23 -23 -11 25 -8 -26 29 -16 -3
right_child=1 17 3 8 6 10 24 -9 -10 21 -12 15 -14 -15 28 -17 -18 18 19 -21 -22 22 -24 -25 26 -27 -28 -29 -30 -31
leaf_value=-9.6954855466522877e-05 -2.6927494550594075e-05 0.00064117932514395112 -0.00014017003387135313 0.00059058855451595601 -0.00014903075392857409 0.00018027067945066512 0.00035747025689942191 0.00067320069900390737 -1.2022450232367025e-05 3.5241270262310582e-05 -0.00042984868109633193 1.4146984472453688e-05 -1.6106532239712113e-05 0.00058964912215225492 -0.00030653463660126402 -5.0965250155406186e-05 -0.00045218797442603156 1.4005494740171649e-05 -0.00015692266011432666 -0.00064546888166514406 -0.00017064896903165068 0.00044079718652643811 0 -4.1726351450530001e-05 -0.00086192995542660339 4.5419923013786667e-06 -0.00013591653683859225 -0.00012056872992414153 -0.00066991216421277081 0.00020628379355309241
leaf_weight=13560 4724 83 137 245 4512 7038 214 1108 1203 34873 180 33224 18326 116 139 10834 395 2496 745 202 1809 353 318 5468 54 3240 154 62 186 56
leaf_count=13560 4724 83 137 245 4512 7038 214 1108 1203 34873 180 33224 18326 116 139 10834 395 2496 745 202 1809 353 318 5468 54 3240 154 62 186 56
internal_value=-1.39268e-07 7.52261e-05 0.000134678 0.000317124 -1.22623e-05 9.36796e-05 -0.000112854 0.000581284 8.79007e-05 -4.58703e-06 0.000164634 -2.23194e-05 -5.05828e-05 -1.15183e-05 -0.000196367 -1.79631e-06 -0.000174054 -8.50465e-05 -9.97952e-05 -0.000264357 -6.28933e-05 2.81758e-05 0.000230576 2.47343e-05 5.64587e-06 2.72867e-05 -0.000339141 0.000285267 -0.000523868 0.000487811
internal_weight=146054 20204 14751 2693 125850 12058 8894 1245 1448 116956 7218 75944 31886 4840 5232 44058 4907 5453 5252 947 4305 41012 671 40341 3662 3454 208 201 325 139
internal_count=146054 20204 14751 2693 125850 12058 8894 1245 1448 116956 7218 75944 31886 4840 5232 44058 4907 5453 5252 947 4305 41012 671 40341 3662 3454 208 201 325 139
is_linear=0
shrinkage=0.03


Tree=30
num_leaves=27
num_cat=0
split_feature=2 4 7 3 3 10 2 1 7 10 10 10 2 2 4 7 8 1 1 1 7 4 7 6 7 10
split_gain=1.04164 1.09237 0.238318 0.14648 0.0875004 0.075312 0.0910501 0.0667464 0.0499832 0.0492603 0.0467007 0.0440219 0.0436797 0.0721666 0.0515995 0.0414315 0.0405011 0.0352608 0.0422451 0.0299585 0.0178001 0.0117307 0.0108903 0.00811842 0.00658536 0.00432637
threshold=0.99999991059303295 0.72042924165725719 0.99999997019767772 0.0037975208833813672 0.0033630261896178131 0.86598008871078502 0.57367917895317089 0.53331086039543163 0.43559740483760839 0.39938740432262426 0.30272807180881506 0.50000011920928966 0.20629097521305087 0.1116434969007969 0.97333240509033214 0.026495190337300304 0.017055916599929336 0.98785504698753368 0.73914757370948803 0.3816667795181275 0.39352513849735266 0.41562381386756903 0.28414262831211096 0.074599709361791625 0.18562263250350955 0.7857159972190858
decision_type=2 2 2 2 2 2 2 2 2 2 2 2 2 2 2 2 2 2 2 2 2 2 2 2 2 2
left_child=2 21 4 16 11 6 7 -4 10 -10 -6 15 13 -7 -14 -1 23 18 -5 -8 -13 22 24 -3 -2 -24
right_child=1 3 5 17 8 12 19 -9 9 -11 -12 20 14 -15 -16 -17 -18 -19 -20 -21 -22 -23 25 -25 -26 -27
leaf_value=-7.0044236300853961e-05 -0.00012212717714628525 0.0011298998745707823 -1.5940913818964834e-05 0.00061027555448357274 -1.6731708713241763e-06 -0.0002863713870060161 0.00050379444417385363 -0.00034380106976826747 0.00012441690355897758 -6.1034081015499504e-05 6.2269503983169376e-05 1.8233832488311694e-05 -8.875414496348334e-05 -0.00088208194864903297 -0.0003355756165706936 -1.4068296563611045e-05 0.0002577375180372938 -2.4571171081903892e-05 0.0014171893972537068 8.6583793209414256e-05 -3.2896823758159516e-05 0.000215118775705609 -0.0006577163120797515 0.00073827974446169975 0.00019740045778348115 -0.00017233511942806579
leaf_weight=23351 1710 1044 1275 1594 15797 778 224 1024 1503 8771 28961 22711 1668 252 1474 24601 64 65 67 584 8373 86 52 100 53 57
leaf_count=23351 1710 1044 1275 1594 15797 778 224 1024 1503 8771 28961 22711 1668 252 1474 24601 64 65 67 584 8373 86 52 100 53 57
internal_value=2.66184e-06 0.000433052 -1.2213e-05 0.000799388 -3.11339e-06 -0.000179399 -6.62801e-05 -0.000163287 2.59056e-05 -3.36112e-05 3.96344e-05 -2.3357e-05 -0.000262918 -0.000435102 -0.000205507 -4.13893e-05 0.00105633 0.000617771 0.000644714 0.000206007 4.36435e-06 -0.000114373 -0.000131123 0.00109836 -0.000110809 -0.000431781
internal_weight=146239 4892 141347 2934 134068 7279 3107 2299 55032 10274 44758 79036 4172 1030 3142 47952 1208 1726 1661 808 31084 1958 1872 1144 1763 109
internal_count=146239 4892 141347 2934 134068 7279 3107 2299 55032 10274 44758 79036 4172 1030 3142 47952 1208 1726 1661 808 31084 1958 1872 1144 1763 109
is_linear=0
shrinkage=0.03


Tree=31
num_leaves=29
num_cat=0
split_feature=4 3 10 0 3 7 7 5 7 0 9 7 0 0 0 10 10 9 9 0 7 0 10 4 5 7 4 9
split_gain=0.156706 0.240246 0.323206 0.138041 0.115093 0.0782825 0.0748886 0.053256 0.0532158 0.0789626 0.0521702 0.0791627 0.063339 0.0685392 0.0526154 0.0456686 0.0358229 0.0306803 0.0287351 0.028376 0.0279458 0.0634332 0.0420543 0.0265933 0.0260889 0.0248991 0.0204714 0.019143
threshold=0.96347182989120495 1.0000000180025095e-35 0.84943568706512462 0.5276104509830476 0.0035708658397197728 0.99999997019767772 0.18777916580438617 0.94853985309600841 0.95000019669532787 0.20084044337272647 0.91607540845870983 0.54008126258850109 0.5551418960094453 0.30328828096389776 0.048384055495262153 0.50241470336914074 0.091922048479318633 0.71575856208801281 0.40672037005424505 0.20659845322370532 0.45262821018695837 0.31140993535518652 0.30272807180881506 0.27229496836662298 0.832239329814911 0.05091428570449353 0.26347245275974279 0.66538745164871227
decision_type=2 2 2 2 2 2 2 2 2 2 2 2 2 2 2 2 2 2 2 2 2 2 2 2 2 2 2 2
left_child=3 2 7 4 5 15 24 17 9 -4 12 19 13 -3 -13 -1 -8 -2 -10 -12 22 -22 -6 -7 26 -14 -5 -18
right_child=1 10 8 6 20 23 16 -9 18 -11 11 14 25 -15 -16 -17 27 -19 -20 -21 21 -23 -24 -25 -26 -27 -28 -29
leaf_value=-3.8544321389175705e-05 -2.2695631747778011e-05 4.0290769969082235e-05 0.00014155480489284758 -0.0001116069314848278 3.6638916969789678e-06 -0.00020384305115129142 -0.0012615236620851127 0.00097717486153894775 0.0011847323130553763 0.00068431020961064485 -1.6076929074798323e-05 -0.00011260817896204998 -0.00090374065585777379 0.00026416022440420517 -0.00051611628399768556 8.7868525322583237e-06 -0.00034730951586538184 0.00053266369392420819 0.00068168080486341511 0.00025371903221078749 -6.7126545875328566e-07 -0.00042667955759468056 6.9187357317556077e-05 -3.9491523826633578e-06 -0.00081206696103003242 -6.0660237135502178e-05 -0.00051392739292507362 -0.0010408310315008469
leaf_weight=46947 1810 10469 459 1687 14496 2897 72 52 150 550 1530 864 83 1405 460 29972 249 94 623 449 6597 331 22901 794 56 64 128 50
leaf_count=46947 1810 10469 459 1687 14496 2897 72 52 150 550 1530 864 83 1405 460 29972 249 94 623 449 6597 331 22901 794 56 64 128 50
internal_value=2.57957e-06 8.28099e-05 0.000298538 -9.42226e-06 -5.21068e-06 -2.65832e-05 -0.000242763 3.06493e-05 0.000590882 0.000440419 2.99898e-05 -7.52093e-05 5.91452e-05 6.70349e-05 -0.000255094 -2.00624e-05 -0.000634913 3.17331e-06 0.000783319 4.36289e-05 3.35899e-05 -2.14636e-05 4.38691e-05 -0.000161656 -0.000163371 -0.00055737 -0.000141659 -0.000473622
internal_weight=146239 19062 3738 127177 124935 80610 2242 1956 1782 1009 15324 3303 12021 11874 1324 76919 371 1904 773 1979 44325 6928 37397 3691 1871 147 1815 299
internal_count=146239 19062 3738 127177 124935 80610 2242 1956 1782 1009 15324 3303 12021 11874 1324 76919 371 1904 773 1979 44325 6928 37397 3691 1871 147 1815 299
is_linear=0
shrinkage=0.03


Tree=32
num_leaves=29
num_cat=0
split_feature=4 3 10 0 3 7 7 3 0 0 5 7 0 5 10 4 9 0 3 5 10 9 0 4 0 0 10 9
split_gain=0.147495 0.226236 0.304219 0.130861 0.109188 0.0837376 0.0753772 0.0501387 0.109573 0.100218 0.0501139 0.0499658 0.0742113 0.0463595 0.0459117 0.0370492 0.034832 0.0315423 0.0545516 0.040149 0.0308764 0.0288695 0.0275299 0.0230797 0.0177623 0.0219917 0.00743637 0.00414981
threshold=0.96347182989120495 1.0000000180025095e-35 0.84943568706512462 0.44767388701438909 0.0035708658397197728 0.61992841958999645 0.99999997019767772 0.94475948810577404 0.5551418960094453 0.30863949656486517 0.94853985309600841 0.95000019669532787 0.20084044337272647 0.86727368831634533 0.50241470336914074 0.72688370943069469 0.57378903031349193 0.10732303559780122 0.15305906534194949 0.70178341865539562 0.091922048479318633 0.71575856208801281 0.41098499298095709 0.2664503306150437 0.5276104509830476 0.072757676243782057 0.91852140426635753 0.79223686456680309
decision_type=2 2 2 2 2 2 2 2 2 2 2 2 2 2 2 2 2 2 2 2 2 2 2 2 2 2 2 2
left_child=3 2 10 4 6 13 14 8 9 -3 21 12 -4 15 -1 -5 -15 19 -19 -6 -7 -2 -13 -8 25 -9 -22 -10
right_child=1 7 11 5 17 20 23 24 27 -11 -12 22 -14 16 -16 -17 -18 18 -20 -21 26 -23 -24 -25 -26 -27 -28 -29
leaf_value=-3.6872911682925641e-05 -2.2014798199143462e-05 4.2166842493865093e-05 0.00013730908397666065 -0.00010145782076641158 1.6936552443549392e-06 -0.0013730031515054482 -0.00019775960218336154 -2.7639070061798646e-06 -0.00056925960560657185 0.00033041339641635693 0.00094791585906639302 0.00086338526218117677 0.00066378463250454966 -0.0013377774939981675 1.0972113624474268e-05 -0.00066480543247544985 -0.00021210247540784477 2.5231627503454349e-05 0.00014061139239828629 0.00011546293929933155 -0.00028284663107580355 0.00051670076032186529 0.00040220948751407701 -1.1481024748120744e-05 0.00048328042293721449 -0.0001355810316824455 -0.00069667710189413282 -0.0010947954154403882
leaf_weight=46633 1810 9190 459 3187 24697 53 2862 2772 78 1238 52 593 550 51 29322 111 63 10142 5871 3156 109 94 180 801 54 1941 119 51
leaf_count=46633 1810 9190 459 3187 24697 53 2862 2772 78 1238 52 593 550 51 29322 111 63 10142 5871 3156 109 94 180 801 54 1941 119 51
internal_value=2.49846e-06 8.03355e-05 0.000289681 -9.14466e-06 -3.85711e-06 -0.000185129 -2.48182e-05 2.90723e-05 6.56619e-05 7.66777e-05 2.97321e-05 0.000573311 0.000427298 -0.000143009 -1.83631e-05 -0.000121347 -0.000742718 3.41194e-05 6.77224e-05 1.46928e-05 -0.000685661 3.03165e-06 0.000759943 -0.000157846 -5.13295e-05 -5.81015e-05 -0.0005122 -0.000800954
internal_weight=146239 19062 3738 127177 123484 3693 79618 15324 10557 10428 1956 1782 1009 3412 75955 3298 114 43866 16013 27853 281 1904 773 3663 4767 4713 228 129
internal_count=146239 19062 3738 127177 123484 3693 79618 15324 10557 10428 1956 1782 1009 3412 75955 3298 114 43866 16013 27853 281 1904 773 3663 4767 4713 228 129
is_linear=0
shrinkage=0.03


Tree=33
num_leaves=30
num_cat=0
split_feature=4 3 10 0 3 7 7 1 3 0 0 7 0 5 10 1 7 10 1 7 0 10 0 8 4 5 4 7 0
split_gain=0.138834 0.213037 0.28635 0.124461 0.101943 0.0692563 0.0678627 0.0501053 0.0471736 0.10329 0.0942804 0.0469102 0.0697433 0.0434148 0.0404874 0.0362953 0.0412671 0.0319678 0.0310964 0.0258262 0.059334 0.0399033 0.0257551 0.0240704 0.0235378 0.0232899 0.0188512 0.015225 0.0139522
threshold=0.96347182989120495 1.0000000180025095e-35 0.84943568706512462 0.5276104509830476 0.0035708658397197728 0.99999997019767772 0.18777916580438617 0.20121680200099948 0.94475948810577404 0.5551418960094453 0.30863949656486517 0.95000019669532787 0.20084044337272647 0.86727368831634533 0.50241470336914074 0.31265038251876837 0.5344933569431306 0.091922048479318633 0.63574001193046581 0.45262821018695837 0.31140993535518652 0.30272807180881506 0.41098499298095709 0.44071161746978765 0.27229496836662298 0.832239329814911 0.26347245275974279 0.79860928654670726 0.77249929308891307
decision_type=2 2 2 2 2 2 2 2 2 2 2 2 2 2 2 2 2 2 2 2 2 2 2 2 2 2 2 2 2
left_child=3 2 7 4 5 14 25 13 9 10 -3 12 -4 -2 -1 16 -10 -8 -11 21 -21 -6 -13 -9 -7 26 -5 -17 -19
right_child=1 8 11 6 19 24 17 23 15 18 -12 22 -14 -15 -16 27 -18 28 -20 20 -22 -23 -24 -25 -26 -27 -28 -29 -30
leaf_value=-3.6255455088472743e-05 -0.0001719314606733406 4.0901850346576275e-05 0.000133190709302857 -0.00010521536686698522 2.3603850943056775e-06 -0.00019173316437550897 -0.0011974115931217774 0.00027292335933709209 7.1897441222141254e-05 -0.00030654567895436482 0.00032050179532734142 0.00083748806844061825 0.00064387471769881141 0.00071788588822172276 8.3060868295396976e-06 -0.00026938409130457215 -0.00012768619434819895 -0.00030270976397774171 -0.0013186370133587049 -1.150900134271085e-06 -0.00041319186043317776 6.6185592993549017e-05 0.00039014990440846669 -5.1069742484668246e-05 -3.4452973435867008e-06 -0.00076833091541766161 -0.00049152231082662094 7.1539453570870946e-05 -0.00081060319632628695
leaf_weight=46947 921 9190 459 1687 14496 2897 72 714 2283 72 1238 593 550 51 29972 789 1572 218 57 6597 331 22901 180 270 794 56 128 123 81
leaf_count=46947 921 9190 459 1687 14496 2897 72 714 2283 72 1238 593 550 51 29972 789 1572 218 57 6597 331 22901 180 270 794 56 128 123 81
internal_value=2.42223e-06 7.794e-05 0.00028109 -8.87326e-06 -4.87297e-06 -2.49887e-05 -0.00023044 2.88424e-05 2.81882e-05 6.36831e-05 7.43861e-05 0.000556267 0.000414571 -0.000122088 -1.88528e-05 -4.97894e-05 -8.7122e-06 -0.000603865 -0.000777662 3.16421e-05 -2.12757e-05 4.15257e-05 0.000737266 0.000180978 -0.000152043 -0.000154763 -0.000134137 -0.000220112 -0.000450555
internal_weight=146239 19062 3738 127177 124935 80610 2242 1956 15324 10557 10428 1782 1009 972 76919 4767 3855 371 129 44325 6928 37397 773 984 3691 1871 1815 912 299
internal_count=146239 19062 3738 127177 124935 80610 2242 1956 15324 10557 10428 1782 1009 972 76919 4767 3855 371 129 44325 6928 37397 773 984 3691 1871 1815 912 299
is_linear=0
shrinkage=0.03


Tree=34
num_leaves=29
num_cat=0
split_feature=2 4 7 9 9 2 8 9 7 2 9 5 1 8 2 9 5 9 6 2 7 4 6 4 9 7 7 9
split_gain=0.935043 0.957599 0.208693 0.106278 0.0879876 0.0899068 0.0857863 0.0782836 0.0560101 0.0471925 0.0804077 0.0844998 0.0594429 0.0528144 0.0370144 0.0352317 0.0333938 0.0315346 0.0303083 0.0265054 0.0258066 0.0212579 0.0136562 0.0106987 0.00952565 0.00889821 0.0063736 0.000767904
threshold=0.99999991059303295 0.72042924165725719 0.99999997019767772 0.91607540845870983 0.84846675395965587 0.28198693692684179 0.017055916599929336 0.36869782209396368 0.55555564165115368 0.56459316611289989 0.34627203643321997 0.5481228530406953 0.47626285254955297 0.66330236196517955 0.85219076275825512 0.40672037005424505 0.52344182133674633 0.66538745164871227 0.72679468989372265 0.89268049597740184 0.35269668698310858 0.82041633129119884 0.11702126637101175 0.41562381386756903 0.99999600648880016 0.28414262831211096 0.18562263250350955 0.43582358956336981
decision_type=2 2 2 2 2 2 2 2 2 2 2 2 2 2 2 2 2 2 2 2 2 2 2 2 2 2 2 2
left_child=2 23 9 6 5 16 15 -7 20 10 11 -1 -12 18 21 -3 -4 -8 -11 -16 -5 -6 -15 25 -10 26 -2 -27
right_child=1 3 4 8 14 7 17 -9 24 13 12 -13 -14 22 19 -17 -18 -19 -20 -21 -22 -23 -24 -25 -26 27 -28 -29
leaf_value=-5.8495697452401124e-06 -0.00011102746481355237 0.0012709729464637708 -0.00024727218822957655 0.00041335360517013822 -0.00021864870031188197 0.00018082530246388496 -0.00019100573031042726 -0.00012247859896416074 0.00018361060928181056 2.356798306518369e-05 -1.928281205560504e-05 0.00012216595804307175 -9.0161870366368746e-05 -0.00046715544244081979 0.00044333619579015206 0.00083768968332571803 -0.00095835465985072801 0.00065857990644327337 -0.00048753085493691192 -0.00034700136487177385 0.0011572654216300022 -0.00071251679697125619 -0.00012103965141546899 0.00021246534447714636 -0.00018262307503719093 -0.0005423120242016513 0.00020468205950186077 -0.00021144675682810004
leaf_weight=18612 1710 218 2660 141 120 1051 94 2788 153 55207 37274 6165 15001 118 54 2082 64 64 104 120 76 422 1587 86 106 50 53 59
leaf_count=18612 1710 218 2660 141 120 1051 94 2788 153 55207 37274 6165 15001 118 54 2082 64 64 104 120 76 422 1587 86 106 50 53 59
internal_value=2.34643e-06 0.00041012 -1.17456e-05 0.000753117 -0.000168197 -0.00013311 0.000833406 -3.86593e-05 0.000332129 -3.22888e-06 -1.85587e-05 2.58825e-05 -3.968e-05 1.74353e-05 -0.000485551 0.000880115 -0.000265115 0.000134354 2.25519e-05 -8.4379e-05 0.000688126 -0.000608768 -0.000146779 -0.00010233 2.21323e-05 -0.000118405 -9.98239e-05 -0.000391075
internal_weight=146239 4892 141347 2934 7279 6563 2458 3839 476 134068 77052 24777 52275 57016 716 2300 2724 158 55311 174 217 542 1705 1958 259 1872 1763 109
internal_count=146239 4892 141347 2934 7279 6563 2458 3839 476 134068 77052 24777 52275 57016 716 2300 2724 158 55311 174 217 542 1705 1958 259 1872 1763 109
is_linear=0
shrinkage=0.03


Tree=35
num_leaves=29
num_cat=0
split_feature=2 4 0 9 0 2 4 6 2 4 2 9 3 6 2 0 6 4 6 2 10 0 9 0 0 9 9 6
